2 0 100 3 0.303673
3 0 100 3 0.696327
1 1 100 3 0.999997
2 1 100 3 3.31143e-06
1 2 100 3 0.00144963
2 2 100 3 0.727626
3 2 100 3 0.270924
1 3 100 3 0.00743985
2 3 100 3 0.496317
3 3 100 3 0.496243
2 4 100 3 0.646607
3 4 100 3 0.353393
1 5 100 3 0.0113277
2 5 100 3 0.934038
3 5 100 3 0.0546348
1 6 100 3 0.875336
2 6 100 3 0.000401186
3 6 100 3 0.124263
1 0 100 4 1.6733e-05
2 0 100 4 0.137039
3 0 100 4 0.228353
4 0 100 4 0.634591
1 1 100 4 0.999986
2 1 100 4 1.33342e-05
4 1 100 4 3.72449e-07
1 2 100 4 6.81204e-05
2 2 100 4 0.995254
3 2 100 4 0.00412748
4 2 100 4 0.0005504
1 3 100 4 0.000823628
2 3 100 4 0.205545
3 3 100 4 0.585104
4 3 100 4 0.208527
2 4 100 4 0.067859
3 4 100 4 0.747987
4 4 100 4 0.184154
1 5 100 4 0.0176606
2 5 100 4 0.191091
3 5 100 4 0.590279
4 5 100 4 0.200969
1 6 100 4 0.536505
2 6 100 4 0.00265541
3 6 100 4 0.407738
4 6 100 4 0.0531009
1 7 100 4 0.000404112
2 7 100 4 0.00189344
3 7 100 4 0.471982
4 7 100 4 0.52572
1 8 100 4 0.000245975
2 8 100 4 0.128607
3 8 100 4 0.0274718
4 8 100 4 0.843675
1 9 100 4 0.0388792
2 9 100 4 0.480695
3 9 100 4 0.470226
4 9 100 4 0.010199
1 10 100 4 0.00183458
2 10 100 4 0.00640451
3 10 100 4 0.203929
4 10 100 4 0.787832
1 11 100 4 0.00932631
2 11 100 4 0.00957022
3 11 100 4 0.460308
4 11 100 4 0.520795
1 12 100 4 0.000178704
2 12 100 4 0.0130602
3 12 100 4 0.290001
4 12 100 4 0.69676
1 13 100 4 0.98947
2 13 100 4 0.000218663
3 13 100 4 0.00241902
4 13 100 4 0.00789276
1 14 100 4 4.00797e-05
2 14 100 4 0.090883
3 14 100 4 0.735417
4 14 100 4 0.17366
1 15 100 4 0.99971
2 15 100 4 3.84256e-06
3 15 100 4 2.37024e-05
4 15 100 4 0.000262369
2 16 100 4 0.107989
3 16 100 4 0.882666
4 16 100 4 0.00934458
1 0 100 5 0.000262723
2 0 100 5 0.169473
3 0 100 5 0.269756
4 0 100 5 0.312481
5 0 100 5 0.248027
1 1 100 5 0.939248
2 1 100 5 3.93374e-07
3 1 100 5 1.19356e-06
4 1 100 5 0.0455631
5 1 100 5 0.0151873
1 2 100 5 0.00551483
2 2 100 5 0.800236
3 2 100 5 0.0409572
4 2 100 5 0.0557785
5 2 100 5 0.097513
1 3 100 5 0.016638
2 3 100 5 0.178203
3 3 100 5 0.206275
4 3 100 5 0.187195
5 3 100 5 0.411689
1 4 100 5 1.44965e-05
2 4 100 5 0.123976
3 4 100 5 0.485444
4 4 100 5 0.25446
5 4 100 5 0.136105
1 5 100 5 0.338341
2 5 100 5 0.0091505
3 5 100 5 0.237004
4 5 100 5 0.200965
5 5 100 5 0.214539
1 6 100 5 0.243405
2 6 100 5 0.244891
3 6 100 5 0.00546163
4 6 100 5 0.037683
5 6 100 5 0.468559
1 7 100 5 0.000660347
2 7 100 5 0.419537
3 7 100 5 0.118106
4 7 100 5 0.426516
5 7 100 5 0.0351815
1 8 100 5 0.27718
2 8 100 5 0.257889
3 8 100 5 0.000853478
4 8 100 5 0.282648
5 8 100 5 0.18143
1 9 100 5 0.0805033
2 9 100 5 0.0327744
3 9 100 5 0.0115711
4 9 100 5 0.046636
5 9 100 5 0.828515
1 10 100 5 0.34496
2 10 100 5 0.568799
3 10 100 5 0.00103142
4 10 100 5 0.018404
5 10 100 5 0.0668056
1 11 100 5 0.0072272
2 11 100 5 0.0244673
3 11 100 5 0.0528978
4 11 100 5 0.2055
5 11 100 5 0.709908
1 12 100 5 0.171822
2 12 100 5 0.271215
3 12 100 5 0.276061
4 12 100 5 0.274028
5 12 100 5 0.00687353
1 13 100 5 0.966571
3 13 100 5 1.21721e-05
4 13 100 5 0.000601058
5 13 100 5 0.0328162
1 14 100 5 0.00710133
2 14 100 5 0.883891
3 14 100 5 0.036964
4 14 100 5 0.00687081
5 14 100 5 0.0651724
1 15 100 5 0.02465
2 15 100 5 0.28514
3 15 100 5 0.645552
4 15 100 5 0.00112146
5 15 100 5 0.0435367
1 16 100 5 0.0120105
2 16 100 5 0.000143302
3 16 100 5 0.896957
4 16 100 5 0.0875434
5 16 100 5 0.0033458
1 17 100 5 2.88772e-06
3 17 100 5 0.999474
5 17 100 5 0.000523266
1 0 100 6 4.44017e-06
2 0 100 6 0.144099
3 0 100 6 0.206211
4 0 100 6 0.288808
5 0 100 6 0.209233
6 0 100 6 0.151645
1 1 100 6 0.999943
2 1 100 6 3.56318e-07
3 1 100 6 5.64028e-05
6 1 100 6 1.61761e-07
1 2 100 6 0.00365108
2 2 100 6 0.763735
3 2 100 6 0.0263195
4 2 100 6 0.0297962
5 2 100 6 0.121292
6 2 100 6 0.0552057
1 3 100 6 0.00511137
2 3 100 6 0.0862507
3 3 100 6 0.192964
4 3 100 6 0.153395
5 3 100 6 0.192372
6 3 100 6 0.369907
1 4 100 6 0.0116977
2 4 100 6 0.108919
3 4 100 6 0.366622
4 4 100 6 0.0895644
5 4 100 6 0.185649
6 4 100 6 0.237548
1 5 100 6 0.0252235
2 5 100 6 0.0484966
3 5 100 6 0.315396
4 5 100 6 0.152508
5 5 100 6 0.251259
6 5 100 6 0.207116
1 6 100 6 0.244102
2 6 100 6 0.144067
3 6 100 6 0.148603
4 6 100 6 0.146
5 6 100 6 0.171732
6 6 100 6 0.145496
1 7 100 6 0.0690782
2 7 100 6 0.0891004
3 7 100 6 0.0699143
4 7 100 6 0.081853
5 7 100 6 0.351185
6 7 100 6 0.33887
1 8 100 6 0.156987
2 8 100 6 0.151372
3 8 100 6 0.29277
4 8 100 6 0.145503
5 8 100 6 0.0886489
6 8 100 6 0.164719
1 9 100 6 0.199595
2 9 100 6 0.029058
3 9 100 6 0.0853082
4 9 100 6 0.301721
5 9 100 6 0.220668
6 9 100 6 0.16365
1 10 100 6 0.000589127
2 10 100 6 0.0995083
3 10 100 6 0.0211296
4 10 100 6 0.0578526
5 10 100 6 0.409303
6 10 100 6 0.411617
1 11 100 6 0.245036
2 11 100 6 0.312939
3 11 100 6 0.0699313
4 11 100 6 0.123492
5 11 100 6 0.184449
6 11 100 6 0.0641528
1 12 100 6 0.00224294
2 12 100 6 0.244826
3 12 100 6 0.604266
4 12 100 6 0.0317095
5 12 100 6 0.0219369
6 12 100 6 0.0950182
1 13 100 6 0.852319
2 13 100 6 0.00199045
3 13 100 6 0.00119331
4 13 100 6 0.0029976
5 13 100 6 0.0314139
6 13 100 6 0.110086
1 14 100 6 6.86394e-05
2 14 100 6 0.00892906
3 14 100 6 0.00312772
4 14 100 6 0.00283606
5 14 100 6 0.0763306
6 14 100 6 0.908708
2 15 100 6 0.517588
3 15 100 6 0.000163194
4 15 100 6 0.48193
5 15 100 6 3.1692e-05
6 15 100 6 0.000286537
2 16 100 6 0.85489
3 16 100 6 0.00625843
4 16 100 6 0.0718713
5 16 100 6 5.39453e-05
6 16 100 6 0.0669267
2 17 100 6 0.00868062
3 17 100 6 0.987255
4 17 100 6 0.00321442
5 17 100 6 0.000849845
2 18 100 6 0.00796099
3 18 100 6 0.990779
4 18 100 6 0.00126047
2 19 100 6 0.0363963
3 19 100 6 0.953761
4 19 100 6 0.00984288
2 20 100 6 0.896598
3 20 100 6 0.000695734
4 20 100 6 0.102706
2 21 100 6 0.0151352
3 21 100 6 0.956263
4 21 100 6 0.0262805
5 21 100 6 0.0023216
2 22 100 6 0.0519371
3 22 100 6 0.948063
1 23 100 6 1
2 24 100 6 0.988474
3 24 100 6 4.35478e-05
4 24 100 6 0.0114825
2 25 100 6 0.00399735
3 25 100 6 0.984848
6 25 100 6 0.0111546
1 0 100 7 0.000790265
2 0 100 7 0.0677301
3 0 100 7 0.102579
4 0 100 7 0.247345
5 0 100 7 0.281268
6 0 100 7 0.221144
7 0 100 7 0.0791438
1 1 100 7 0.993928
2 1 100 7 0.00607152
3 1 100 7 1.26565e-07
1 2 100 7 0.000825016
2 2 100 7 0.835551
3 2 100 7 0.0273473
4 2 100 7 0.0185682
5 2 100 7 0.0394263
6 2 100 7 0.052949
7 2 100 7 0.0253334
1 3 100 7 0.00135245
2 3 100 7 0.0457174
3 3 100 7 0.21636
4 3 100 7 0.126612
5 3 100 7 0.0668309
6 3 100 7 0.143521
7 3 100 7 0.399606
1 4 100 7 0.00556534
2 4 100 7 0.0320918
3 4 100 7 0.538367
4 4 100 7 0.128749
5 4 100 7 0.066182
6 4 100 7 0.11004
7 4 100 7 0.119004
1 5 100 7 0.0703493
2 5 100 7 0.0634346
3 5 100 7 0.193298
4 5 100 7 0.142251
5 5 100 7 0.0667472
6 5 100 7 0.134601
7 5 100 7 0.329319
1 6 100 7 0.156211
2 6 100 7 0.0464915
3 6 100 7 0.308701
4 6 100 7 0.0386766
5 6 100 7 0.144571
6 6 100 7 0.0928886
7 6 100 7 0.21246
1 7 100 7 0.339437
2 7 100 7 0.106068
3 7 100 7 0.067893
4 7 100 7 0.00356077
5 7 100 7 0.10322
6 7 100 7 0.208845
7 7 100 7 0.170976
1 8 100 7 0.233221
2 8 100 7 0.0056048
3 8 100 7 0.175979
4 8 100 7 0.0633003
5 8 100 7 0.00225945
6 8 100 7 0.177418
7 8 100 7 0.342216
1 9 100 7 0.421203
2 9 100 7 0.184553
3 9 100 7 0.100772
4 9 100 7 0.0541093
5 9 100 7 0.0730449
6 9 100 7 0.108186
7 9 100 7 0.0581312
1 10 100 7 0.01787
2 10 100 7 0.631109
3 10 100 7 0.271082
4 10 100 7 0.00875121
5 10 100 7 0.0122717
6 10 100 7 0.0238329
7 10 100 7 0.0350834
1 11 100 7 0.562941
2 11 100 7 0.01364
3 11 100 7 0.141597
4 11 100 7 0.0849692
5 11 100 7 0.0343139
6 11 100 7 0.130627
7 11 100 7 0.0319127
1 12 100 7 0.244855
2 12 100 7 0.298544
3 12 100 7 0.122631
4 12 100 7 0.0907715
5 12 100 7 0.101338
6 12 100 7 0.0825166
7 12 100 7 0.0593443
1 13 100 7 0.197254
2 13 100 7 0.178156
3 13 100 7 0.191172
4 13 100 7 0.0395902
5 13 100 7 0.0030346
6 13 100 7 0.186747
7 13 100 7 0.204046
1 14 100 7 0.0024955
2 14 100 7 0.294188
3 14 100 7 0.556865
4 14 100 7 0.0142953
5 14 100 7 0.00287125
6 14 100 7 0.00470473
7 14 100 7 0.12458
1 15 100 7 0.172994
2 15 100 7 0.473183
3 15 100 7 0.0197741
4 15 100 7 0.165534
5 15 100 7 0.0347938
6 15 100 7 0.0314023
7 15 100 7 0.102318
1 16 100 7 0.000138309
2 16 100 7 0.00967745
3 16 100 7 0.443331
4 16 100 7 0.00685192
5 16 100 7 0.021452
6 16 100 7 0.0706297
7 16 100 7 0.447919
1 17 100 7 6.80057e-06
2 17 100 7 0.0159572
3 17 100 7 0.0203562
4 17 100 7 0.0372801
5 17 100 7 0.0037337
6 17 100 7 0.0633664
7 17 100 7 0.8593
1 18 100 7 0.0307348
2 18 100 7 0.0015841
3 18 100 7 0.120925
4 18 100 7 0.0109939
5 18 100 7 0.021715
6 18 100 7 0.163534
7 18 100 7 0.650514
1 19 100 7 1.1187e-06
2 19 100 7 0.0698462
3 19 100 7 4.12519e-05
4 19 100 7 0.000137161
5 19 100 7 0.000224782
6 19 100 7 0.444112
7 19 100 7 0.485638
1 20 100 7 2.07127e-05
2 20 100 7 0.00670433
3 20 100 7 0.0806558
4 20 100 7 0.911408
5 20 100 7 0.000796655
6 20 100 7 0.000277124
7 20 100 7 0.00013717
2 21 100 7 8.38955e-06
3 21 100 7 0.00190404
4 21 100 7 0.01273
5 21 100 7 0.011031
6 21 100 7 0.0171129
7 21 100 7 0.957214
1 0 100 8 0.00278595
2 0 100 8 0.0899307
3 0 100 8 0.133613
4 0 100 8 0.174978
5 0 100 8 0.177279
6 0 100 8 0.177734
7 0 100 8 0.153167
8 0 100 8 0.0905128
1 1 100 8 0.992827
2 1 100 8 3.74776e-05
3 1 100 8 0.00713026
5 1 100 8 2.00534e-06
6 1 100 8 6.55722e-07
7 1 100 8 1.24266e-07
8 1 100 8 2.69888e-06
1 2 100 8 0.000815991
2 2 100 8 0.719233
3 2 100 8 0.0541206
4 2 100 8 0.0518609
5 2 100 8 0.0622821
6 2 100 8 0.0335105
7 2 100 8 0.0432301
8 2 100 8 0.0349465
1 3 100 8 0.00448599
2 3 100 8 0.0342944
3 3 100 8 0.149645
4 3 100 8 0.126406
5 3 100 8 0.117703
6 3 100 8 0.142656
7 3 100 8 0.161433
8 3 100 8 0.263377
1 4 100 8 0.013308
2 4 100 8 0.0300247
3 4 100 8 0.190406
4 4 100 8 0.158654
5 4 100 8 0.178308
6 4 100 8 0.151239
7 4 100 8 0.127044
8 4 100 8 0.151017
1 5 100 8 0.0162009
2 5 100 8 0.0612553
3 5 100 8 0.158955
4 5 100 8 0.142066
5 5 100 8 0.161824
6 5 100 8 0.119978
7 5 100 8 0.117719
8 5 100 8 0.222002
1 6 100 8 0.187175
2 6 100 8 0.100164
3 6 100 8 0.174705
4 6 100 8 0.0725661
5 6 100 8 0.0814054
6 6 100 8 0.0918309
7 6 100 8 0.139728
8 6 100 8 0.152426
1 7 100 8 0.103198
2 7 100 8 0.200407
3 7 100 8 0.0879569
4 7 100 8 0.11062
5 7 100 8 0.0645772
6 7 100 8 0.0259269
7 7 100 8 0.177079
8 7 100 8 0.230236
1 8 100 8 0.209239
2 8 100 8 0.22163
3 8 100 8 0.120216
4 8 100 8 0.118271
5 8 100 8 0.00912567
6 8 100 8 0.0801288
7 8 100 8 0.117738
8 8 100 8 0.123651
1 9 100 8 0.307329
2 9 100 8 0.167786
3 9 100 8 0.112011
4 9 100 8 0.0894704
5 9 100 8 0.0289205
6 9 100 8 0.00498832
7 9 100 8 0.157934
8 9 100 8 0.131562
1 10 100 8 0.0918497
2 10 100 8 0.195202
3 10 100 8 0.280134
4 10 100 8 0.0718593
5 10 100 8 0.0774024
6 10 100 8 0.132371
7 10 100 8 0.135068
8 10 100 8 0.0161143
1 11 100 8 0.507837
2 11 100 8 0.141914
3 11 100 8 0.140345
4 11 100 8 0.04831
5 11 100 8 0.00141388
6 11 100 8 0.000816655
7 11 100 8 0.0609292
8 11 100 8 0.0984342
1 12 100 8 0.129878
2 12 100 8 0.0713953
3 12 100 8 0.0897999
4 12 100 8 0.0733178
5 12 100 8 0.157318
6 12 100 8 0.123706
7 12 100 8 0.203271
8 12 100 8 0.151315
1 13 100 8 0.197521
2 13 100 8 0.0816511
3 13 100 8 0.165894
4 13 100 8 0.0355788
5 13 100 8 0.0839463
6 13 100 8 0.0993247
7 13 100 8 0.161229
8 13 100 8 0.174856
1 14 100 8 0.136298
2 14 100 8 0.101067
3 14 100 8 0.192335
4 14 100 8 0.0505288
5 14 100 8 0.000585966
6 14 100 8 0.152261
7 14 100 8 0.184964
8 14 100 8 0.181961
1 15 100 8 0.106661
2 15 100 8 0.143427
3 15 100 8 0.218271
4 15 100 8 0.114744
5 15 100 8 0.0752704
6 15 100 8 0.0883725
7 15 100 8 0.145059
8 15 100 8 0.108195
1 16 100 8 0.379396
2 16 100 8 0.00286379
3 16 100 8 0.514819
4 16 100 8 2.08224e-05
5 16 100 8 0.00637266
6 16 100 8 0.00243178
7 16 100 8 0.00862161
8 16 100 8 0.085474
1 17 100 8 0.00221192
2 17 100 8 0.322264
3 17 100 8 0.315845
4 17 100 8 0.317215
5 17 100 8 0.000205314
6 17 100 8 7.92508e-05
7 17 100 8 0.000120711
8 17 100 8 0.0420586
1 18 100 8 0.864024
2 18 100 8 0.0884455
3 18 100 8 0.000245201
4 18 100 8 0.0144332
5 18 100 8 0.0226278
6 18 100 8 0.00146703
7 18 100 8 0.00513677
8 18 100 8 0.00362099
1 19 100 8 0.000204861
2 19 100 8 0.00244916
4 19 100 8 5.96549e-06
5 19 100 8 0.000164053
6 19 100 8 0.00147081
7 19 100 8 0.0131583
8 19 100 8 0.982547
1 0 100 9 8.44021e-05
2 0 100 9 0.0663182
3 0 100 9 0.136388
4 0 100 9 0.167871
5 0 100 9 0.143345
6 0 100 9 0.11661
7 0 100 9 0.160048
8 0 100 9 0.126233
9 0 100 9 0.0831017
1 1 100 9 0.985608
2 1 100 9 0.00313656
3 1 100 9 0.0112542
5 1 100 9 1.6777e-07
8 1 100 9 1.11069e-06
1 2 100 9 0.000859785
2 2 100 9 0.75954
3 2 100 9 0.0339841
4 2 100 9 0.0567101
5 2 100 9 0.0556913
6 2 100 9 0.0310278
7 2 100 9 0.0264051
8 2 100 9 0.0173089
9 2 100 9 0.0184731
1 3 100 9 0.00169558
2 3 100 9 0.0280874
3 3 100 9 0.118982
4 3 100 9 0.0888804
5 3 100 9 0.106153
6 3 100 9 0.173941
7 3 100 9 0.116255
8 3 100 9 0.137298
9 3 100 9 0.228707
1 4 100 9 0.00255308
2 4 100 9 0.0615578
3 4 100 9 0.18787
4 4 100 9 0.0726207
5 4 100 9 0.175064
6 4 100 9 0.184796
7 4 100 9 0.103513
8 4 100 9 0.101629
9 4 100 9 0.110398
1 5 100 9 0.0368358
2 5 100 9 0.0433206
3 5 100 9 0.0874431
4 5 100 9 0.157504
5 5 100 9 0.128272
6 5 100 9 0.116703
7 5 100 9 0.109012
8 5 100 9 0.142644
9 5 100 9 0.178265
1 6 100 9 0.148455
2 6 100 9 0.111127
3 6 100 9 0.178578
4 6 100 9 0.0937904
5 6 100 9 0.0587672
6 6 100 9 0.103309
7 6 100 9 0.0593687
8 6 100 9 0.151547
9 6 100 9 0.0950576
1 7 100 9 0.038434
2 7 100 9 0.120013
3 7 100 9 0.0269838
4 7 100 9 0.0624116
5 7 100 9 0.145529
6 7 100 9 0.129353
7 7 100 9 0.118402
8 7 100 9 0.162165
9 7 100 9 0.196709
1 8 100 9 0.115612
2 8 100 9 0.000209501
3 8 100 9 0.0422703
4 8 100 9 0.0358785
5 8 100 9 0.138903
6 8 100 9 0.123455
7 8 100 9 0.153548
8 8 100 9 0.218809
9 8 100 9 0.171314
1 9 100 9 0.178387
2 9 100 9 0.0591561
3 9 100 9 0.0897843
4 9 100 9 0.0620636
5 9 100 9 0.078746
6 9 100 9 0.0873363
7 9 100 9 0.0947496
8 9 100 9 0.171381
9 9 100 9 0.178396
1 10 100 9 0.201655
2 10 100 9 0.0820908
3 10 100 9 0.0627173
4 10 100 9 0.0426759
5 10 100 9 0.113089
6 10 100 9 0.0115547
7 10 100 9 0.174561
8 10 100 9 0.185044
9 10 100 9 0.126612
1 11 100 9 0.258454
2 11 100 9 0.0476063
3 11 100 9 0.159962
4 11 100 9 0.160729
5 11 100 9 0.0224421
6 11 100 9 0.00303891
7 11 100 9 0.0150321
8 11 100 9 0.182099
9 11 100 9 0.150636
1 12 100 9 0.175757
2 12 100 9 0.306044
3 12 100 9 0.179313
4 12 100 9 0.0597087
5 12 100 9 0.000544399
6 12 100 9 0.000374965
7 12 100 9 0.0269996
8 12 100 9 0.106457
9 12 100 9 0.144801
1 13 100 9 0.237247
2 13 100 9 0.00251942
3 13 100 9 0.00189498
4 13 100 9 0.00949163
5 13 100 9 0.0240499
6 13 100 9 0.0733953
7 13 100 9 0.0169819
8 13 100 9 0.0149475
9 13 100 9 0.619472
1 14 100 9 0.00126496
2 14 100 9 0.0219171
3 14 100 9 0.00719186
4 14 100 9 0.303492
5 14 100 9 0.37203
6 14 100 9 0.00289636
7 14 100 9 0.0038239
8 14 100 9 0.00392456
9 14 100 9 0.283459
1 15 100 9 0.0865401
2 15 100 9 0.0088767
3 15 100 9 0.784046
4 15 100 9 0.00910429
5 15 100 9 0.0870105
6 15 100 9 0.00279863
7 15 100 9 0.0172994
8 15 100 9 0.000154155
9 15 100 9 0.00417018
1 16 100 9 0.000405317
2 16 100 9 0.912004
3 16 100 9 0.000801902
4 16 100 9 0.00126493
5 16 100 9 0.000780176
6 16 100 9 0.00041037
7 16 100 9 0.000113056
8 16 100 9 0.00255303
9 16 100 9 0.0816673
1 17 100 9 6.10003e-05
2 17 100 9 0.166714
3 17 100 9 0.1685
4 17 100 9 0.169729
5 17 100 9 0.167161
6 17 100 9 0.167052
7 17 100 9 0.160782
1 18 100 9 0.00549557
2 18 100 9 0.411943
4 18 100 9 5.04558e-06
6 18 100 9 3.10778e-06
7 18 100 9 0.00467619
8 18 100 9 0.477932
9 18 100 9 0.0999453
1 19 100 9 2.37294e-05
2 19 100 9 0.000170062
4 19 100 9 0.00433796
5 19 100 9 0.0342324
6 19 100 9 0.000467859
7 19 100 9 0.127889
8 19 100 9 9.2018e-05
9 19 100 9 0.832787
3 20 100 9 0.19518
4 20 100 9 0.234919
6 20 100 9 0.568009
7 20 100 9 0.00125066
9 20 100 9 0.000641468
1 0 100 10 0.00173566
2 0 100 10 0.0613069
3 0 100 10 0.122426
4 0 100 10 0.160354
5 0 100 10 0.154539
6 0 100 10 0.114752
7 0 100 10 0.109627
8 0 100 10 0.106423
9 0 100 10 0.0926586
10 0 100 10 0.076178
1 1 100 10 0.968605
2 1 100 10 0.0104867
3 1 100 10 0.00238292
4 1 100 10 0.00899549
5 1 100 10 1.16318e-06
6 1 100 10 3.76221e-06
7 1 100 10 0.00476054
9 1 100 10 0.00476446
1 2 100 10 0.00283776
2 2 100 10 0.704607
3 2 100 10 0.0404893
4 2 100 10 0.0321127
5 2 100 10 0.0743163
6 2 100 10 0.091131
7 2 100 10 0.00858967
8 2 100 10 0.0133523
9 2 100 10 0.0158433
10 2 100 10 0.0167203
1 3 100 10 0.0015733
2 3 100 10 0.0274495
3 3 100 10 0.0579219
4 3 100 10 0.0651528
5 3 100 10 0.0874013
6 3 100 10 0.14394
7 3 100 10 0.169233
8 3 100 10 0.133353
9 3 100 10 0.139022
10 3 100 10 0.174954
1 4 100 10 0.0157914
2 4 100 10 0.0633361
3 4 100 10 0.225694
4 4 100 10 0.0760783
5 4 100 10 0.0865098
6 4 100 10 0.119865
7 4 100 10 0.108176
8 4 100 10 0.0968154
9 4 100 10 0.102757
10 4 100 10 0.104977
1 5 100 10 0.0140496
2 5 100 10 0.0347249
3 5 100 10 0.0825389
4 5 100 10 0.112664
5 5 100 10 0.093536
6 5 100 10 0.106637
7 5 100 10 0.143121
8 5 100 10 0.150347
9 5 100 10 0.105701
10 5 100 10 0.156681
1 6 100 10 0.11605
2 6 100 10 0.0675729
3 6 100 10 0.122657
4 6 100 10 0.0652918
5 6 100 10 0.0593198
6 6 100 10 0.0690678
7 6 100 10 0.127268
8 6 100 10 0.106989
9 6 100 10 0.16478
10 6 100 10 0.101004
1 7 100 10 0.0137347
2 7 100 10 0.0760828
3 7 100 10 0.0722139
4 7 100 10 0.0585658
5 7 100 10 0.0400952
6 7 100 10 0.103286
7 7 100 10 0.101768
8 7 100 10 0.190006
9 7 100 10 0.131492
10 7 100 10 0.212756
1 8 100 10 0.134786
2 8 100 10 0.0553089
3 8 100 10 0.14116
4 8 100 10 0.0679135
5 8 100 10 0.0515299
6 8 100 10 0.0605909
7 8 100 10 0.063646
8 8 100 10 0.126242
9 8 100 10 0.163493
10 8 100 10 0.135329
1 9 100 10 0.0513242
2 9 100 10 0.119471
3 9 100 10 0.167814
4 9 100 10 0.0787249
5 9 100 10 0.0759322
6 9 100 10 0.0735731
7 9 100 10 0.0564384
8 9 100 10 0.0679183
9 9 100 10 0.146473
10 9 100 10 0.162331
1 10 100 10 0.115893
2 10 100 10 0.0721857
3 10 100 10 0.0717219
4 10 100 10 0.0847244
5 10 100 10 0.0499477
6 10 100 10 0.0955263
7 10 100 10 0.015168
8 10 100 10 0.135838
9 10 100 10 0.165577
10 10 100 10 0.193418
1 11 100 10 0.113637
2 11 100 10 0.133829
3 11 100 10 0.116686
4 11 100 10 0.119063
5 11 100 10 0.0359678
6 11 100 10 0.0375658
7 11 100 10 0.0755427
8 11 100 10 0.0503003
9 11 100 10 0.184291
10 11 100 10 0.133118
1 12 100 10 0.102936
2 12 100 10 0.0901938
3 12 100 10 0.060393
4 12 100 10 0.00819659
5 12 100 10 0.0525724
6 12 100 10 0.0446061
7 12 100 10 0.0412395
8 12 100 10 0.130887
9 12 100 10 0.215447
10 12 100 10 0.253528
1 13 100 10 0.191722
2 13 100 10 0.0230291
3 13 100 10 0.0975871
4 13 100 10 0.042016
5 13 100 10 0.0602448
6 13 100 10 0.0509089
7 13 100 10 0.0178729
8 13 100 10 0.133434
9 13 100 10 0.162107
10 13 100 10 0.221078
1 14 100 10 0.104252
2 14 100 10 0.00618971
3 14 100 10 0.0849008
4 14 100 10 0.00611152
5 14 100 10 0.0842353
6 14 100 10 0.15987
7 14 100 10 0.103917
8 14 100 10 0.148161
9 14 100 10 0.179702
10 14 100 10 0.122661
1 15 100 10 0.193613
2 15 100 10 0.0390004
3 15 100 10 0.2136
4 15 100 10 0.150147
5 15 100 10 0.197887
6 15 100 10 0.0980001
7 15 100 10 0.0684022
8 15 100 10 0.00908373
9 15 100 10 0.00079155
10 15 100 10 0.0294754
1 16 100 10 0.178543
2 16 100 10 0.219913
3 16 100 10 0.172101
4 16 100 10 0.00201417
5 16 100 10 0.00228962
6 16 100 10 0.0294658
7 16 100 10 0.0257446
8 16 100 10 0.00572154
9 16 100 10 0.132214
10 16 100 10 0.231993
1 17 100 10 0.000156828
2 17 100 10 0.694173
3 17 100 10 0.127841
4 17 100 10 0.00192876
5 17 100 10 0.00311949
6 17 100 10 0.00287072
7 17 100 10 0.0985643
8 17 100 10 0.0122417
9 17 100 10 0.000344305
10 17 100 10 0.0587594
1 18 100 10 0.000138955
2 18 100 10 0.412069
3 18 100 10 0.0408451
4 18 100 10 0.013045
5 18 100 10 0.000978491
6 18 100 10 0.000951483
7 18 100 10 0.000403086
8 18 100 10 0.0111063
9 18 100 10 0.000135147
10 18 100 10 0.520328
1 19 100 10 0.029469
2 19 100 10 0.275709
3 19 100 10 0.264069
4 19 100 10 0.272618
5 19 100 10 0.00135887
6 19 100 10 5.51638e-05
7 19 100 10 0.00643732
8 19 100 10 0.00145854
9 19 100 10 0.148751
10 19 100 10 7.5019e-05
1 20 100 10 6.75055e-06
2 20 100 10 0.000633186
3 20 100 10 0.622502
4 20 100 10 0.0201671
5 20 100 10 8.5643e-05
6 20 100 10 0.000251877
7 20 100 10 0.342942
8 20 100 10 0.00241785
9 20 100 10 0.010491
10 20 100 10 0.000502925
2 21 100 10 0.000397157
3 21 100 10 0.00139256
4 21 100 10 0.000603182
5 21 100 10 0.000665847
6 21 100 10 0.000411958
7 21 100 10 0.00150851
8 21 100 10 0.000667543
9 21 100 10 0.0526408
10 21 100 10 0.941712
2 22 100 10 0.000428043
3 22 100 10 0.00070507
4 22 100 10 2.07965e-05
5 22 100 10 0.00362052
6 22 100 10 0.263845
7 22 100 10 0.0227009
8 22 100 10 0.00362052
9 22 100 10 0.00403517
10 22 100 10 0.701024
1 0 100 11 1.23315e-06
2 0 100 11 0.0624983
3 0 100 11 0.133418
4 0 100 11 0.154209
5 0 100 11 0.160283
6 0 100 11 0.122287
7 0 100 11 0.0759913
8 0 100 11 0.0693491
9 0 100 11 0.0816316
10 0 100 11 0.0905148
11 0 100 11 0.0498166
1 1 100 11 0.992977
2 1 100 11 0.00255125
3 1 100 11 0.00235193
4 1 100 11 9.45146e-07
5 1 100 11 8.76953e-07
6 1 100 11 9.88066e-07
8 1 100 11 0.0021056
9 1 100 11 6.28705e-07
10 1 100 11 1.0125e-05
11 1 100 11 2.30264e-07
1 2 100 11 0.000535203
2 2 100 11 0.685454
3 2 100 11 0.0375986
4 2 100 11 0.046863
5 2 100 11 0.0576403
6 2 100 11 0.135091
7 2 100 11 0.0128951
8 2 100 11 0.00371624
9 2 100 11 0.0035032
10 2 100 11 0.0133035
11 2 100 11 0.00340075
1 3 100 11 0.00147572
2 3 100 11 0.0106994
3 3 100 11 0.0264326
4 3 100 11 0.0327679
5 3 100 11 0.0621624
6 3 100 11 0.0860476
7 3 100 11 0.185752
8 3 100 11 0.156905
9 3 100 11 0.141798
10 3 100 11 0.101522
11 3 100 11 0.194437
1 4 100 11 0.0027213
2 4 100 11 0.0262415
3 4 100 11 0.0989324
4 4 100 11 0.054386
5 4 100 11 0.0356633
6 4 100 11 0.0790274
7 4 100 11 0.165934
8 4 100 11 0.150643
9 4 100 11 0.155019
10 4 100 11 0.142523
11 4 100 11 0.0889086
1 5 100 11 0.0169276
2 5 100 11 0.0113309
3 5 100 11 0.051441
4 5 100 11 0.0431857
5 5 100 11 0.0541182
6 5 100 11 0.0791631
7 5 100 11 0.155622
8 5 100 11 0.185905
9 5 100 11 0.128152
10 5 100 11 0.0943615
11 5 100 11 0.179793
1 6 100 11 0.112462
2 6 100 11 0.0587793
3 6 100 11 0.148818
4 6 100 11 0.0769399
5 6 100 11 0.055854
6 6 100 11 0.0451125
7 6 100 11 0.0400147
8 6 100 11 0.111736
9 6 100 11 0.0809265
10 6 100 11 0.164262
11 6 100 11 0.105094
1 7 100 11 0.00611283
2 7 100 11 0.106006
3 7 100 11 0.0972355
4 7 100 11 0.108025
5 7 100 11 0.0597453
6 7 100 11 0.0845705
7 7 100 11 0.0831885
8 7 100 11 0.109608
9 7 100 11 0.095685
10 7 100 11 0.0715688
11 7 100 11 0.178255
1 8 100 11 0.0890054
2 8 100 11 0.0359864
3 8 100 11 0.0782958
4 8 100 11 0.0635088
5 8 100 11 0.0610562
6 8 100 11 0.0786771
7 8 100 11 0.0622679
8 8 100 11 0.0940103
9 8 100 11 0.126918
10 8 100 11 0.135207
11 8 100 11 0.175067
1 9 100 11 0.122273
2 9 100 11 0.142055
3 9 100 11 0.156379
4 9 100 11 0.0688745
5 9 100 11 0.00352529
6 9 100 11 0.0105879
7 9 100 11 0.0672195
8 9 100 11 0.0851297
9 9 100 11 0.090554
10 9 100 11 0.125848
11 9 100 11 0.127555
1 10 100 11 0.0412612
2 10 100 11 0.125363
3 10 100 11 0.170548
4 10 100 11 0.122103
5 10 100 11 0.017549
6 10 100 11 0.0426378
7 10 100 11 0.0756062
8 10 100 11 0.0742876
9 10 100 11 0.103553
10 10 100 11 0.0902485
11 10 100 11 0.136842
1 11 100 11 0.105457
2 11 100 11 0.0834072
3 11 100 11 0.15689
4 11 100 11 0.107596
5 11 100 11 0.0252693
6 11 100 11 0.0552675
7 11 100 11 0.0242984
8 11 100 11 0.104856
9 11 100 11 0.0936022
10 11 100 11 0.162486
11 11 100 11 0.0808711
1 12 100 11 0.0542464
2 12 100 11 0.173728
3 12 100 11 0.103799
4 12 100 11 0.165761
5 12 100 11 0.000482219
6 12 100 11 0.026327
7 12 100 11 0.0733914
8 12 100 11 0.0430857
9 12 100 11 0.152403
10 12 100 11 0.0785602
11 12 100 11 0.128217
1 13 100 11 0.028051
2 13 100 11 0.0515894
3 13 100 11 0.0943548
4 13 100 11 0.0214459
5 13 100 11 0.0801174
6 13 100 11 0.046442
7 13 100 11 0.0277238
8 13 100 11 0.111709
9 13 100 11 0.134336
10 13 100 11 0.172724
11 13 100 11 0.231507
1 14 100 11 0.124571
2 14 100 11 0.252357
3 14 100 11 0.0223564
4 14 100 11 0.13
5 14 100 11 0.0197887
6 14 100 11 0.00526435
7 14 100 11 0.00310795
8 14 100 11 0.0042299
9 14 100 11 0.220867
10 14 100 11 0.0592546
11 14 100 11 0.158203
1 15 100 11 0.137501
2 15 100 11 0.0117076
3 15 100 11 0.0118435
4 15 100 11 0.0755798
5 15 100 11 0.120316
6 15 100 11 0.108943
7 15 100 11 0.0301107
8 15 100 11 0.0727527
9 15 100 11 0.199274
10 15 100 11 0.122734
11 15 100 11 0.109237
1 16 100 11 0.206579
2 16 100 11 0.00412889
3 16 100 11 0.226105
4 16 100 11 0.0457895
5 16 100 11 0.00104289
6 16 100 11 0.00142858
7 16 100 11 0.00287608
8 16 100 11 0.000408828
9 16 100 11 0.0574763
10 16 100 11 0.220654
11 16 100 11 0.233512
1 17 100 11 9.85292e-06
2 17 100 11 0.0153926
3 17 100 11 0.522232
4 17 100 11 0.000224079
5 17 100 11 2.44655e-05
6 17 100 11 0.00130712
7 17 100 11 0.000795289
8 17 100 11 0.221825
9 17 100 11 0.000442903
10 17 100 11 0.000356511
11 17 100 11 0.23739
1 18 100 11 0.496968
2 18 100 11 0.0578245
3 18 100 11 0.0911342
4 18 100 11 0.0828971
5 18 100 11 0.000400999
6 18 100 11 3.50982e-05
7 18 100 11 0.00321472
8 18 100 11 0.00482172
9 18 100 11 0.0912297
10 18 100 11 0.0270326
11 18 100 11 0.144441
2 19 100 11 0.355259
3 19 100 11 0.0964783
4 19 100 11 0.468933
5 19 100 11 0.000965847
6 19 100 11 0.0610705
7 19 100 11 0.00127001
8 19 100 11 0.00115666
9 19 100 11 0.00111122
10 19 100 11 0.00329878
11 19 100 11 0.0104565
2 20 100 11 0.0435141
3 20 100 11 0.923836
4 20 100 11 0.01575
5 20 100 11 0.000465736
8 20 100 11 0.00906919
10 20 100 11 0.000107955
11 20 100 11 0.00725735
2 21 100 11 0.0186414
3 21 100 11 0.0221593
4 21 100 11 0.00101616
5 21 100 11 9.47681e-06
6 21 100 11 2.30661e-05
7 21 100 11 0.95786
8 21 100 11 9.75054e-05
10 21 100 11 0.000192722
2 22 100 11 0.762936
3 22 100 11 0.231158
4 22 100 11 0.00260492
6 22 100 11 2.58347e-05
7 22 100 11 0.00198239
8 22 100 11 0.00036619
10 22 100 11 0.000926193
1 23 100 11 0.999984
2 23 100 11 3.46699e-06
3 23 100 11 1.08151e-05
4 23 100 11 1.8373e-06
2 24 100 11 0.0334749
3 24 100 11 0.0476659
4 24 100 11 0.00306611
5 24 100 11 0.915793
2 25 100 11 0.88857
3 25 100 11 0.0962676
4 25 100 11 0.000531014
7 25 100 11 0.0131079
8 25 100 11 0.000251842
10 25 100 11 0.00127105
1 0 100 12 4.14242e-07
2 0 100 12 0.0565742
3 0 100 12 0.128508
4 0 100 12 0.159435
5 0 100 12 0.150935
6 0 100 12 0.122324
7 0 100 12 0.0864715
8 0 100 12 0.0629752
9 0 100 12 0.0412917
10 0 100 12 0.0658704
11 0 100 12 0.0756472
12 0 100 12 0.0499669
1 1 100 12 0.989021
2 1 100 12 8.51567e-05
3 1 100 12 0.00269304
4 1 100 12 0.00271007
5 1 100 12 2.92879e-07
7 1 100 12 8.92218e-05
9 1 100 12 0.00270068
10 1 100 12 1.0858e-07
11 1 100 12 0.00270048
1 2 100 12 0.000135576
2 2 100 12 0.755739
3 2 100 12 0.0319873
4 2 100 12 0.0421755
5 2 100 12 0.0483058
6 2 100 12 0.0364695
7 2 100 12 0.0195684
8 2 100 12 0.0192456
9 2 100 12 0.0116416
10 2 100 12 0.0160665
11 2 100 12 0.00957383
12 2 100 12 0.0090909
1 3 100 12 0.00107609
2 3 100 12 0.0119287
3 3 100 12 0.0276974
4 3 100 12 0.0255329
5 3 100 12 0.0465025
6 3 100 12 0.0877136
7 3 100 12 0.134367
8 3 100 12 0.147755
9 3 100 12 0.150597
10 3 100 12 0.109532
11 3 100 12 0.098048
12 3 100 12 0.15925
1 4 100 12 0.00542621
2 4 100 12 0.0124217
3 4 100 12 0.103507
4 4 100 12 0.0281509
5 4 100 12 0.0403455
6 4 100 12 0.0645388
7 4 100 12 0.11445
8 4 100 12 0.10933
9 4 100 12 0.161454
10 4 100 12 0.157068
11 4 100 12 0.124048
12 4 100 12 0.0792594
1 5 100 12 0.0115584
2 5 100 12 0.0210481
3 5 100 12 0.0532122
4 5 100 12 0.0515332
5 5 100 12 0.0440778
6 5 100 12 0.0532752
7 5 100 12 0.106755
8 5 100 12 0.174553
9 5 100 12 0.145372
10 5 100 12 0.111625
11 5 100 12 0.091895
12 5 100 12 0.135095
1 6 100 12 0.0673464
2 6 100 12 0.040175
3 6 100 12 0.100041
4 6 100 12 0.0215965
5 6 100 12 0.0371593
6 6 100 12 0.0535704
7 6 100 12 0.0647959
8 6 100 12 0.0536393
9 6 100 12 0.141281
10 6 100 12 0.142871
11 6 100 12 0.156491
12 6 100 12 0.121033
1 7 100 12 0.000156305
2 7 100 12 0.0480383
3 7 100 12 0.033937
4 7 100 12 0.0228964
5 7 100 12 0.00834968
6 7 100 12 0.0806922
7 7 100 12 0.0888361
8 7 100 12 0.0796723
9 7 100 12 0.152447
10 7 100 12 0.125265
11 7 100 12 0.153097
12 7 100 12 0.206612
1 8 100 12 0.0960656
2 8 100 12 0.0519072
3 8 100 12 0.119124
4 8 100 12 0.0900788
5 8 100 12 0.0675485
6 8 100 12 0.0880887
7 8 100 12 0.0297698
8 8 100 12 0.074366
9 8 100 12 0.122791
10 8 100 12 0.106329
11 8 100 12 0.0786716
12 8 100 12 0.0752596
1 9 100 12 0.123385
2 9 100 12 0.0390597
3 9 100 12 0.140879
4 9 100 12 0.0387054
5 9 100 12 0.0503497
6 9 100 12 0.0300579
7 9 100 12 0.0374851
8 9 100 12 0.0580988
9 9 100 12 0.0557271
10 9 100 12 0.110378
11 9 100 12 0.161464
12 9 100 12 0.15441
1 10 100 12 0.0585373
2 10 100 12 0.100541
3 10 100 12 0.0618177
4 10 100 12 0.0713572
5 10 100 12 0.0184732
6 10 100 12 0.0164624
7 10 100 12 0.0520152
8 10 100 12 0.114362
9 10 100 12 0.102794
10 10 100 12 0.118738
11 10 100 12 0.121171
12 10 100 12 0.163731
1 11 100 12 0.130339
2 11 100 12 0.000305087
3 11 100 12 0.0966171
4 11 100 12 0.053223
5 11 100 12 0.0745855
6 11 100 12 0.0319452
7 11 100 12 0.00108887
8 11 100 12 0.00447894
9 11 100 12 0.180194
10 11 100 12 0.0570753
11 11 100 12 0.182739
12 11 100 12 0.187409
1 12 100 12 0.0721815
2 12 100 12 0.0750822
3 12 100 12 0.0960544
4 12 100 12 0.105149
5 12 100 12 0.000308037
6 12 100 12 0.0488607
7 12 100 12 0.0446723
8 12 100 12 0.137526
9 12 100 12 0.0358197
10 12 100 12 0.175478
11 12 100 12 0.116192
12 12 100 12 0.0926762
1 13 100 12 0.073676
2 13 100 12 0.0379273
3 13 100 12 0.103194
4 13 100 12 0.000335032
5 13 100 12 0.0366779
6 13 100 12 0.0127136
7 13 100 12 0.0649563
8 13 100 12 0.183255
9 13 100 12 0.146978
10 13 100 12 0.0717566
11 13 100 12 0.147849
12 13 100 12 0.120681
1 14 100 12 0.144721
2 14 100 12 0.00738173
3 14 100 12 0.137653
4 14 100 12 0.0155893
5 14 100 12 0.0674372
6 14 100 12 0.0680713
7 14 100 12 0.0014351
8 14 100 12 0.109464
9 14 100 12 0.069871
10 14 100 12 0.233343
11 14 100 12 0.0722795
12 14 100 12 0.0727526
1 15 100 12 0.208393
2 15 100 12 0.0158455
3 15 100 12 0.32119
4 15 100 12 0.0167598
5 15 100 12 0.0457374
6 15 100 12 0.075862
7 15 100 12 0.00302521
8 15 100 12 0.0375445
9 15 100 12 0.0391889
10 15 100 12 0.0263021
11 15 100 12 0.11799
12 15 100 12 0.0921616
1 16 100 12 0.00348507
2 16 100 12 0.0125567
3 16 100 12 0.0157374
4 16 100 12 0.0011044
5 16 100 12 0.0344508
6 16 100 12 0.00909159
7 16 100 12 0.00146811
8 16 100 12 0.00208722
9 16 100 12 0.729413
10 16 100 12 0.0536717
11 16 100 12 0.126178
12 16 100 12 0.0107554
1 17 100 12 0.000160476
2 17 100 12 0.00516683
3 17 100 12 0.000809109
4 17 100 12 0.00434003
5 17 100 12 0.00409098
6 17 100 12 0.00463605
7 17 100 12 0.882782
8 17 100 12 9.20424e-05
9 17 100 12 0.0294226
10 17 100 12 0.00237726
11 17 100 12 0.00588163
12 17 100 12 0.0602407
2 18 100 12 0.00862601
3 18 100 12 0.0110585
4 18 100 12 0.0214033
5 18 100 12 0.23402
6 18 100 12 0.000224108
7 18 100 12 0.0102706
8 18 100 12 0.0884299
9 18 100 12 0.0147614
10 18 100 12 0.00115685
11 18 100 12 0.0260837
12 18 100 12 0.583966
3 19 100 12 0.000802102
4 19 100 12 0.884998
5 19 100 12 0.0384654
6 19 100 12 0.00457389
7 19 100 12 0.0711607
2 20 100 12 4.14029e-05
3 20 100 12 0.000243373
4 20 100 12 0.999132
6 20 100 12 0.000475952
12 20 100 12 0.000107163
3 21 100 12 0.00487687
4 21 100 12 0.982836
6 21 100 12 0.0121703
10 21 100 12 5.24592e-05
11 21 100 12 6.39367e-05
1 22 100 12 0.335018
2 22 100 12 0.334886
3 22 100 12 0.330095
3 23 100 12 0.00426962
4 23 100 12 0.989876
6 23 100 12 0.00561528
12 23 100 12 0.000238831
1 0 100 13 2.84425e-06
2 0 100 13 0.066323
3 0 100 13 0.120858
4 0 100 13 0.150321
5 0 100 13 0.147513
6 0 100 13 0.119344
7 0 100 13 0.0871337
8 0 100 13 0.066923
9 0 100 13 0.0390051
10 0 100 13 0.0315039
11 0 100 13 0.0637697
12 0 100 13 0.0618639
13 0 100 13 0.0454374
1 1 100 13 0.992838
2 1 100 13 0.000902001
3 1 100 13 1.87802e-07
5 1 100 13 1.3049e-06
6 1 100 13 0.00318236
7 1 100 13 2.33749e-07
10 1 100 13 0.00307609
13 1 100 13 1.76964e-07
1 2 100 13 0.000443665
2 2 100 13 0.744212
3 2 100 13 0.0487745
4 2 100 13 0.0247779
5 2 100 13 0.0442275
6 2 100 13 0.0635022
7 2 100 13 0.036854
8 2 100 13 0.0172056
9 2 100 13 0.00384579
10 2 100 13 0.00345624
11 2 100 13 0.00880401
12 2 100 13 0.00384558
13 2 100 13 5.07127e-05
1 3 100 13 6.34103e-05
2 3 100 13 0.00611084
3 3 100 13 0.0229229
4 3 100 13 0.0265019
5 3 100 13 0.0403529
6 3 100 13 0.0607546
7 3 100 13 0.117898
8 3 100 13 0.121486
9 3 100 13 0.136572
10 3 100 13 0.133874
11 3 100 13 0.0887724
12 3 100 13 0.103336
13 3 100 13 0.141356
1 4 100 13 1.25502e-06
2 4 100 13 0.00548663
3 4 100 13 0.0993122
4 4 100 13 0.0321886
5 4 100 13 0.0296153
6 4 100 13 0.0696497
7 4 100 13 0.064721
8 4 100 13 0.109643
9 4 100 13 0.13757
10 4 100 13 0.132512
11 4 100 13 0.125872
12 4 100 13 0.115558
13 4 100 13 0.0778702
1 5 100 13 0.00307511
2 5 100 13 0.00753126
3 5 100 13 0.0253485
4 5 100 13 0.023565
5 5 100 13 0.0315895
6 5 100 13 0.0380984
7 5 100 13 0.0920995
8 5 100 13 0.136734
9 5 100 13 0.132004
10 5 100 13 0.138755
11 5 100 13 0.109003
12 5 100 13 0.0759828
13 5 100 13 0.186214
1 6 100 13 0.0457705
2 6 100 13 0.0251984
3 6 100 13 0.0737172
4 6 100 13 0.0398771
5 6 100 13 0.0205883
6 6 100 13 0.036701
7 6 100 13 0.0584025
8 6 100 13 0.0788592
9 6 100 13 0.14225
10 6 100 13 0.164674
11 6 100 13 0.121837
12 6 100 13 0.122504
13 6 100 13 0.0696209
1 7 100 13 0.0310537
2 7 100 13 0.0473586
3 7 100 13 0.058591
4 7 100 13 0.0292294
5 7 100 13 0.00807287
6 7 100 13 0.0720361
7 7 100 13 0.0702446
8 7 100 13 0.0633284
9 7 100 13 0.0816401
10 7 100 13 0.131988
11 7 100 13 0.14684
12 7 100 13 0.115323
13 7 100 13 0.144294
1 8 100 13 0.13857
2 8 100 13 0.0986626
3 8 100 13 0.128385
4 8 100 13 0.0600136
5 8 100 13 0.0102748
6 8 100 13 0.0360064
7 8 100 13 0.0349723
8 8 100 13 0.0235609
9 8 100 13 0.0884299
10 8 100 13 0.0815071
11 8 100 13 0.0977501
12 8 100 13 0.11277
13 8 100 13 0.0890977
1 9 100 13 0.092738
2 9 100 13 0.0762535
3 9 100 13 0.0755449
4 9 100 13 0.0874205
5 9 100 13 0.031752
6 9 100 13 0.0517247
7 9 100 13 0.0778668
8 9 100 13 0.0312993
9 9 100 13 0.06445
10 9 100 13 0.102678
11 9 100 13 0.0374199
12 9 100 13 0.137681
13 9 100 13 0.133172
1 10 100 13 0.0580292
2 10 100 13 0.0389929
3 10 100 13 0.0743049
4 10 100 13 0.0192977
5 10 100 13 0.0890562
6 10 100 13 0.0172473
7 10 100 13 0.0410878
8 10 100 13 0.0823128
9 10 100 13 0.075918
10 10 100 13 0.0601836
11 10 100 13 0.14663
12 10 100 13 0.172564
13 10 100 13 0.124376
1 11 100 13 0.180811
2 11 100 13 0.0309543
3 11 100 13 0.0919702
4 11 100 13 0.117102
5 11 100 13 0.0643837
6 11 100 13 0.0244077
7 11 100 13 0.000842585
8 11 100 13 0.029447
9 11 100 13 0.0357178
10 11 100 13 0.142896
11 11 100 13 0.126004
12 11 100 13 0.117159
13 11 100 13 0.0383038
1 12 100 13 0.0591542
2 12 100 13 0.0095143
3 12 100 13 0.0200817
4 12 100 13 0.0459793
5 12 100 13 0.0134871
6 12 100 13 0.0678673
7 12 100 13 1.6702e-05
8 12 100 13 0.0990894
9 12 100 13 0.116011
10 12 100 13 0.199554
11 12 100 13 0.00284027
12 12 100 13 0.18036
13 12 100 13 0.186045
1 13 100 13 0.0470705
2 13 100 13 0.0470299
3 13 100 13 0.0470861
4 13 100 13 0.0470641
5 13 100 13 0.0949253
6 13 100 13 0.130814
7 13 100 13 0.0917777
8 13 100 13 0.114803
9 13 100 13 0.127995
10 13 100 13 0.000867292
11 13 100 13 0.0866594
12 13 100 13 0.095792
13 13 100 13 0.0681154
3 14 100 13 0.000172488
5 14 100 13 0.101629
6 14 100 13 0.000322845
7 14 100 13 0.000213486
8 14 100 13 0.00112568
9 14 100 13 0.29422
10 14 100 13 0.262108
11 14 100 13 0.10518
12 14 100 13 0.112194
13 14 100 13 0.122833
1 15 100 13 0.280977
2 15 100 13 0.174635
3 15 100 13 0.133667
4 15 100 13 0.00594645
5 15 100 13 0.00327865
6 15 100 13 0.00348336
7 15 100 13 0.0243456
8 15 100 13 0.00226721
9 15 100 13 0.000313227
10 15 100 13 0.0882903
11 15 100 13 0.271061
12 15 100 13 0.000984145
13 15 100 13 0.0107519
1 16 100 13 0.00847795
2 16 100 13 0.075868
3 16 100 13 0.101391
4 16 100 13 0.0155008
5 16 100 13 0.0864589
6 16 100 13 0.17631
7 16 100 13 0.181151
8 16 100 13 0.0873271
9 16 100 13 0.0880592
10 16 100 13 0.000409758
11 16 100 13 0.00161759
12 16 100 13 0.0885764
13 16 100 13 0.0888513
1 17 100 13 0.000579104
2 17 100 13 0.00212635
3 17 100 13 0.00552005
4 17 100 13 0.145886
5 17 100 13 0.0510535
6 17 100 13 0.000254407
7 17 100 13 0.000493078
8 17 100 13 0.0132247
9 17 100 13 0.0036131
10 17 100 13 0.0281223
11 17 100 13 0.0437579
12 17 100 13 0.00591832
13 17 100 13 0.699452
1 18 100 13 2.04365e-06
2 18 100 13 0.110481
3 18 100 13 0.0225592
4 18 100 13 8.88456e-05
5 18 100 13 7.62664e-05
6 18 100 13 0.000349754
7 18 100 13 4.90144e-05
8 18 100 13 0.000266602
9 18 100 13 0.00706308
10 18 100 13 4.1409e-05
11 18 100 13 0.125103
12 18 100 13 0.00129209
13 18 100 13 0.732628
1 19 100 13 0.000185848
2 19 100 13 4.86755e-06
3 19 100 13 0.00771443
4 19 100 13 0.000374272
5 19 100 13 0.514728
6 19 100 13 2.82212e-05
7 19 100 13 3.35944e-05
8 19 100 13 1.02126e-05
9 19 100 13 0.000235505
10 19 100 13 0.000263973
11 19 100 13 0.000233019
12 19 100 13 0.424071
13 19 100 13 0.052117
2 20 100 13 3.9208e-05
3 20 100 13 0.82525
4 20 100 13 0.000162331
5 20 100 13 6.13759e-06
6 20 100 13 8.27057e-05
7 20 100 13 2.17023e-05
8 20 100 13 7.92405e-05
9 20 100 13 0.00106073
10 20 100 13 0.167629
11 20 100 13 0.00566094
13 20 100 13 7.58508e-06
2 21 100 13 4.26398e-05
3 21 100 13 0.000794191
4 21 100 13 0.974604
5 21 100 13 1.78769e-05
6 21 100 13 0.00381834
7 21 100 13 0.000626269
8 21 100 13 3.83941e-05
9 21 100 13 0.000498166
10 21 100 13 0.00933193
11 21 100 13 0.00883462
12 21 100 13 0.000149068
13 21 100 13 0.0012443
4 22 100 13 0.0277527
8 22 100 13 0.949513
10 22 100 13 0.0227339
4 23 100 13 0.706165
6 23 100 13 0.0743578
8 23 100 13 0.00408779
9 23 100 13 0.0220822
10 23 100 13 0.116256
12 23 100 13 0.0770513
3 24 100 13 4.1517e-05
4 24 100 13 0.704763
6 24 100 13 0.000168928
7 24 100 13 0.0033339
8 24 100 13 0.000810356
9 24 100 13 0.0226736
10 24 100 13 0.268209
2 25 100 13 3.09608e-06
3 25 100 13 8.50435e-05
4 25 100 13 0.0028949
6 25 100 13 0.000290364
7 25 100 13 0.00013715
8 25 100 13 6.78758e-05
9 25 100 13 0.000527651
10 25 100 13 0.995994
2 26 100 13 0.000463314
3 26 100 13 0.577403
4 26 100 13 0.011714
6 26 100 13 0.0281858
7 26 100 13 0.0133606
8 26 100 13 0.00130303
9 26 100 13 0.0797897
10 26 100 13 0.287781
2 27 100 13 0.000103783
3 27 100 13 0.93498
4 27 100 13 0.0047938
6 27 100 13 0.00268426
7 27 100 13 0.00112907
8 27 100 13 0.000137773
9 27 100 13 0.0144301
10 27 100 13 0.0417411
2 28 100 13 0.000638196
3 28 100 13 0.988597
4 28 100 13 0.000360944
6 28 100 13 0.0016618
7 28 100 13 0.000321838
8 28 100 13 7.40802e-05
9 28 100 13 0.00719981
10 28 100 13 0.00114617
3 29 100 13 3.70939e-06
9 29 100 13 1.34214e-06
11 29 100 13 0.999995
2 30 100 13 0.00163161
3 30 100 13 0.969655
4 30 100 13 0.000579894
6 30 100 13 0.0034406
7 30 100 13 0.000635465
8 30 100 13 0.000142093
9 30 100 13 0.0175817
10 30 100 13 0.00627244
13 30 100 13 6.15484e-05
1 0 100 14 7.10324e-07
2 0 100 14 0.0456701
3 0 100 14 0.093927
4 0 100 14 0.124214
5 0 100 14 0.125233
6 0 100 14 0.11142
7 0 100 14 0.0960858
8 0 100 14 0.0810502
9 0 100 14 0.0615754
10 0 100 14 0.051708
11 0 100 14 0.0430796
12 0 100 14 0.053415
13 0 100 14 0.0653594
14 0 100 14 0.0472625
1 1 100 14 0.990137
2 1 100 14 1.81442e-07
3 1 100 14 3.47321e-06
5 1 100 14 0.00472124
6 1 100 14 0.00498637
7 1 100 14 3.89064e-06
9 1 100 14 4.85479e-07
10 1 100 14 0.000145911
13 1 100 14 1.49291e-07
14 1 100 14 1.38208e-06
1 2 100 14 0.000604118
2 2 100 14 0.687229
3 2 100 14 0.0534288
4 2 100 14 0.0410894
5 2 100 14 0.0349181
6 2 100 14 0.0427161
7 2 100 14 0.0341628
8 2 100 14 0.0181886
9 2 100 14 0.0149306
10 2 100 14 0.0237427
11 2 100 14 0.0121915
12 2 100 14 0.0189711
13 2 100 14 0.0146836
14 2 100 14 0.00314372
1 3 100 14 0.00261399
2 3 100 14 0.0188626
3 3 100 14 0.0377134
4 3 100 14 0.0545379
5 3 100 14 0.0555312
6 3 100 14 0.0648349
7 3 100 14 0.0900379
8 3 100 14 0.102968
9 3 100 14 0.107914
10 3 100 14 0.108917
11 3 100 14 0.100768
12 3 100 14 0.0720106
13 3 100 14 0.0839056
14 3 100 14 0.0993856
1 4 100 14 0.00490489
2 4 100 14 0.0367237
3 4 100 14 0.154419
4 4 100 14 0.0425173
5 4 100 14 0.0647554
6 4 100 14 0.0839726
7 4 100 14 0.0534541
8 4 100 14 0.0864449
9 4 100 14 0.0707814
10 4 100 14 0.0946255
11 4 100 14 0.10558
12 4 100 14 0.0875269
13 4 100 14 0.0682802
14 4 100 14 0.0460147
1 5 100 14 0.00964119
2 5 100 14 0.00695869
3 5 100 14 0.0395414
4 5 100 14 0.0335962
5 5 100 14 0.0235281
6 5 100 14 0.0335362
7 5 100 14 0.064662
8 5 100 14 0.0764827
9 5 100 14 0.13328
10 5 100 14 0.117005
11 5 100 14 0.134924
12 5 100 14 0.116983
13 5 100 14 0.0787358
14 5 100 14 0.131126
1 6 100 14 0.0298573
2 6 100 14 0.0278683
3 6 100 14 0.0419704
4 6 100 14 0.0250964
5 6 100 14 0.0192437
6 6 100 14 0.0106804
7 6 100 14 0.0460231
8 6 100 14 0.0591073
9 6 100 14 0.107561
10 6 100 14 0.144949
11 6 100 14 0.140843
12 6 100 14 0.129503
13 6 100 14 0.115962
14 6 100 14 0.101334
1 7 100 14 0.0195128
2 7 100 14 0.0394524
3 7 100 14 0.0471284
4 7 100 14 0.0454022
5 7 100 14 0.0521005
6 7 100 14 0.088711
7 7 100 14 0.054369
8 7 100 14 0.0838312
9 7 100 14 0.0981605
10 7 100 14 0.102589
11 7 100 14 0.100718
12 7 100 14 0.0737142
13 7 100 14 0.0561235
14 7 100 14 0.138187
1 8 100 14 0.0534351
2 8 100 14 0.0474412
3 8 100 14 0.0691782
4 8 100 14 0.0338915
5 8 100 14 0.0219398
6 8 100 14 0.0419982
7 8 100 14 0.0539059
8 8 100 14 0.0585405
9 8 100 14 0.0826308
10 8 100 14 0.0791159
11 8 100 14 0.0565023
12 8 100 14 0.102868
13 8 100 14 0.183965
14 8 100 14 0.114587
1 9 100 14 0.0293611
2 9 100 14 0.0188659
3 9 100 14 0.0348034
4 9 100 14 0.0358425
5 9 100 14 0.0284356
6 9 100 14 0.0103141
7 9 100 14 0.0510419
8 9 100 14 0.0606493
9 9 100 14 0.0289593
10 9 100 14 0.0943166
11 9 100 14 0.115548
12 9 100 14 0.182209
13 9 100 14 0.155548
14 9 100 14 0.154105
1 10 100 14 0.0603193
2 10 100 14 0.0216034
3 10 100 14 0.112567
4 10 100 14 0.0665318
5 10 100 14 0.0401754
6 10 100 14 0.0292751
7 10 100 14 0.0820041
8 10 100 14 0.0416593
9 10 100 14 0.0639617
10 10 100 14 0.0324749
11 10 100 14 0.102864
12 10 100 14 0.170754
13 10 100 14 0.0380003
14 10 100 14 0.13781
1 11 100 14 0.0763198
2 11 100 14 0.0507675
3 11 100 14 0.0264728
4 11 100 14 0.0246447
5 11 100 14 0.0520506
6 11 100 14 0.0236259
7 11 100 14 0.0477886
8 11 100 14 0.0527365
9 11 100 14 0.0256175
10 11 100 14 0.130668
11 11 100 14 0.108121
12 11 100 14 0.075967
13 11 100 14 0.137152
14 11 100 14 0.168068
1 12 100 14 0.0529727
2 12 100 14 0.0532146
3 12 100 14 0.0911754
4 12 100 14 0.0113388
5 12 100 14 0.0239975
6 12 100 14 0.0524442
7 12 100 14 0.0770513
8 12 100 14 0.0539171
9 12 100 14 0.131771
10 12 100 14 0.0270512
11 12 100 14 0.130613
12 12 100 14 0.104821
13 12 100 14 0.0822196
14 12 100 14 0.107412
1 13 100 14 0.121334
2 13 100 14 0.0855712
3 13 100 14 0.218257
4 13 100 14 0.152159
5 13 100 14 0.0607834
6 13 100 14 0.0307574
7 13 100 14 0.0633989
8 13 100 14 0.029811
9 13 100 14 0.0603554
10 13 100 14 0.0322257
11 13 100 14 0.0843055
12 13 100 14 0.0298258
13 13 100 14 0.000506382
14 13 100 14 0.0307097
1 14 100 14 0.123913
2 14 100 14 4.99511e-06
3 14 100 14 0.0614237
4 14 100 14 7.95856e-05
5 14 100 14 0.000116234
6 14 100 14 0.160389
7 14 100 14 0.0400976
8 14 100 14 0.090222
9 14 100 14 0.00187285
10 14 100 14 0.00013745
11 14 100 14 0.112874
12 14 100 14 0.124354
13 14 100 14 0.162329
14 14 100 14 0.122187
1 15 100 14 2.52305e-05
2 15 100 14 4.47555e-05
3 15 100 14 0.124903
4 15 100 14 0.0076545
5 15 100 14 0.126556
6 15 100 14 0.125276
7 15 100 14 0.120842
8 15 100 14 0.232358
9 15 100 14 0.12529
10 15 100 14 0.12487
11 15 100 14 0.000934436
12 15 100 14 3.36927e-06
13 15 100 14 0.000254544
14 15 100 14 0.0109891
1 16 100 14 0.00125073
2 16 100 14 0.0199984
3 16 100 14 0.152715
4 16 100 14 0.0164524
5 16 100 14 0.04515
6 16 100 14 0.141371
7 16 100 14 0.244308
8 16 100 14 0.244639
9 16 100 14 0.0552938
10 16 100 14 0.000786653
11 16 100 14 0.0742225
12 16 100 14 0.00064798
13 16 100 14 0.00164301
14 16 100 14 0.00152157
1 17 100 14 0.000491533
2 17 100 14 0.000215011
3 17 100 14 0.23885
4 17 100 14 0.0153166
5 17 100 14 0.00043306
6 17 100 14 0.00941358
7 17 100 14 0.000805912
8 17 100 14 0.139782
9 17 100 14 0.118211
10 17 100 14 0.116559
11 17 100 14 0.000136869
12 17 100 14 0.118378
13 17 100 14 0.122113
14 17 100 14 0.119293
1 18 100 14 0.0745093
2 18 100 14 0.647358
3 18 100 14 0.000453615
4 18 100 14 0.0611632
5 18 100 14 0.0617072
6 18 100 14 0.0073907
7 18 100 14 0.139262
8 18 100 14 0.00333563
9 18 100 14 0.000263013
10 18 100 14 0.00111929
11 18 100 14 0.00101887
12 18 100 14 7.55019e-05
13 18 100 14 0.000535989
14 18 100 14 0.00180777
1 19 100 14 0.00194719
2 19 100 14 0.0037815
3 19 100 14 0.00576658
4 19 100 14 0.0108884
5 19 100 14 0.0048146
6 19 100 14 0.944077
7 19 100 14 0.00359797
8 19 100 14 0.00897453
9 19 100 14 0.000220217
10 19 100 14 0.00984575
11 19 100 14 0.00485191
12 19 100 14 0.000322677
13 19 100 14 0.000847939
14 19 100 14 6.35734e-05
2 20 100 14 0.264638
3 20 100 14 0.0168493
4 20 100 14 0.0068032
5 20 100 14 0.0115689
6 20 100 14 0.632905
7 20 100 14 0.00382243
8 20 100 14 0.00121437
9 20 100 14 0.00034571
10 20 100 14 0.0467181
11 20 100 14 0.0117436
12 20 100 14 0.000655379
13 20 100 14 0.000361623
14 20 100 14 0.00237416
3 21 100 14 3.95687e-06
4 21 100 14 0.000262895
5 21 100 14 0.000505546
6 21 100 14 0.000157779
7 21 100 14 5.96394e-05
8 21 100 14 1.76087e-05
9 21 100 14 4.73478e-06
10 21 100 14 0.000120466
11 21 100 14 3.07058e-05
12 21 100 14 0.000269351
13 21 100 14 0.998493
14 21 100 14 7.45461e-05
1 22 100 14 0.0625471
2 22 100 14 0.000130961
3 22 100 14 4.87813e-07
4 22 100 14 9.73051e-05
5 22 100 14 0.196076
6 22 100 14 0.06224
7 22 100 14 0.000377385
8 22 100 14 5.01858e-05
9 22 100 14 9.14724e-06
10 22 100 14 0.00200984
11 22 100 14 0.00347015
12 22 100 14 0.339686
13 22 100 14 0.00201034
14 22 100 14 0.331295
1 23 100 14 8.67591e-05
2 23 100 14 0.010258
3 23 100 14 0.000243583
4 23 100 14 0.107503
5 23 100 14 0.000326842
6 23 100 14 0.396377
7 23 100 14 0.00943678
8 23 100 14 0.00289514
9 23 100 14 0.000797886
10 23 100 14 0.309692
11 23 100 14 0.0103515
12 23 100 14 0.000190745
13 23 100 14 0.000229737
14 23 100 14 0.151611
3 24 100 14 0.00306569
4 24 100 14 0.922932
6 24 100 14 0.00193832
10 24 100 14 0.0709423
12 24 100 14 0.000301262
13 24 100 14 0.000375497
14 24 100 14 0.000445033
1 25 100 14 0.334065
2 25 100 14 0.334022
3 25 100 14 0.331913
3 26 100 14 0.000477
4 26 100 14 0.995079
6 26 100 14 0.000560196
10 26 100 14 0.00380376
12 26 100 14 2.95603e-05
13 26 100 14 4.29762e-05
14 26 100 14 7.89287e-06
1 0 100 15 3.43261e-06
2 0 100 15 0.049334
3 0 100 15 0.0981268
4 0 100 15 0.123174
5 0 100 15 0.106438
6 0 100 15 0.100966
7 0 100 15 0.0864598
8 0 100 15 0.0773888
9 0 100 15 0.0642663
10 0 100 15 0.0568623
11 0 100 15 0.0504479
12 0 100 15 0.0391982
13 0 100 15 0.0522825
14 0 100 15 0.0479102
15 0 100 15 0.0471415
1 1 100 15 0.989001
2 1 100 15 0.000163794
3 1 100 15 1.94135e-05
4 1 100 15 1.87495e-06
5 1 100 15 3.65333e-07
7 1 100 15 9.42446e-07
10 1 100 15 1.52321e-07
12 1 100 15 1.3836e-07
13 1 100 15 0.00540167
14 1 100 15 0.00540264
15 1 100 15 8.00255e-06
1 2 100 15 0.000203152
2 2 100 15 0.67803
3 2 100 15 0.0512491
4 2 100 15 0.0425772
5 2 100 15 0.0582697
6 2 100 15 0.107115
7 2 100 15 0.0413196
8 2 100 15 0.00601436
9 2 100 15 0.00610524
10 2 100 15 0.00854338
11 2 100 15 0.000216433
12 2 100 15 4.85859e-06
13 2 100 15 0.000336112
14 2 100 15 2.19394e-06
15 2 100 15 1.35432e-05
1 3 100 15 0.000869504
2 3 100 15 0.00366654
3 3 100 15 0.0294345
4 3 100 15 0.018785
5 3 100 15 0.0439133
6 3 100 15 0.0620017
7 3 100 15 0.0987725
8 3 100 15 0.103275
9 3 100 15 0.0982237
10 3 100 15 0.0977931
11 3 100 15 0.11803
12 3 100 15 0.0834683
13 3 100 15 0.0513167
14 3 100 15 0.0759856
15 3 100 15 0.114465
1 4 100 15 0.0047853
2 4 100 15 0.016501
3 4 100 15 0.0738359
4 4 100 15 0.0237736
5 4 100 15 0.0444288
6 4 100 15 0.0229501
7 4 100 15 0.0238349
8 4 100 15 0.0734601
9 4 100 15 0.106747
10 4 100 15 0.136653
11 4 100 15 0.0843481
12 4 100 15 0.146714
13 4 100 15 0.139027
14 4 100 15 0.067897
15 4 100 15 0.0350447
1 5 100 15 0.00349676
2 5 100 15 0.00599562
3 5 100 15 0.0278844
4 5 100 15 0.0335869
5 5 100 15 0.0473568
6 5 100 15 0.0491907
7 5 100 15 0.0623051
8 5 100 15 0.0728101
9 5 100 15 0.0948394
10 5 100 15 0.0849619
11 5 100 15 0.111159
12 5 100 15 0.0910431
13 5 100 15 0.070246
14 5 100 15 0.116537
15 5 100 15 0.128587
1 6 100 15 0.0388003
2 6 100 15 0.0220901
3 6 100 15 0.0555937
4 6 100 15 0.0404105
5 6 100 15 0.0436869
6 6 100 15 0.0485731
7 6 100 15 0.0153613
8 6 100 15 0.0397582
9 6 100 15 0.0964498
10 6 100 15 0.0836694
11 6 100 15 0.0390074
12 6 100 15 0.104113
13 6 100 15 0.133939
14 6 100 15 0.143217
15 6 100 15 0.0953295
1 7 100 15 0.0121246
2 7 100 15 0.0536081
3 7 100 15 0.0432681
4 7 100 15 0.0458034
5 7 100 15 0.0578407
6 7 100 15 0.0460142
7 7 100 15 0.135373
8 7 100 15 0.0995015
9 7 100 15 0.0954493
10 7 100 15 0.081899
11 7 100 15 0.0874645
12 7 100 15 0.0729564
13 7 100 15 0.0710801
14 7 100 15 0.0443102
15 7 100 15 0.0533074
1 8 100 15 0.0400516
2 8 100 15 0.103201
3 8 100 15 0.158859
4 8 100 15 0.0798998
5 8 100 15 0.0498258
6 8 100 15 0.039994
7 8 100 15 0.0475756
8 8 100 15 0.0391287
9 8 100 15 0.0351828
10 8 100 15 0.0345884
11 8 100 15 0.0726124
12 8 100 15 0.0908048
13 8 100 15 0.0756104
14 8 100 15 0.0719295
15 8 100 15 0.0607369
1 9 100 15 0.0270453
2 9 100 15 0.0413297
3 9 100 15 0.0413502
4 9 100 15 0.0418039
5 9 100 15 0.0311932
6 9 100 15 0.0445442
7 9 100 15 0.0322126
8 9 100 15 0.0546355
9 9 100 15 0.0348858
10 9 100 15 0.0317454
11 9 100 15 0.0729626
12 9 100 15 0.123902
13 9 100 15 0.123583
14 9 100 15 0.183094
15 9 100 15 0.115713
1 10 100 15 0.0404185
2 10 100 15 0.0597761
3 10 100 15 0.0777444
4 10 100 15 0.0420786
5 10 100 15 0.0368578
6 10 100 15 0.000852516
7 10 100 15 0.0406349
8 10 100 15 0.0559983
9 10 100 15 0.00722878
10 10 100 15 0.115325
11 10 100 15 0.0393223
12 10 100 15 0.0983929
13 10 100 15 0.146423
14 10 100 15 0.075101
15 10 100 15 0.163845
1 11 100 15 0.0719507
2 11 100 15 0.048066
3 11 100 15 0.134537
4 11 100 15 0.0588883
5 11 100 15 0.0490118
6 11 100 15 0.00855857
7 11 100 15 0.00167876
8 11 100 15 0.000153401
9 11 100 15 0.0411746
10 11 100 15 0.00196203
11 11 100 15 0.163106
12 11 100 15 0.137358
13 11 100 15 0.119738
14 11 100 15 0.119647
15 11 100 15 0.0441686
1 12 100 15 0.046386
2 12 100 15 0.0462606
3 12 100 15 0.0463455
4 12 100 15 0.0233546
5 12 100 15 0.0250897
6 12 100 15 0.0241846
7 12 100 15 0.0893697
8 12 100 15 0.0607002
9 12 100 15 0.0697074
10 12 100 15 0.134996
11 12 100 15 0.114893
12 12 100 15 0.114505
13 12 100 15 0.088303
14 12 100 15 0.0417759
15 12 100 15 0.0741285
1 13 100 15 0.0691959
2 13 100 15 0.00448489
3 13 100 15 0.00183986
4 13 100 15 0.0338555
5 13 100 15 0.0988792
6 13 100 15 0.00262166
7 13 100 15 5.12706e-05
8 13 100 15 0.0346885
9 13 100 15 0.0022104
10 13 100 15 0.0939448
11 13 100 15 0.104738
12 13 100 15 0.173002
13 13 100 15 0.168474
14 13 100 15 0.125181
15 13 100 15 0.0868328
1 14 100 15 0.000345667
2 14 100 15 0.0055699
3 14 100 15 0.000149521
4 14 100 15 0.292073
5 14 100 15 0.00117384
6 14 100 15 0.0282177
7 14 100 15 0.00219189
8 14 100 15 0.000764101
9 14 100 15 0.000199747
10 14 100 15 0.0283647
11 14 100 15 0.000641491
12 14 100 15 0.314179
13 14 100 15 0.00658761
14 14 100 15 0.318662
15 14 100 15 0.000879432
1 15 100 15 0.150626
2 15 100 15 0.00942704
3 15 100 15 0.00660288
4 15 100 15 0.143529
5 15 100 15 0.14579
6 15 100 15 0.00030132
7 15 100 15 0.151565
8 15 100 15 2.81851e-05
9 15 100 15 0.00516961
10 15 100 15 0.0420623
11 15 100 15 0.00149222
12 15 100 15 0.0013718
13 15 100 15 0.151156
14 15 100 15 0.0357149
15 15 100 15 0.155163
2 16 100 15 0.0831217
3 16 100 15 0.0844174
4 16 100 15 0.000409298
5 16 100 15 0.000179109
6 16 100 15 0.0838394
7 16 100 15 0.082429
8 16 100 15 0.0834318
9 16 100 15 0.0835791
10 16 100 15 0.000280542
11 16 100 15 0.0835764
12 16 100 15 0.08135
13 16 100 15 0.084139
14 16 100 15 0.0830719
15 16 100 15 0.166175
1 17 100 15 3.05889e-05
2 17 100 15 7.27343e-05
3 17 100 15 0.000845599
4 17 100 15 0.00143959
5 17 100 15 0.00148357
6 17 100 15 0.00127453
7 17 100 15 0.000349532
8 17 100 15 0.00065687
9 17 100 15 0.000238845
10 17 100 15 0.00913285
11 17 100 15 0.0013936
12 17 100 15 0.00127759
13 17 100 15 0.429339
14 17 100 15 0.295878
15 17 100 15 0.256587
1 18 100 15 0.000339458
2 18 100 15 2.59966e-05
3 18 100 15 0.00061338
4 18 100 15 0.00335358
5 18 100 15 0.00101932
6 18 100 15 0.000737791
7 18 100 15 0.0791223
8 18 100 15 0.00156851
9 18 100 15 0.00144942
10 18 100 15 0.0020565
11 18 100 15 0.243463
12 18 100 15 0.22768
13 18 100 15 0.0422757
14 18 100 15 0.381484
15 18 100 15 0.0148112
1 19 100 15 1.46962e-05
2 19 100 15 2.26068e-05
3 19 100 15 0.000926423
4 19 100 15 0.00334211
5 19 100 15 0.00102735
6 19 100 15 0.00458268
7 19 100 15 0.00306611
8 19 100 15 0.000519577
9 19 100 15 0.00251679
10 19 100 15 0.000565271
11 19 100 15 0.00179516
12 19 100 15 0.000387367
13 19 100 15 0.47531
14 19 100 15 0.0347273
15 19 100 15 0.471196
2 20 100 15 0.00523635
3 20 100 15 0.288858
4 20 100 15 0.0113448
5 20 100 15 0.00152892
6 20 100 15 0.0995793
7 20 100 15 0.00071741
8 20 100 15 0.00385753
9 20 100 15 0.0995245
10 20 100 15 0.274032
11 20 100 15 0.147101
12 20 100 15 0.000334757
13 20 100 15 0.00101263
14 20 100 15 0.0668736
1 0 100 16 8.51775e-07
2 0 100 16 0.0484761
3 0 100 16 0.0884675
4 0 100 16 0.118615
5 0 100 16 0.114417
6 0 100 16 0.099594
7 0 100 16 0.0732988
8 0 100 16 0.0769969
9 0 100 16 0.0583679
10 0 100 16 0.0441166
11 0 100 16 0.0460198
12 0 100 16 0.0408345
13 0 100 16 0.0358829
14 0 100 16 0.049189
15 0 100 16 0.0476407
16 0 100 16 0.0580816
1 1 100 16 0.959661
3 1 100 16 2.32665e-05
5 1 100 16 2.36677e-05
9 1 100 16 0.00718428
10 1 100 16 0.00544031
12 1 100 16 0.0071843
13 1 100 16 0.00718445
14 1 100 16 0.00717741
15 1 100 16 0.00612117
1 2 100 16 0.00227183
2 2 100 16 0.742553
3 2 100 16 0.0411261
4 2 100 16 0.0296441
5 2 100 16 0.0249112
6 2 100 16 0.0995455
7 2 100 16 0.00815661
8 2 100 16 0.00487171
9 2 100 16 0.000132433
10 2 100 16 0.0362748
11 2 100 16 0.00911276
12 2 100 16 2.55469e-06
13 2 100 16 7.95598e-06
14 2 100 16 1.31831e-05
15 2 100 16 0.00137196
16 2 100 16 4.04009e-06
1 3 100 16 0.00369485
2 3 100 16 0.00303548
3 3 100 16 0.0204889
4 3 100 16 0.0269953
5 3 100 16 0.0397483
6 3 100 16 0.0534154
7 3 100 16 0.0967896
8 3 100 16 0.0813382
9 3 100 16 0.0964166
10 3 100 16 0.0806958
11 3 100 16 0.0833916
12 3 100 16 0.108487
13 3 100 16 0.0841038
14 3 100 16 0.0529534
15 3 100 16 0.0803409
16 3 100 16 0.0881046
1 4 100 16 0.00654657
2 4 100 16 0.0276569
3 4 100 16 0.150821
4 4 100 16 0.0434797
5 4 100 16 0.0564207
6 4 100 16 0.0481435
7 4 100 16 0.0442929
8 4 100 16 0.0738961
9 4 100 16 0.0781005
10 4 100 16 0.115876
11 4 100 16 0.088471
12 4 100 16 0.0841659
13 4 100 16 0.0724326
14 4 100 16 0.0753629
15 4 100 16 0.0261827
16 4 100 16 0.00815157
1 5 100 16 0.00926511
2 5 100 16 0.0146411
3 5 100 16 0.0258992
4 5 100 16 0.00537322
5 5 100 16 0.00997008
6 5 100 16 0.0314717
7 5 100 16 0.0877643
8 5 100 16 0.0811603
9 5 100 16 0.104912
10 5 100 16 0.0720515
11 5 100 16 0.124804
12 5 100 16 0.0873319
13 5 100 16 0.11066
14 5 100 16 0.0678954
15 5 100 16 0.0609798
16 5 100 16 0.105821
1 6 100 16 0.0121939
2 6 100 16 0.0288312
3 6 100 16 0.022109
4 6 100 16 0.0216052
5 6 100 16 0.0271891
6 6 100 16 0.0311123
7 6 100 16 0.0622327
8 6 100 16 0.0661367
9 6 100 16 0.107025
10 6 100 16 0.155258
11 6 100 16 0.113254
12 6 100 16 0.0782252
13 6 100 16 0.0830052
14 6 100 16 0.0802697
15 6 100 16 0.0702076
16 6 100 16 0.0413461
1 7 100 16 0.0242067
2 7 100 16 0.0317448
3 7 100 16 0.0393327
4 7 100 16 0.0341553
5 7 100 16 0.0320859
6 7 100 16 0.0385511
7 7 100 16 0.0695606
8 7 100 16 0.0490927
9 7 100 16 0.0481955
10 7 100 16 0.105177
11 7 100 16 0.075128
12 7 100 16 0.0763934
13 7 100 16 0.0623893
14 7 100 16 0.108471
15 7 100 16 0.0743726
16 7 100 16 0.131143
1 8 100 16 0.0308372
2 8 100 16 0.0228152
3 8 100 16 0.0350888
4 8 100 16 0.0225173
5 8 100 16 0.0340376
6 8 100 16 0.0164518
7 8 100 16 0.0332867
8 8 100 16 0.0461792
9 8 100 16 0.0235747
10 8 100 16 0.0233505
11 8 100 16 0.078266
12 8 100 16 0.146474
13 8 100 16 0.122343
14 8 100 16 0.0979972
15 8 100 16 0.158253
16 8 100 16 0.108527
1 9 100 16 0.00084217
2 9 100 16 0.0379171
3 9 100 16 0.066757
4 9 100 16 0.0840479
5 9 100 16 0.0323825
6 9 100 16 0.0641254
7 9 100 16 0.050004
8 9 100 16 0.018123
9 9 100 16 0.0355443
10 9 100 16 0.0652916
11 9 100 16 0.033174
12 9 100 16 0.0166206
13 9 100 16 0.0947095
14 9 100 16 0.175539
15 9 100 16 0.171208
16 9 100 16 0.0537134
1 10 100 16 0.0286901
2 10 100 16 0.0208781
3 10 100 16 0.131523
4 10 100 16 0.0501798
5 10 100 16 0.0232795
6 10 100 16 0.000154637
7 10 100 16 0.00390667
8 10 100 16 0.0493268
9 10 100 16 0.084763
10 10 100 16 0.028719
11 10 100 16 0.0414975
12 10 100 16 0.0935494
13 10 100 16 0.195931
14 10 100 16 0.116474
15 10 100 16 0.0639376
16 10 100 16 0.0671899
1 11 100 16 7.7111e-05
2 11 100 16 0.000600274
3 11 100 16 0.041374
4 11 100 16 0.0762845
5 11 100 16 0.0390943
6 11 100 16 0.0300984
7 11 100 16 0.00612452
8 11 100 16 0.0435919
9 11 100 16 0.0720216
10 11 100 16 0.115031
11 11 100 16 0.040921
12 11 100 16 0.0793144
13 11 100 16 0.0741705
14 11 100 16 0.145637
15 11 100 16 0.117543
16 11 100 16 0.118115
1 12 100 16 0.122803
2 12 100 16 0.00118336
3 12 100 16 0.00498631
4 12 100 16 0.000281857
5 12 100 16 0.00180419
6 12 100 16 0.066412
7 12 100 16 0.133995
8 12 100 16 0.119452
9 12 100 16 0.119552
10 12 100 16 0.0642026
11 12 100 16 0.0593979
12 12 100 16 0.059442
13 12 100 16 0.114921
14 12 100 16 0.0638091
15 12 100 16 0.00842462
16 12 100 16 0.0593332
1 13 100 16 0.0362552
2 13 100 16 0.123628
3 13 100 16 0.0828603
4 13 100 16 0.0244912
5 13 100 16 0.0411756
6 13 100 16 0.0430187
7 13 100 16 0.088815
8 13 100 16 0.0413315
9 13 100 16 0.0412995
10 13 100 16 0.000998751
11 13 100 16 0.0821871
12 13 100 16 0.0844065
13 13 100 16 0.120555
14 13 100 16 0.0409653
15 13 100 16 0.123409
16 13 100 16 0.0246043
1 14 100 16 0.0398757
2 14 100 16 0.0713763
3 14 100 16 0.146273
4 14 100 16 0.0720133
5 14 100 16 0.0599834
6 14 100 16 0.0978701
7 14 100 16 0.0759189
8 14 100 16 6.28035e-05
9 14 100 16 5.30641e-05
10 14 100 16 0.0713731
11 14 100 16 0.000385883
12 14 100 16 0.000150272
13 14 100 16 0.0356493
14 14 100 16 0.0746748
15 14 100 16 0.142248
16 14 100 16 0.112091
1 15 100 16 0.108811
2 15 100 16 0.0548158
3 15 100 16 0.0615467
4 15 100 16 0.0311929
5 15 100 16 0.0221197
6 15 100 16 0.0211116
7 15 100 16 0.0279861
8 15 100 16 0.0294172
9 15 100 16 0.0468366
10 15 100 16 0.0273866
11 15 100 16 0.0591954
12 15 100 16 0.108829
13 15 100 16 0.134315
14 15 100 16 0.107237
15 15 100 16 0.110189
16 15 100 16 0.0490106
1 16 100 16 0.0726452
2 16 100 16 0.00144995
3 16 100 16 0.175205
4 16 100 16 0.145239
5 16 100 16 0.0914237
6 16 100 16 0.000630711
7 16 100 16 0.00042746
8 16 100 16 0.0034411
9 16 100 16 0.00826288
10 16 100 16 0.0731667
11 16 100 16 0.0036404
12 16 100 16 2.42533e-05
13 16 100 16 0.0795929
14 16 100 16 0.141191
15 16 100 16 0.142966
16 16 100 16 0.0606929
2 17 100 16 9.89957e-05
3 17 100 16 0.137603
5 17 100 16 0.305763
6 17 100 16 0.0338639
7 17 100 16 0.0547116
8 17 100 16 0.0268926
9 17 100 16 0.0721098
10 17 100 16 0.00200344
11 17 100 16 0.0622673
12 17 100 16 0.00170805
13 17 100 16 0.193905
14 17 100 16 0.029156
15 17 100 16 0.0782467
16 17 100 16 0.00167058
1 18 100 16 2.93031e-05
2 18 100 16 0.00743908
3 18 100 16 2.71307e-05
4 18 100 16 0.000207879
5 18 100 16 0.00385046
6 18 100 16 0.001471
7 18 100 16 0.000236014
8 18 100 16 0.120654
9 18 100 16 0.104047
10 18 100 16 0.000753732
11 18 100 16 0.393412
12 18 100 16 0.364246
13 18 100 16 0.0013161
14 18 100 16 1.27971e-05
15 18 100 16 0.000774745
16 18 100 16 0.00152332
1 19 100 16 6.86919e-05
2 19 100 16 0.00416859
3 19 100 16 0.00201902
4 19 100 16 0.00293341
5 19 100 16 0.23984
6 19 100 16 0.247476
7 19 100 16 0.0261345
8 19 100 16 0.0130598
9 19 100 16 0.432921
10 19 100 16 0.00852272
11 19 100 16 2.82493e-05
13 19 100 16 0.000664165
14 19 100 16 4.24522e-05
15 19 100 16 0.0189266
16 19 100 16 0.00319556
1 20 100 16 3.05026e-06
2 20 100 16 2.17884e-05
3 20 100 16 0.000124191
4 20 100 16 9.80151e-05
6 20 100 16 2.16564e-05
7 20 100 16 0.00103776
8 20 100 16 4.03146e-05
9 20 100 16 0.0226625
10 20 100 16 0.0011335
13 20 100 16 0.000474432
14 20 100 16 0.961441
16 20 100 16 0.012942
2 21 100 16 0.00112774
3 21 100 16 0.00109934
4 21 100 16 0.000109155
5 21 100 16 0.00021211
6 21 100 16 0.000602488
7 21 100 16 0.00215976
8 21 100 16 0.00144821
9 21 100 16 0.962834
11 21 100 16 0.0117357
12 21 100 16 0.000160752
13 21 100 16 0.000877384
15 21 100 16 0.0167533
16 21 100 16 0.000879734
1 22 100 16 1.49997e-05
2 22 100 16 0.00305874
3 22 100 16 0.000431907
4 22 100 16 3.3748e-06
5 22 100 16 0.163263
6 22 100 16 0.00373083
7 22 100 16 0.000420728
8 22 100 16 2.03681e-06
9 22 100 16 0.000153344
11 22 100 16 9.88077e-07
12 22 100 16 0.000176541
13 22 100 16 0.000227182
16 22 100 16 0.828516
2 23 100 16 0.280181
3 23 100 16 0.0181196
4 23 100 16 0.0360464
5 23 100 16 0.00516568
6 23 100 16 0.0256587
7 23 100 16 0.0229163
8 23 100 16 0.000556416
9 23 100 16 0.0668663
11 23 100 16 0.281963
12 23 100 16 0.00641058
13 23 100 16 0.0168753
15 23 100 16 0.236979
16 23 100 16 0.00226171
2 24 100 16 8.02076e-06
3 24 100 16 0.0768837
4 24 100 16 8.79691e-06
5 24 100 16 2.30325e-05
6 24 100 16 1.93072e-05
7 24 100 16 0.00220118
9 24 100 16 0.00111564
13 24 100 16 0.0164986
15 24 100 16 0.856216
16 24 100 16 0.0470253
2 25 100 16 5.80341e-05
3 25 100 16 0.810303
4 25 100 16 6.23236e-05
5 25 100 16 2.08334e-05
6 25 100 16 3.52121e-05
7 25 100 16 0.00034856
9 25 100 16 0.000256597
12 25 100 16 0.000680035
13 25 100 16 0.0369357
15 25 100 16 0.136843
16 25 100 16 0.0144568
2 26 100 16 0.24463
3 26 100 16 0.0432925
4 26 100 16 0.0808941
6 26 100 16 0.372596
7 26 100 16 0.163618
9 26 100 16 0.0712862
13 26 100 16 0.0236827
1 0 100 17 3.38558e-07
2 0 100 17 0.0479371
3 0 100 17 0.0933665
4 0 100 17 0.104155
5 0 100 17 0.0968424
6 0 100 17 0.0843967
7 0 100 17 0.0730529
8 0 100 17 0.0634583
9 0 100 17 0.0631987
10 0 100 17 0.0545375
11 0 100 17 0.0533701
12 0 100 17 0.0597641
13 0 100 17 0.0468316
14 0 100 17 0.0356716
15 0 100 17 0.0388822
16 0 100 17 0.0408097
17 0 100 17 0.0437251
1 1 100 17 0.999621
3 1 100 17 0.000377421
7 1 100 17 5.43224e-07
10 1 100 17 8.29308e-07
1 2 100 17 0.000520855
2 2 100 17 0.524659
3 2 100 17 0.0471974
4 2 100 17 0.00941246
5 2 100 17 0.0266702
6 2 100 17 0.0565966
7 2 100 17 0.000869039
8 2 100 17 0.00948102
9 2 100 17 4.67428e-05
10 2 100 17 0.00955078
11 2 100 17 0.00953842
12 2 100 17 0.0569898
13 2 100 17 0.0659694
14 2 100 17 0.0571341
15 2 100 17 0.0759279
16 2 100 17 0.0209871
17 2 100 17 0.0284492
1 3 100 17 4.40727e-07
2 3 100 17 0.014339
3 3 100 17 0.0284825
4 3 100 17 0.0175819
5 3 100 17 0.0421954
6 3 100 17 0.0813407
7 3 100 17 0.0986583
8 3 100 17 0.0939387
9 3 100 17 0.108465
10 3 100 17 0.0876357
11 3 100 17 0.0926215
12 3 100 17 0.0785603
13 3 100 17 0.0473844
14 3 100 17 0.0607689
15 3 100 17 0.0470377
16 3 100 17 0.0557503
17 3 100 17 0.0452395
1 4 100 17 0.00956329
2 4 100 17 0.0386353
3 4 100 17 0.105152
4 4 100 17 0.0764991
5 4 100 17 0.0634238
6 4 100 17 0.0782345
7 4 100 17 0.12066
8 4 100 17 0.121768
9 4 100 17 0.0800617
10 4 100 17 0.103512
11 4 100 17 0.0611353
12 4 100 17 0.00822795
13 4 100 17 0.0388539
14 4 100 17 0.0300928
15 4 100 17 0.0161667
16 4 100 17 0.00958521
17 4 100 17 0.0384284
1 5 100 17 0.0067605
2 5 100 17 0.0117021
3 5 100 17 0.0268458
4 5 100 17 0.0498422
5 5 100 17 0.0464834
6 5 100 17 0.0420723
7 5 100 17 0.0654605
8 5 100 17 0.066311
9 5 100 17 0.0893153
10 5 100 17 0.0939628
11 5 100 17 0.085933
12 5 100 17 0.0738975
13 5 100 17 0.0889831
14 5 100 17 0.0606982
15 5 100 17 0.0569506
16 5 100 17 0.0581562
17 5 100 17 0.0766257
1 6 100 17 0.0148223
2 6 100 17 0.00842646
3 6 100 17 0.00751192
4 6 100 17 0.01588
5 6 100 17 0.0218326
6 6 100 17 0.0332628
7 6 100 17 0.0187658
8 6 100 17 0.0604489
9 6 100 17 0.0509353
10 6 100 17 0.088772
11 6 100 17 0.106494
12 6 100 17 0.105088
13 6 100 17 0.0613805
14 6 100 17 0.105462
15 6 100 17 0.0928364
16 6 100 17 0.113212
17 6 100 17 0.094869
1 7 100 17 0.0112172
2 7 100 17 0.0445034
3 7 100 17 0.0112755
4 7 100 17 0.0226533
5 7 100 17 0.0568139
6 7 100 17 0.0293186
7 7 100 17 0.030373
8 7 100 17 0.0804672
9 7 100 17 0.0453669
10 7 100 17 0.0448873
11 7 100 17 0.0578302
12 7 100 17 0.0446431
13 7 100 17 0.102166
14 7 100 17 0.101779
15 7 100 17 0.0855283
16 7 100 17 0.100982
17 7 100 17 0.130195
1 8 100 17 0.0144342
2 8 100 17 0.0302234
3 8 100 17 0.0740917
4 8 100 17 0.0439365
5 8 100 17 0.0154389
6 8 100 17 0.0174352
7 8 100 17 0.0411955
8 8 100 17 0.012839
9 8 100 17 0.0295761
10 8 100 17 0.0591855
11 8 100 17 0.0631564
12 8 100 17 0.0596556
13 8 100 17 0.131833
14 8 100 17 0.0938604
15 8 100 17 0.119164
16 8 100 17 0.120893
17 8 100 17 0.0730824
1 9 100 17 0.0587971
2 9 100 17 0.0331014
3 9 100 17 0.0327827
4 9 100 17 0.0748748
5 9 100 17 0.0329816
6 9 100 17 0.0405677
7 9 100 17 0.000962657
8 9 100 17 0.0026269
9 9 100 17 2.21696e-05
10 9 100 17 0.000762603
11 9 100 17 0.0346725
12 9 100 17 0.0362757
13 9 100 17 0.0666769
14 9 100 17 0.163252
15 9 100 17 0.137866
16 9 100 17 0.124441
17 9 100 17 0.159336
1 10 100 17 0.0235048
2 10 100 17 0.000175179
3 10 100 17 0.0710214
4 10 100 17 0.0477813
5 10 100 17 0.0464196
6 10 100 17 0.00078486
7 10 100 17 0.000831885
8 10 100 17 0.0246909
9 10 100 17 0.000396659
10 10 100 17 0.0468714
11 10 100 17 0.0472342
12 10 100 17 0.0236004
13 10 100 17 0.14198
14 10 100 17 0.0731288
15 10 100 17 0.138698
16 10 100 17 0.141254
17 10 100 17 0.171627
1 11 100 17 0.135505
2 11 100 17 0.0809617
3 11 100 17 0.0801993
4 11 100 17 0.027131
5 11 100 17 0.0272677
6 11 100 17 0.0394948
7 11 100 17 0.0282944
8 11 100 17 0.0537613
9 11 100 17 0.0276567
10 11 100 17 8.71008e-05
11 11 100 17 1.6869e-05
12 11 100 17 0.0271474
13 11 100 17 0.0562244
14 11 100 17 0.13883
15 11 100 17 0.138139
16 11 100 17 0.0810904
17 11 100 17 0.0581925
1 12 100 17 0.0349887
2 12 100 17 0.0719478
3 12 100 17 0.069298
4 12 100 17 0.0697764
5 12 100 17 0.0364525
6 12 100 17 0.00123712
7 12 100 17 0.10703
8 12 100 17 0.000255945
9 12 100 17 0.0350607
10 12 100 17 0.0731215
11 12 100 17 0.00399634
12 12 100 17 0.0672332
13 12 100 17 0.0701538
14 12 100 17 0.0711751
15 12 100 17 0.150411
16 12 100 17 0.0587449
17 12 100 17 0.0791175
1 13 100 17 0.0238229
2 13 100 17 0.000561713
3 13 100 17 0.0245462
4 13 100 17 2.33549e-06
5 13 100 17 0.0188754
6 13 100 17 0.000971824
7 13 100 17 0.0271639
8 13 100 17 0.0489236
9 13 100 17 0.0803364
10 13 100 17 0.0243722
11 13 100 17 0.0963689
12 13 100 17 0.0975573
13 13 100 17 0.0962663
14 13 100 17 0.144901
15 13 100 17 0.0879582
16 13 100 17 0.171246
17 13 100 17 0.056126
1 14 100 17 0.00741658
3 14 100 17 0.00900621
4 14 100 17 0.228031
5 14 100 17 0.00195579
6 14 100 17 0.00537051
7 14 100 17 7.39008e-05
8 14 100 17 3.391e-06
9 14 100 17 0.103394
10 14 100 17 2.37125e-05
11 14 100 17 2.35019e-06
12 14 100 17 0.147583
13 14 100 17 0.115004
14 14 100 17 0.131382
15 14 100 17 0.0129144
16 14 100 17 0.114937
17 14 100 17 0.122902
3 15 100 17 0.139554
5 15 100 17 0.137601
6 15 100 17 0.00505913
8 15 100 17 0.00165675
9 15 100 17 0.000109689
10 15 100 17 0.139816
11 15 100 17 2.07985e-05
12 15 100 17 1.90561e-06
13 15 100 17 0.00261981
14 15 100 17 0.0618923
15 15 100 17 0.076982
16 15 100 17 0.181555
17 15 100 17 0.253133
3 16 100 17 2.11608e-06
6 16 100 17 0.164898
7 16 100 17 5.51525e-05
9 16 100 17 5.84295e-05
10 16 100 17 2.08949e-05
12 16 100 17 4.44367e-05
13 16 100 17 4.5569e-05
14 16 100 17 0.224879
15 16 100 17 0.389115
16 16 100 17 0.219634
17 16 100 17 0.00124647
3 17 100 17 0.0037489
4 17 100 17 0.000184525
5 17 100 17 0.0106724
7 17 100 17 0.000105629
9 17 100 17 0.00383272
10 17 100 17 0.00481213
11 17 100 17 0.447429
12 17 100 17 0.000174994
13 17 100 17 0.00703803
14 17 100 17 2.92935e-05
15 17 100 17 0.508447
16 17 100 17 2.28306e-05
17 17 100 17 0.0135031
3 18 100 17 0.00048502
5 18 100 17 0.00258268
6 18 100 17 0.0611789
7 18 100 17 1.72449e-05
9 18 100 17 0.000872717
10 18 100 17 1.76147e-05
15 18 100 17 0.934004
16 18 100 17 2.07035e-05
17 18 100 17 0.000821203
2 19 100 17 6.15155e-05
3 19 100 17 0.00025043
4 19 100 17 1.70534e-05
5 19 100 17 0.92043
6 19 100 17 0.00269675
7 19 100 17 0.000665197
8 19 100 17 0.0154654
9 19 100 17 0.00235038
10 19 100 17 0.027143
11 19 100 17 1.27707e-05
12 19 100 17 0.000398197
13 19 100 17 0.000227249
14 19 100 17 0.00537976
15 19 100 17 7.873e-05
16 19 100 17 0.0232064
17 19 100 17 0.00161693
1 20 100 17 0.0303663
2 20 100 17 2.26876e-06
3 20 100 17 0.000311848
4 20 100 17 0.0330162
5 20 100 17 6.23837e-05
6 20 100 17 0.00407988
7 20 100 17 0.1183
8 20 100 17 0.00341832
9 20 100 17 0.000400793
10 20 100 17 7.01348e-06
11 20 100 17 3.1949e-06
12 20 100 17 0.26477
13 20 100 17 2.63409e-06
14 20 100 17 0.121757
15 20 100 17 4.31719e-06
16 20 100 17 0.123269
17 20 100 17 0.300229
2 21 100 17 0.000296327
3 21 100 17 0.00176506
4 21 100 17 0.000126556
5 21 100 17 0.93086
6 21 100 17 0.0425943
7 21 100 17 0.00112581
8 21 100 17 0.00816256
9 21 100 17 0.00542184
10 21 100 17 6.14111e-05
11 21 100 17 3.33155e-06
12 21 100 17 0.00383931
13 21 100 17 0.000282914
15 21 100 17 4.17577e-05
16 21 100 17 0.00309586
17 21 100 17 0.00232296
1 22 100 17 1.77855e-06
2 22 100 17 0.000131401
3 22 100 17 0.000605026
4 22 100 17 4.8127e-05
5 22 100 17 0.00169708
6 22 100 17 0.271192
7 22 100 17 0.294062
8 22 100 17 0.00577326
9 22 100 17 0.000299976
10 22 100 17 0.000118809
11 22 100 17 0.00198687
12 22 100 17 0.252674
13 22 100 17 0.00370343
15 22 100 17 0.167557
16 22 100 17 1.24431e-05
17 22 100 17 0.00013672
1 23 100 17 0.000197341
2 23 100 17 3.16925e-05
3 23 100 17 1.01976e-05
4 23 100 17 0.0388865
6 23 100 17 5.55815e-05
7 23 100 17 0.00096911
9 23 100 17 5.25332e-05
10 23 100 17 0.957727
12 23 100 17 0.00150212
14 23 100 17 0.000567732
2 24 100 17 6.664e-07
3 24 100 17 4.04775e-07
4 24 100 17 2.42037e-05
5 24 100 17 7.7689e-07
6 24 100 17 7.83811e-06
7 24 100 17 8.54964e-05
8 24 100 17 0.00152537
9 24 100 17 0.399356
10 24 100 17 0.198013
11 24 100 17 0.400889
12 24 100 17 9.65311e-05
17 24 100 17 7.96693e-07
2 25 100 17 0.000313315
3 25 100 17 9.68031e-05
4 25 100 17 0.00163359
6 25 100 17 0.596203
7 25 100 17 0.00245613
9 25 100 17 0.367229
10 25 100 17 0.0318408
15 25 100 17 0.000228045
2 26 100 17 0.00869342
3 26 100 17 7.77423e-05
4 26 100 17 0.00215604
6 26 100 17 0.632339
7 26 100 17 0.000251335
9 26 100 17 0.348919
10 26 100 17 0.00318899
14 26 100 17 0.00365881
15 26 100 17 0.000622807
17 26 100 17 9.25026e-05
1 27 100 17 0.000768571
3 27 100 17 0.00465387
15 27 100 17 0.994578
1 28 100 17 0.165882
4 28 100 17 0.120966
7 28 100 17 0.0466107
10 28 100 17 0.576986
14 28 100 17 0.089555
4 29 100 17 0.000445589
6 29 100 17 0.0817194
9 29 100 17 0.916674
10 29 100 17 0.000218776
15 29 100 17 0.000942377
2 30 100 17 0.00881269
3 30 100 17 7.74039e-05
4 30 100 17 0.00216594
6 30 100 17 0.632907
7 30 100 17 0.000251081
9 30 100 17 0.348271
10 30 100 17 0.00316595
14 30 100 17 0.00363797
15 30 100 17 0.000618663
17 30 100 17 9.25299e-05
1 0 100 18 1.42261e-06
2 0 100 18 0.03781
3 0 100 18 0.0779708
4 0 100 18 0.0973781
5 0 100 18 0.0923038
6 0 100 18 0.0721093
7 0 100 18 0.0757306
8 0 100 18 0.0700316
9 0 100 18 0.0672926
10 0 100 18 0.0756369
11 0 100 18 0.0593795
12 0 100 18 0.0398613
13 0 100 18 0.0425659
14 0 100 18 0.0464191
15 0 100 18 0.0203068
16 0 100 18 0.0406748
17 0 100 18 0.0447176
18 0 100 18 0.0398098
1 1 100 18 0.987562
2 1 100 18 0.00016546
4 1 100 18 1.87041e-07
5 1 100 18 0.0122501
13 1 100 18 1.98244e-07
14 1 100 18 2.19237e-05
15 1 100 18 1.25771e-07
1 2 100 18 0.000209243
2 2 100 18 0.700587
3 2 100 18 0.0254116
4 2 100 18 0.0144983
5 2 100 18 0.0359489
6 2 100 18 0.150426
7 2 100 18 0.0146344
8 2 100 18 0.000377832
9 2 100 18 0.000228669
10 2 100 18 8.68304e-06
11 2 100 18 0.0143361
12 2 100 18 0.0143421
13 2 100 18 2.76462e-06
14 2 100 18 0.000429795
15 2 100 18 6.6535e-07
16 2 100 18 0.000224847
17 2 100 18 0.01432
18 2 100 18 0.0140133
1 3 100 18 1.35628e-05
2 3 100 18 0.0102573
3 3 100 18 0.01735
4 3 100 18 0.0176065
5 3 100 18 0.0557705
6 3 100 18 0.0565004
7 3 100 18 0.134344
8 3 100 18 0.0771685
9 3 100 18 0.0912949
10 3 100 18 0.0854495
11 3 100 18 0.0667261
12 3 100 18 0.0612038
13 3 100 18 0.0615395
14 3 100 18 0.065937
15 3 100 18 0.0894598
16 3 100 18 0.0171846
17 3 100 18 0.0658029
18 3 100 18 0.0263908
1 4 100 18 1.22109e-06
2 4 100 18 0.0119999
3 4 100 18 0.143858
4 4 100 18 0.0242599
5 4 100 18 0.0552254
6 4 100 18 0.0493339
7 4 100 18 0.11163
8 4 100 18 0.143092
9 4 100 18 0.0845802
10 4 100 18 0.0342755
11 4 100 18 0.0728868
12 4 100 18 0.061189
13 4 100 18 0.0121835
14 4 100 18 0.0358741
15 4 100 18 0.03589
16 4 100 18 0.0482207
17 4 100 18 0.0240551
18 4 100 18 0.0514454
1 5 100 18 0.00678665
2 5 100 18 0.00669089
3 5 100 18 0.0270695
4 5 100 18 0.0389128
5 5 100 18 0.0121884
6 5 100 18 0.040471
7 5 100 18 0.0403565
8 5 100 18 0.0490784
9 5 100 18 0.0662469
10 5 100 18 0.0588912
11 5 100 18 0.0865219
12 5 100 18 0.0515266
13 5 100 18 0.0651358
14 5 100 18 0.115121
15 5 100 18 0.0557312
16 5 100 18 0.063786
17 5 100 18 0.0960058
18 5 100 18 0.119479
1 6 100 18 0.0149293
2 6 100 18 0.0157084
3 6 100 18 0.051531
4 6 100 18 0.037874
5 6 100 18 0.00777623
6 6 100 18 0.0574839
7 6 100 18 0.00819777
8 6 100 18 0.0144989
9 6 100 18 0.0295031
10 6 100 18 0.029972
11 6 100 18 0.0451108
12 6 100 18 0.118658
13 6 100 18 0.124244
14 6 100 18 0.0669381
15 6 100 18 0.151225
16 6 100 18 0.137529
17 6 100 18 0.0353912
18 6 100 18 0.0534292
1 7 100 18 4.92482e-07
2 7 100 18 0.0139473
3 7 100 18 0.020352
4 7 100 18 0.0212476
5 7 100 18 0.0609355
6 7 100 18 0.0248807
7 7 100 18 0.0212981
8 7 100 18 0.060836
9 7 100 18 0.0701495
10 7 100 18 0.0517474
11 7 100 18 0.0526771
12 7 100 18 0.121392
13 7 100 18 0.0805565
14 7 100 18 0.0825661
15 7 100 18 0.0867327
16 7 100 18 0.0830763
17 7 100 18 0.0874301
18 7 100 18 0.060175
1 8 100 18 6.27514e-06
2 8 100 18 0.0399844
3 8 100 18 0.051573
4 8 100 18 0.0532654
5 8 100 18 0.0304282
6 8 100 18 0.0341927
7 8 100 18 0.0566947
8 8 100 18 0.0349376
9 8 100 18 0.0503317
10 8 100 18 0.0345054
11 8 100 18 0.069896
12 8 100 18 0.0867719
13 8 100 18 0.0211572
14 8 100 18 0.0871546
15 8 100 18 0.146135
16 8 100 18 0.099808
17 8 100 18 0.0382574
18 8 100 18 0.0649001
1 9 100 18 6.77851e-05
2 9 100 18 0.0101137
3 9 100 18 0.0242204
4 9 100 18 0.025806
5 9 100 18 0.0481584
6 9 100 18 0.00170941
7 9 100 18 0.000300469
8 9 100 18 0.118952
9 9 100 18 0.0737123
10 9 100 18 0.144657
11 9 100 18 0.08692
12 9 100 18 0.0374994
13 9 100 18 0.125865
14 9 100 18 0.0243488
15 9 100 18 0.0647088
16 9 100 18 0.07271
17 9 100 18 0.0368536
18 9 100 18 0.103397
1 10 100 18 9.23685e-07
2 10 100 18 0.000421722
3 10 100 18 2.18012e-05
4 10 100 18 4.82887e-07
5 10 100 18 0.0460719
6 10 100 18 0.0228942
7 10 100 18 0.024323
8 10 100 18 1.49337e-05
9 10 100 18 0.0310428
10 10 100 18 0.0290319
11 10 100 18 0.083253
12 10 100 18 0.0883852
13 10 100 18 0.107187
14 10 100 18 0.0541682
15 10 100 18 0.113901
16 10 100 18 0.166453
17 10 100 18 0.118185
18 10 100 18 0.114644
1 11 100 18 0.0449488
2 11 100 18 0.0502504
3 11 100 18 0.0918471
4 11 100 18 0.0900898
5 11 100 18 0.0447489
6 11 100 18 8.15066e-05
7 11 100 18 1.22628e-06
8 11 100 18 3.4329e-05
9 11 100 18 6.26786e-05
10 11 100 18 0.00279371
11 11 100 18 0.0449467
12 11 100 18 0.111666
13 11 100 18 0.170108
14 11 100 18 2.92407e-05
15 11 100 18 0.0515984
16 11 100 18 0.0638687
17 11 100 18 0.0935704
18 11 100 18 0.139354
1 12 100 18 0.000118835
2 12 100 18 0.106601
3 12 100 18 0.10212
4 12 100 18 0.185448
5 12 100 18 0.101973
6 12 100 18 0.0934596
7 12 100 18 0.00141965
8 12 100 18 8.49024e-05
9 12 100 18 5.33796e-05
10 12 100 18 0.00033129
11 12 100 18 4.24183e-05
12 12 100 18 2.14392e-05
13 12 100 18 0.0047716
14 12 100 18 0.0101469
15 12 100 18 0.078978
16 12 100 18 0.102175
17 12 100 18 0.210403
18 12 100 18 0.00185105
1 13 100 18 0.027227
2 13 100 18 0.150309
3 13 100 18 0.0754332
4 13 100 18 0.00049805
5 13 100 18 0.000343096
6 13 100 18 0.0130607
7 13 100 18 0.00052178
8 13 100 18 1.18315e-05
9 13 100 18 0.00703081
10 13 100 18 0.000186952
11 13 100 18 1.55533e-05
12 13 100 18 0.013949
13 13 100 18 0.000373248
14 13 100 18 0.00231437
15 13 100 18 0.142775
16 13 100 18 0.121271
17 13 100 18 0.225885
18 13 100 18 0.218794
2 14 100 18 2.85438e-05
3 14 100 18 6.65917e-05
4 14 100 18 0.020685
5 14 100 18 2.6038e-05
6 14 100 18 3.92524e-05
7 14 100 18 0.089298
8 14 100 18 0.0898172
9 14 100 18 0.00883576
10 14 100 18 0.000706059
11 14 100 18 3.2845e-05
12 14 100 18 0.000152975
13 14 100 18 0.0932147
14 14 100 18 0.081192
15 14 100 18 0.0812924
16 14 100 18 0.0939289
17 14 100 18 0.256301
18 14 100 18 0.184382
1 15 100 18 1.08583e-05
2 15 100 18 0.0995326
3 15 100 18 0.0990081
4 15 100 18 0.0996156
6 15 100 18 0.0826652
7 15 100 18 7.43563e-06
9 15 100 18 4.92012e-05
10 15 100 18 0.00024663
11 15 100 18 3.02532e-05
12 15 100 18 5.28375e-05
13 15 100 18 0.000466869
14 15 100 18 0.199251
15 15 100 18 0.197991
16 15 100 18 0.00130122
17 15 100 18 0.0131235
18 15 100 18 0.206648
1 16 100 18 0.245654
3 16 100 18 0.000101344
7 16 100 18 0.00118365
10 16 100 18 0.000484111
11 16 100 18 2.09935e-05
13 16 100 18 0.0368293
14 16 100 18 0.245415
17 16 100 18 0.470201
18 16 100 18 0.000110876
2 17 100 18 0.000264825
3 17 100 18 0.19834
6 17 100 18 0.000964622
10 17 100 18 0.197992
12 17 100 18 0.186592
13 17 100 18 0.371166
14 17 100 18 0.0446799
3 18 100 18 0.341938
4 18 100 18 0.352183
5 18 100 18 0.0637385
6 18 100 18 0.0022598
7 18 100 18 0.000364938
10 18 100 18 2.15908e-05
13 18 100 18 0.20708
14 18 100 18 0.000801753
15 18 100 18 0.0174039
17 18 100 18 0.0142073
10 19 100 18 0.00123784
11 19 100 18 0.00131212
13 19 100 18 0.992796
15 19 100 18 0.0046541
3 20 100 18 0.00379626
4 20 100 18 0.000172443
5 20 100 18 0.000766153
6 20 100 18 0.000525831
7 20 100 18 0.00868098
8 20 100 18 0.0101716
9 20 100 18 0.00477264
10 20 100 18 0.0209274
11 20 100 18 0.0194214
12 20 100 18 0.782124
13 20 100 18 0.018253
14 20 100 18 0.12725
15 20 100 18 0.00235376
16 20 100 18 0.000674634
17 20 100 18 0.000109495
2 21 100 18 3.89676e-06
3 21 100 18 0.000152535
4 21 100 18 4.64165e-05
5 21 100 18 2.48364e-05
6 21 100 18 0.0490136
7 21 100 18 2.50834e-05
8 21 100 18 4.06278e-06
9 21 100 18 1.05426e-05
10 21 100 18 0.00189103
11 21 100 18 0.000756414
12 21 100 18 2.7109e-05
13 21 100 18 0.000411233
14 21 100 18 0.316017
15 21 100 18 0.314143
16 21 100 18 2.13207e-06
17 21 100 18 0.00298246
18 21 100 18 0.314489
2 22 100 18 3.85388e-06
3 22 100 18 1.67744e-05
5 22 100 18 7.42663e-05
6 22 100 18 0.000220544
7 22 100 18 5.5854e-06
8 22 100 18 2.04303e-05
9 22 100 18 2.80796e-05
10 22 100 18 8.143e-06
11 22 100 18 0.000235535
12 22 100 18 9.69993e-05
13 22 100 18 0.439506
14 22 100 18 4.68182e-06
15 22 100 18 0.000740656
16 22 100 18 6.10685e-05
17 22 100 18 0.558977
1 0 100 19 1.31846e-06
2 0 100 19 0.0425956
3 0 100 19 0.0853828
4 0 100 19 0.0964727
5 0 100 19 0.0989926
6 0 100 19 0.0966378
7 0 100 19 0.0562187
8 0 100 19 0.0480655
9 0 100 19 0.0375657
10 0 100 19 0.0553237
11 0 100 19 0.0443104
12 0 100 19 0.0561903
13 0 100 19 0.0412943
14 0 100 19 0.0621394
15 0 100 19 0.034539
16 0 100 19 0.0243828
17 0 100 19 0.0470052
18 0 100 19 0.0422314
19 0 100 19 0.0306505
1 1 100 19 0.95393
2 1 100 19 0.01166
3 1 100 19 5.11601e-05
9 1 100 19 0.0116597
10 1 100 19 1.50659e-07
12 1 100 19 8.41902e-07
14 1 100 19 1.23361e-05
16 1 100 19 0.0116601
18 1 100 19 0.0109456
19 1 100 19 8.01903e-05
1 2 100 19 0.00419857
2 2 100 19 0.715959
3 2 100 19 0.0853197
4 2 100 19 0.0463485
5 2 100 19 0.0149078
6 2 100 19 0.0419432
7 2 100 19 0.0276205
8 2 100 19 0.000687943
9 2 100 19 0.0129579
10 2 100 19 0.000448867
11 2 100 19 4.15807e-05
12 2 100 19 1.36943e-05
13 2 100 19 7.84517e-05
14 2 100 19 0.0163209
15 2 100 19 0.0163683
16 2 100 19 0.0162729
17 2 100 19 3.63051e-05
18 2 100 19 0.000192477
19 2 100 19 0.000283241
2 3 100 19 4.28616e-05
3 3 100 19 0.016339
4 3 100 19 0.026286
5 3 100 19 0.0470012
6 3 100 19 0.0626046
7 3 100 19 0.106429
8 3 100 19 0.109816
9 3 100 19 0.105156
10 3 100 19 0.07126
11 3 100 19 0.0580671
12 3 100 19 0.028572
13 3 100 19 0.0518652
14 3 100 19 0.031495
15 3 100 19 0.0762978
16 3 100 19 0.062639
17 3 100 19 0.0364074
18 3 100 19 0.0529465
19 3 100 19 0.0567754
1 4 100 19 2.03869e-06
2 4 100 19 0.0587198
3 4 100 19 0.162863
4 4 100 19 0.0301598
5 4 100 19 0.0288539
6 4 100 19 0.0406119
7 4 100 19 0.0601658
8 4 100 19 0.0644007
9 4 100 19 0.0881131
10 4 100 19 0.0798205
11 4 100 19 0.0731907
12 4 100 19 0.102788
13 4 100 19 0.0734511
14 4 100 19 0.0149789
15 4 100 19 0.0118889
16 4 100 19 0.0411152
17 4 100 19 0.00130256
18 4 100 19 0.0440457
19 4 100 19 0.0235286
1 5 100 19 0.00238303
2 5 100 19 9.42156e-06
3 5 100 19 0.000987502
4 5 100 19 0.00733651
5 5 100 19 0.0276272
6 5 100 19 0.0207461
7 5 100 19 0.0851711
8 5 100 19 0.123371
9 5 100 19 0.0889913
10 5 100 19 0.0703438
11 5 100 19 0.0526521
12 5 100 19 0.0798132
13 5 100 19 0.0655669
14 5 100 19 0.0660562
15 5 100 19 0.108821
16 5 100 19 0.0503828
17 5 100 19 0.0568255
18 5 100 19 0.0290911
19 5 100 19 0.0638235
1 6 100 19 0.00542803
2 6 100 19 0.0306074
3 6 100 19 0.0238021
4 6 100 19 0.0338744
5 6 100 19 0.0341096
6 6 100 19 0.02497
7 6 100 19 0.0262442
8 6 100 19 0.0695841
9 6 100 19 0.0691334
10 6 100 19 0.0597126
11 6 100 19 0.0898304
12 6 100 19 0.0668521
13 6 100 19 0.0522269
14 6 100 19 0.0486164
15 6 100 19 0.0401799
16 6 100 19 0.100298
17 6 100 19 0.0635507
18 6 100 19 0.0718284
19 6 100 19 0.0891514
1 7 100 19 0.0102048
2 7 100 19 0.00011413
3 7 100 19 2.99175e-05
4 7 100 19 0.0292883
5 7 100 19 0.0222711
6 7 100 19 0.0103723
7 7 100 19 0.0436482
8 7 100 19 7.14307e-06
9 7 100 19 0.0760419
10 7 100 19 0.0761055
11 7 100 19 0.0752309
12 7 100 19 0.0719814
13 7 100 19 0.0992482
14 7 100 19 0.0782796
15 7 100 19 0.084361
16 7 100 19 0.0784093
17 7 100 19 0.0656014
18 7 100 19 0.0760114
19 7 100 19 0.102793
2 8 100 19 0.00158613
3 8 100 19 0.0337662
4 8 100 19 0.0556009
5 8 100 19 0.0342951
6 8 100 19 0.0221901
7 8 100 19 0.0336462
8 8 100 19 0.000410812
9 8 100 19 0.0500097
10 8 100 19 0.0530558
11 8 100 19 0.113352
12 8 100 19 0.0574153
13 8 100 19 0.0522647
14 8 100 19 0.0845595
15 8 100 19 0.0640241
16 8 100 19 0.116751
17 8 100 19 0.0837841
18 8 100 19 0.0791244
19 8 100 19 0.0641647
1 9 100 19 8.31119e-07
2 9 100 19 1.88698e-05
3 9 100 19 0.0648565
4 9 100 19 0.0596705
5 9 100 19 0.0204123
6 9 100 19 0.00515083
7 9 100 19 0.000467565
8 9 100 19 0.0408951
9 9 100 19 0.0409483
10 9 100 19 0.0407936
11 9 100 19 0.0545152
12 9 100 19 0.00130921
13 9 100 19 0.0614388
14 9 100 19 0.0616317
15 9 100 19 0.102223
16 9 100 19 0.0614468
17 9 100 19 0.119986
18 9 100 19 0.178747
19 9 100 19 0.0854885
1 10 100 19 7.35025e-06
2 10 100 19 0.0789186
3 10 100 19 0.0442162
4 10 100 19 0.0394602
5 10 100 19 0.00892946
6 10 100 19 0.000204968
7 10 100 19 0.0393039
8 10 100 19 0.0397753
9 10 100 19 1.58576e-05
10 10 100 19 0.0489027
11 10 100 19 0.0755305
12 10 100 19 0.0790221
13 10 100 19 0.094659
14 10 100 19 0.0788053
15 10 100 19 0.0396361
16 10 100 19 0.0792573
17 10 100 19 0.0792667
18 10 100 19 0.0848241
19 10 100 19 0.0892642
1 11 100 19 0.0268411
2 11 100 19 0.0268981
3 11 100 19 0.0539381
4 11 100 19 0.000552624
6 11 100 19 0.0229635
7 11 100 19 0.0221286
8 11 100 19 0.0267477
9 11 100 19 0.0253277
10 11 100 19 3.48023e-05
11 11 100 19 0.0788037
12 11 100 19 0.0541499
13 11 100 19 0.0964855
15 11 100 19 0.0661871
16 11 100 19 0.109976
17 11 100 19 0.13586
18 11 100 19 0.133859
19 11 100 19 0.119246
1 12 100 19 6.10948e-05
2 12 100 19 0.0368873
3 12 100 19 0.036141
4 12 100 19 0.000497097
6 12 100 19 7.17502e-05
7 12 100 19 0.0369612
8 12 100 19 0.036972
9 12 100 19 0.000187165
10 12 100 19 0.0371732
11 12 100 19 0.0769164
12 12 100 19 0.0830697
13 12 100 19 0.00664011
14 12 100 19 0.184509
15 12 100 19 0.190746
16 12 100 19 0.10662
17 12 100 19 0.049996
18 12 100 19 0.0465941
19 12 100 19 0.069957
1 13 100 19 0.0297227
2 13 100 19 0.0595759
3 13 100 19 0.0590623
4 13 100 19 0.0551806
5 13 100 19 2.48217e-05
6 13 100 19 0.00464293
7 13 100 19 3.79769e-05
8 13 100 19 1.07047e-05
9 13 100 19 0.0302459
10 13 100 19 0.029734
11 13 100 19 3.23603e-05
12 13 100 19 0.0598762
13 13 100 19 0.0889518
14 13 100 19 0.0594496
15 13 100 19 0.0594701
16 13 100 19 0.124602
17 13 100 19 0.117162
18 13 100 19 0.0596929
19 13 100 19 0.162526
1 14 100 19 0.078278
2 14 100 19 0.0792212
3 14 100 19 8.23605e-05
4 14 100 19 2.39894e-06
5 14 100 19 0.0158273
6 14 100 19 0.000539655
7 14 100 19 1.19531e-05
9 14 100 19 7.95312e-06
10 14 100 19 0.000142825
11 14 100 19 0.0604692
12 14 100 19 0.0791699
13 14 100 19 0.202807
15 14 100 19 9.15591e-05
16 14 100 19 0.0806845
17 14 100 19 0.302633
18 14 100 19 0.0791529
19 14 100 19 0.0208777
1 15 100 19 0.000146991
2 15 100 19 6.07372e-05
3 15 100 19 2.19841e-05
4 15 100 19 0.00143441
5 15 100 19 0.000290021
6 15 100 19 0.000851139
7 15 100 19 0.0856075
8 15 100 19 0.0428209
9 15 100 19 0.0416021
10 15 100 19 0.0448117
11 15 100 19 0.0428184
12 15 100 19 0.0427221
13 15 100 19 0.17027
14 15 100 19 0.0428454
15 15 100 19 0.0426202
16 15 100 19 0.144019
17 15 100 19 0.0853256
18 15 100 19 0.0494452
19 15 100 19 0.162286
3 16 100 19 3.80017e-05
7 16 100 19 7.29027e-05
12 16 100 19 0.000157659
13 16 100 19 0.000321635
15 16 100 19 0.336436
16 16 100 19 0.348482
17 16 100 19 0.000440044
18 16 100 19 0.275449
19 16 100 19 0.0386039
6 17 100 19 0.561008
10 17 100 19 0.236175
15 17 100 19 0.202816
1 0 100 20 1.47416e-06
2 0 100 20 0.0260458
3 0 100 20 0.0870452
4 0 100 20 0.0980792
5 0 100 20 0.093372
6 0 100 20 0.0690307
7 0 100 20 0.0725856
8 0 100 20 0.0734799
9 0 100 20 0.0336698
10 0 100 20 0.0534832
11 0 100 20 0.0429595
12 0 100 20 0.0349982
13 0 100 20 0.0339323
14 0 100 20 0.0320123
15 0 100 20 0.0590618
16 0 100 20 0.033186
17 0 100 20 0.0411327
18 0 100 20 0.0378415
19 0 100 20 0.0491233
20 0 100 20 0.0289596
1 1 100 20 0.999974
3 1 100 20 2.95724e-07
13 1 100 20 2.54907e-05
1 2 100 20 4.66499e-05
2 2 100 20 0.895015
3 2 100 20 2.42667e-05
4 2 100 20 0.02668
5 2 100 20 0.000955442
6 2 100 20 0.0763296
7 2 100 20 0.00028044
8 2 100 20 2.3061e-05
9 2 100 20 0.000308001
10 2 100 20 7.70255e-06
11 2 100 20 6.23833e-06
12 2 100 20 0.000147587
13 2 100 20 4.27757e-05
14 2 100 20 1.69079e-06
15 2 100 20 9.01679e-06
16 2 100 20 9.29319e-07
17 2 100 20 0.000113953
18 2 100 20 2.27564e-06
19 2 100 20 4.88054e-06
20 2 100 20 3.36724e-07
2 3 100 20 0.00586646
3 3 100 20 0.0394869
4 3 100 20 0.0307883
5 3 100 20 0.0433056
6 3 100 20 0.0952951
7 3 100 20 0.129346
8 3 100 20 0.0798053
9 3 100 20 0.0737434
10 3 100 20 0.048099
11 3 100 20 0.0563171
12 3 100 20 0.0786737
13 3 100 20 0.0608592
14 3 100 20 0.0399635
15 3 100 20 0.0177291
16 3 100 20 0.0554124
17 3 100 20 0.0397998
18 3 100 20 0.0429485
19 3 100 20 0.00689154
20 3 100 20 0.0556692
2 4 100 20 5.53796e-06
3 4 100 20 0.056948
4 4 100 20 0.00253164
5 4 100 20 0.03982
6 4 100 20 0.0523166
7 4 100 20 0.0176198
8 4 100 20 0.0857277
9 4 100 20 0.11339
10 4 100 20 0.11969
11 4 100 20 0.069151
12 4 100 20 0.0379601
13 4 100 20 0.0358925
14 4 100 20 0.0875458
15 4 100 20 0.0871454
16 4 100 20 0.0178564
17 4 100 20 0.017469
18 4 100 20 0.0599635
19 4 100 20 0.0487747
20 4 100 20 0.0501931
1 5 100 20 4.00023e-05
2 5 100 20 1.13428e-05
3 5 100 20 2.39159e-06
4 5 100 20 0.0137055
5 5 100 20 0.0137866
6 5 100 20 0.00494209
7 5 100 20 0.000368102
8 5 100 20 0.0417937
9 5 100 20 0.0797479
10 5 100 20 0.0825893
11 5 100 20 0.125134
12 5 100 20 0.0996542
13 5 100 20 0.0813888
14 5 100 20 0.0952554
15 5 100 20 0.0437341
16 5 100 20 0.0684007
17 5 100 20 0.0598455
18 5 100 20 0.0378297
19 5 100 20 0.054838
20 5 100 20 0.0969324
1 6 100 20 0.0311813
2 6 100 20 0.0155919
3 6 100 20 0.0439907
4 6 100 20 1.64922e-06
5 6 100 20 0.000673172
6 6 100 20 0.0263175
7 6 100 20 0.0334924
8 6 100 20 0.000916777
9 6 100 20 0.0767861
10 6 100 20 0.0811433
11 6 100 20 0.015245
12 6 100 20 0.048442
13 6 100 20 0.124112
14 6 100 20 0.051286
15 6 100 20 0.0923339
16 6 100 20 0.124767
17 6 100 20 0.0612469
18 6 100 20 0.0967407
19 6 100 20 0.028964
20 6 100 20 0.0467675
2 7 100 20 0.0184521
3 7 100 20 0.0184487
4 7 100 20 0.0553219
5 7 100 20 0.0369539
6 7 100 20 0.0186798
7 7 100 20 0.019003
8 7 100 20 0.0184474
9 7 100 20 0.0602084
10 7 100 20 0.0198394
11 7 100 20 0.0553166
12 7 100 20 0.0320039
13 7 100 20 0.0368653
14 7 100 20 0.109131
15 7 100 20 0.0738084
16 7 100 20 0.0545425
17 7 100 20 0.106384
18 7 100 20 0.0614698
19 7 100 20 0.0922605
20 7 100 20 0.112863
1 8 100 20 0.0285981
2 8 100 20 0.000620855
3 8 100 20 0.000798429
5 8 100 20 5.51601e-05
6 8 100 20 0.0505563
7 8 100 20 0.000146253
8 8 100 20 1.07365e-06
9 8 100 20 0.0287455
10 8 100 20 0.00477475
11 8 100 20 0.00350952
12 8 100 20 0.0296938
13 8 100 20 0.082123
14 8 100 20 0.0587574
15 8 100 20 0.0571129
16 8 100 20 0.137909
17 8 100 20 0.111296
18 8 100 20 0.169827
19 8 100 20 0.0816505
20 8 100 20 0.153825
2 9 100 20 8.22803e-05
3 9 100 20 0.000201625
4 9 100 20 0.001997
5 9 100 20 0.0811334
6 9 100 20 0.000210903
7 9 100 20 0.000276512
8 9 100 20 0.0809665
9 9 100 20 0.0804167
10 9 100 20 0.000307312
11 9 100 20 0.000792566
12 9 100 20 0.0812922
13 9 100 20 1.95458e-06
14 9 100 20 0.0820729
15 9 100 20 0.0812363
16 9 100 20 0.0877863
17 9 100 20 0.000299538
18 9 100 20 0.000207111
19 9 100 20 0.336457
20 9 100 20 0.0842622
2 10 100 20 0.000166447
3 10 100 20 2.16266e-05
4 10 100 20 0.000317697
5 10 100 20 0.0676759
6 10 100 20 0.000156181
7 10 100 20 0.0605103
8 10 100 20 0.000331059
9 10 100 20 0.00250503
10 10 100 20 8.75991e-05
11 10 100 20 0.00109436
12 10 100 20 0.135492
13 10 100 20 0.135511
14 10 100 20 0.135656
15 10 100 20 0.0677976
16 10 100 20 0.0629409
17 10 100 20 0.000182192
18 10 100 20 0.135413
19 10 100 20 0.140975
20 10 100 20 0.0531659
1 11 100 20 0.0329723
2 11 100 20 0.000100889
3 11 100 20 0.0330588
7 11 100 20 2.24133e-05
9 11 100 20 0.0659447
10 11 100 20 0.0658857
11 11 100 20 0.163271
12 11 100 20 0.0989187
13 11 100 20 0.0659213
14 11 100 20 0.0659447
15 11 100 20 0.0329683
16 11 100 20 0.133789
17 11 100 20 0.0978495
18 11 100 20 0.0661653
19 11 100 20 0.0405685
20 11 100 20 0.0366187
2 12 100 20 0.145227
3 12 100 20 0.121508
5 12 100 20 1.48635e-05
7 12 100 20 2.35572e-05
8 12 100 20 9.62638e-06
10 12 100 20 0.000643367
11 12 100 20 4.76967e-06
13 12 100 20 0.00207489
16 12 100 20 0.000317812
17 12 100 20 0.291065
18 12 100 20 0.292707
19 12 100 20 0.145836
20 12 100 20 0.000567588
1 13 100 20 0.0127135
2 13 100 20 0.0662187
3 13 100 20 0.132449
4 13 100 20 0.198097
5 13 100 20 0.0624657
8 13 100 20 0.0659174
9 13 100 20 0.0662267
10 13 100 20 0.0662257
11 13 100 20 0.132453
12 13 100 20 0.13067
13 13 100 20 0.0663782
15 13 100 20 8.61554e-07
18 13 100 20 0.000181793
19 13 100 20 2.53165e-06
1 14 100 20 0.0065512
3 14 100 20 0.0243946
4 14 100 20 0.000192843
5 14 100 20 0.000460585
6 14 100 20 0.000558796
7 14 100 20 7.22066e-05
8 14 100 20 8.37385e-05
9 14 100 20 3.16973e-06
11 14 100 20 2.94241e-06
12 14 100 20 1.15571e-05
13 14 100 20 0.00977713
14 14 100 20 0.00109532
15 14 100 20 0.00010416
17 14 100 20 0.294526
18 14 100 20 0.00394351
19 14 100 20 0.36286
20 14 100 20 0.295363
3 15 100 20 3.21744e-05
4 15 100 20 2.58837e-06
5 15 100 20 0.000525448
6 15 100 20 1.68712e-05
8 15 100 20 0.000530418
9 15 100 20 1.10719e-05
10 15 100 20 7.50008e-05
12 15 100 20 0.244451
13 15 100 20 0.251777
14 15 100 20 0.255384
15 15 100 20 0.247168
16 15 100 20 5.90904e-06
18 15 100 20 1.60898e-05
19 15 100 20 4.98538e-06
6 16 100 20 1.21989e-05
9 16 100 20 0.140937
10 16 100 20 8.40179e-05
11 16 100 20 0.169964
12 16 100 20 0.168783
13 16 100 20 0.169471
14 16 100 20 0.169962
15 16 100 20 0.00117701
17 16 100 20 0.168596
19 16 100 20 0.0110139
11 17 100 20 0.0717015
13 17 100 20 0.735511
18 17 100 20 0.159248
20 17 100 20 0.0335395
5 18 100 20 1.8613e-06
6 18 100 20 0.000189257
8 18 100 20 1.8789e-06
11 18 100 20 4.95419e-06
13 18 100 20 0.000195185
14 18 100 20 0.149908
16 18 100 20 0.154101
17 18 100 20 0.154002
18 18 100 20 0.154389
19 18 100 20 0.233047
20 18 100 20 0.15416
1 19 100 20 0.581072
12 19 100 20 0.133773
15 19 100 20 0.285155
4 20 100 20 0.01179
19 20 100 20 0.98821
19 21 100 20 1
1 22 100 20 0.557241
5 22 100 20 0.0180869
8 22 100 20 0.0180869
15 22 100 20 0.403923
20 22 100 20 0.00266227
2 23 100 20 0.0107002
3 23 100 20 0.000499948
4 23 100 20 0.000324497
5 23 100 20 0.00419303
6 23 100 20 0.000119535
7 23 100 20 0.000172678
8 23 100 20 0.00419312
13 23 100 20 0.961849
14 23 100 20 8.81e-05
18 23 100 20 0.0100385
19 23 100 20 0.000331845
20 23 100 20 0.0074894
1 0 100 21 1.2648e-07
2 0 100 21 0.0411035
3 0 100 21 0.087736
4 0 100 21 0.104126
5 0 100 21 0.0919237
6 0 100 21 0.0785236
7 0 100 21 0.0454458
8 0 100 21 0.0346377
9 0 100 21 0.0448718
10 0 100 21 0.054157
11 0 100 21 0.0518399
12 0 100 21 0.0386523
13 0 100 21 0.0564985
14 0 100 21 0.0523331
15 0 100 21 0.0342995
16 0 100 21 0.0380969
17 0 100 21 0.0243423
18 0 100 21 0.0201878
19 0 100 21 0.0291114
20 0 100 21 0.0379647
21 0 100 21 0.0341482
1 1 100 21 0.941166
2 1 100 21 2.81759e-07
11 1 100 21 7.02391e-06
15 1 100 21 0.0196091
16 1 100 21 0.0196088
17 1 100 21 0.0196088
1 2 100 21 0.000109998
2 2 100 21 0.781786
3 2 100 21 0.0560844
4 2 100 21 0.0273227
5 2 100 21 0.013265
6 2 100 21 0.0256618
7 2 100 21 0.0406877
8 2 100 21 0.00026977
9 2 100 21 8.38189e-05
10 2 100 21 3.44499e-05
11 2 100 21 5.30719e-05
12 2 100 21 0.000530528
13 2 100 21 6.02434e-06
14 2 100 21 4.33148e-06
15 2 100 21 1.41384e-05
16 2 100 21 2.19696e-06
17 2 100 21 1.92086e-05
18 2 100 21 0.024989
19 2 100 21 0.00403446
20 2 100 21 1.67449e-06
21 2 100 21 0.0250397
2 3 100 21 2.81396e-05
3 3 100 21 0.00715244
4 3 100 21 0.0098243
5 3 100 21 0.0246125
6 3 100 21 0.0788594
7 3 100 21 0.130021
8 3 100 21 0.101042
9 3 100 21 0.0867554
10 3 100 21 0.0545276
11 3 100 21 0.063282
12 3 100 21 0.0451834
13 3 100 21 0.0881777
14 3 100 21 0.0564639
15 3 100 21 0.0585752
16 3 100 21 0.0297746
17 3 100 21 0.0390604
18 3 100 21 0.0486458
19 3 100 21 0.0293981
20 3 100 21 0.0196319
21 3 100 21 0.0289841
2 4 100 21 2.45386e-05
3 4 100 21 0.0355072
4 4 100 21 0.0496967
5 4 100 21 0.0186245
6 4 100 21 0.0179766
7 4 100 21 0.0468101
8 4 100 21 0.0949281
9 4 100 21 0.0376045
10 4 100 21 0.0705488
11 4 100 21 0.0524019
12 4 100 21 0.124293
13 4 100 21 0.0183291
14 4 100 21 0.0176238
15 4 100 21 0.11622
16 4 100 21 0.0882113
17 4 100 21 0.0701509
18 4 100 21 0.0517359
19 4 100 21 0.0354949
20 4 100 21 0.0362392
21 4 100 21 0.0175783
2 5 100 21 9.01853e-06
3 5 100 21 0.0125339
4 5 100 21 0.0196786
5 5 100 21 3.74955e-05
6 5 100 21 0.0307094
7 5 100 21 0.0812071
8 5 100 21 0.0969255
9 5 100 21 0.0780413
10 5 100 21 0.0161784
11 5 100 21 0.049323
12 5 100 21 0.0322904
13 5 100 21 0.0481872
14 5 100 21 0.0823068
15 5 100 21 0.0474567
16 5 100 21 0.0161287
17 5 100 21 0.0806374
18 5 100 21 0.112004
19 5 100 21 0.0489856
20 5 100 21 0.0667178
21 5 100 21 0.0806422
1 6 100 21 0.0146044
2 6 100 21 0.0290141
3 6 100 21 0.0382034
4 6 100 21 0.00220937
5 6 100 21 0.0145887
6 6 100 21 0.0145123
7 6 100 21 0.000619215
8 6 100 21 0.0190449
9 6 100 21 0.0147589
10 6 100 21 0.0422518
11 6 100 21 0.0731214
12 6 100 21 0.0586793
13 6 100 21 0.0146135
14 6 100 21 0.0438407
15 6 100 21 0.125088
16 6 100 21 0.145737
17 6 100 21 0.102466
18 6 100 21 0.0282323
19 6 100 21 0.0590871
20 6 100 21 0.100983
21 6 100 21 0.0583448
1 7 100 21 0.0298157
2 7 100 21 2.18277e-06
3 7 100 21 0.103075
4 7 100 21 0.0149407
5 7 100 21 0.029578
6 7 100 21 0.00291204
7 7 100 21 0.0290948
8 7 100 21 0.0434627
9 7 100 21 0.0442784
10 7 100 21 0.0724071
11 7 100 21 0.0503242
12 7 100 21 0.0455443
13 7 100 21 0.0594179
14 7 100 21 0.0289985
15 7 100 21 0.044729
16 7 100 21 0.0299053
17 7 100 21 0.0587077
18 7 100 21 0.104896
19 7 100 21 0.0587787
20 7 100 21 0.0596145
21 7 100 21 0.0895168
1 8 100 21 2.11624e-06
2 8 100 21 0.0280119
3 8 100 21 0.00542198
4 8 100 21 0.037678
5 8 100 21 4.60638e-05
6 8 100 21 0.000174267
7 8 100 21 0.000506264
8 8 100 21 0.0254481
9 8 100 21 0.100601
10 8 100 21 0.0753818
11 8 100 21 0.0518111
12 8 100 21 0.0496033
13 8 100 21 2.35197e-05
14 8 100 21 0.0251043
15 8 100 21 0.0250882
16 8 100 21 0.0501804
17 8 100 21 0.0501907
18 8 100 21 0.0752397
19 8 100 21 0.127098
20 8 100 21 0.140726
21 8 100 21 0.131663
2 9 100 21 1.9562e-05
3 9 100 21 2.35284e-05
4 9 100 21 0.000551975
5 9 100 21 0.0458871
6 9 100 21 0.0277877
7 9 100 21 0.0589808
8 9 100 21 0.087291
9 9 100 21 0.174516
10 9 100 21 0.138536
11 9 100 21 0.0285625
12 9 100 21 0.0312522
13 9 100 21 0.0590961
14 9 100 21 0.116635
15 9 100 21 0.0292539
16 9 100 21 0.00163911
17 9 100 21 0.0322682
18 9 100 21 0.029115
19 9 100 21 0.0291564
20 9 100 21 0.0581885
21 9 100 21 0.05124
3 10 100 21 4.48165e-07
4 10 100 21 2.94595e-06
5 10 100 21 0.133036
6 10 100 21 0.028691
7 10 100 21 0.0541314
8 10 100 21 0.0855244
9 10 100 21 0.0283625
10 10 100 21 0.0266743
11 10 100 21 0.140882
12 10 100 21 0.1831
13 10 100 21 0.0294135
14 10 100 21 0.0898943
15 10 100 21 0.0285096
16 10 100 21 0.086073
17 10 100 21 0.0285092
18 10 100 21 0.000100731
19 10 100 21 0.0284679
20 10 100 21 0.0285994
21 10 100 21 2.71771e-05
3 11 100 21 3.05806e-06
4 11 100 21 7.20654e-07
5 11 100 21 0.00455235
6 11 100 21 0.0722317
7 11 100 21 0.0716452
8 11 100 21 0.0715353
9 11 100 21 0.000253133
10 11 100 21 0.0377881
11 11 100 21 0.0047584
12 11 100 21 0.0684235
13 11 100 21 0.107331
14 11 100 21 0.0719727
15 11 100 21 0.00539841
16 11 100 21 0.0535921
17 11 100 21 0.107309
18 11 100 21 0.107314
19 11 100 21 0.10672
20 11 100 21 0.106855
21 11 100 21 0.0023169
1 12 100 21 5.66598e-07
4 12 100 21 2.80394e-05
5 12 100 21 0.00475399
6 12 100 21 0.0406758
7 12 100 21 0.0417134
8 12 100 21 0.0406725
9 12 100 21 0.00382448
10 12 100 21 0.000312574
11 12 100 21 0.000841293
12 12 100 21 0.0106067
13 12 100 21 0.040675
14 12 100 21 1.19328e-05
15 12 100 21 0.039672
16 12 100 21 0.0406735
17 12 100 21 0.160149
18 12 100 21 0.122018
19 12 100 21 0.163325
20 12 100 21 0.0813444
21 12 100 21 0.208701
4 13 100 21 0.000679837
5 13 100 21 0.010561
6 13 100 21 0.00104463
7 13 100 21 0.000660285
8 13 100 21 5.79306e-05
9 13 100 21 0.00154972
10 13 100 21 1.31846e-05
12 13 100 21 0.0417871
13 13 100 21 0.0431534
14 13 100 21 0.0434886
15 13 100 21 0.0825206
16 13 100 21 0.0861249
17 13 100 21 0.127997
18 13 100 21 0.172195
19 13 100 21 0.171993
20 13 100 21 0.0862691
21 13 100 21 0.129905
6 14 100 21 0.018721
7 14 100 21 0.000196881
8 14 100 21 0.000608408
9 14 100 21 4.00155e-05
10 14 100 21 0.000990844
12 14 100 21 3.66201e-05
13 14 100 21 7.06489e-05
14 14 100 21 0.00808901
19 14 100 21 0.970745
21 14 100 21 0.000502016
2 15 100 21 2.36929e-06
6 15 100 21 0.0702452
7 15 100 21 0.0707303
8 15 100 21 0.0706944
9 15 100 21 2.06469e-05
10 15 100 21 1.52658e-05
11 15 100 21 0.000353243
12 15 100 21 0.0694852
13 15 100 21 0.0735254
14 15 100 21 0.00839338
15 15 100 21 0.0707445
16 15 100 21 0.141545
17 15 100 21 0.0707255
18 15 100 21 0.211905
19 15 100 21 0.141123
20 15 100 21 0.000348381
21 15 100 21 0.000142988
2 16 100 21 0.00130664
3 16 100 21 0.000887498
4 16 100 21 0.0805202
6 16 100 21 0.00035419
8 16 100 21 0.00293555
9 16 100 21 2.04263e-05
11 16 100 21 0.603729
14 16 100 21 0.0339905
15 16 100 21 0.0004001
16 16 100 21 0.000146824
17 16 100 21 0.275692
21 16 100 21 1.70139e-05
1 17 100 21 1.82247e-05
3 17 100 21 0.00106163
5 17 100 21 1.54256e-06
9 17 100 21 0.0987663
10 17 100 21 2.56007e-06
11 17 100 21 0.0578876
12 17 100 21 0.108256
13 17 100 21 0.021097
14 17 100 21 0.0725968
15 17 100 21 0.107469
16 17 100 21 0.107278
17 17 100 21 0.108261
18 17 100 21 0.108261
19 17 100 21 2.93523e-06
20 17 100 21 0.100781
21 17 100 21 0.10826
6 18 100 21 3.70944e-06
8 18 100 21 0.000168182
