0 1 2 100 1.40311e-05
1 1 2 100 0.998894
2 1 2 100 0.00109228
0 2 2 100 0.0679747
1 2 2 100 4.42515e-05
2 2 2 100 0.931981
0 3 2 100 0.869395
2 3 2 100 0.130605
0 4 2 100 0.840886
2 4 2 100 0.159114
0 5 2 100 0.4605
2 5 2 100 0.5395
0 6 2 100 0.594046
2 6 2 100 0.405954
0 7 2 100 0.661115
2 7 2 100 0.338885
0 8 2 100 0.275601
2 8 2 100 0.724399
0 9 2 100 0.256088
2 9 2 100 0.743912
0 10 2 100 0.140492
2 10 2 100 0.859508
0 11 2 100 0.473011
2 11 2 100 0.526989
0 12 2 100 0.33154
2 12 2 100 0.66846
0 13 2 100 0.993885
2 13 2 100 0.00611499
0 1 3 100 0.0107422
1 1 3 100 0.943051
2 1 3 100 0.000791236
3 1 3 100 0.0454151
0 2 3 100 0.180405
1 2 3 100 0.0126625
2 2 3 100 0.598086
3 2 3 100 0.208847
0 3 3 100 0.700355
2 3 3 100 0.0517537
3 3 3 100 0.247891
0 4 3 100 0.746009
1 4 3 100 1.43005e-07
2 4 3 100 0.0892225
3 4 3 100 0.164769
0 5 3 100 0.59729
2 5 3 100 0.175538
3 5 3 100 0.227172
0 6 3 100 0.659305
2 6 3 100 0.126143
3 6 3 100 0.214551
0 7 3 100 0.471303
2 7 3 100 0.248076
3 7 3 100 0.280621
0 8 3 100 0.490928
1 8 3 100 6.80943e-07
2 8 3 100 0.170998
3 8 3 100 0.338073
0 9 3 100 0.109984
1 9 3 100 4.12953e-07
2 9 3 100 0.163604
3 9 3 100 0.726411
0 10 3 100 0.15576
2 10 3 100 0.155343
3 10 3 100 0.688897
0 11 3 100 0.158506
2 11 3 100 0.0568035
3 11 3 100 0.784691
0 12 3 100 0.10918
2 12 3 100 0.0952397
3 12 3 100 0.79558
0 13 3 100 0.202128
2 13 3 100 0.117647
3 13 3 100 0.680225
0 14 3 100 0.215944
3 14 3 100 0.784056
0 15 3 100 0.218967
3 15 3 100 0.781033
3 16 3 100 1
0 17 3 100 0.5
3 17 3 100 0.5
0 18 3 100 0.00252573
3 18 3 100 0.997474
0 19 3 100 0.14215
3 19 3 100 0.85785
3 20 3 100 1
0 1 4 100 1.27111e-06
1 1 4 100 0.991923
2 1 4 100 0.000578087
3 1 4 100 0.00656374
4 1 4 100 0.000934237
0 2 4 100 0.303391
1 2 4 100 8.7155e-05
2 2 4 100 0.623895
3 2 4 100 0.0479693
4 2 4 100 0.0246579
0 3 4 100 0.610337
1 3 4 100 0.00306988
2 3 4 100 0.0313131
3 3 4 100 0.224024
4 3 4 100 0.131256
0 4 4 100 0.761601
1 4 4 100 0.00102873
2 4 4 100 0.0103081
3 4 4 100 0.173052
4 4 4 100 0.0540104
0 5 4 100 0.689579
1 5 4 100 0.00104757
2 5 4 100 0.0475054
3 5 4 100 0.195826
4 5 4 100 0.0660424
0 6 4 100 0.554232
2 6 4 100 0.025223
3 6 4 100 0.34609
4 6 4 100 0.0744546
0 7 4 100 0.378103
2 7 4 100 0.00945751
3 7 4 100 0.52563
4 7 4 100 0.0868088
0 8 4 100 0.316259
2 8 4 100 0.006214
3 8 4 100 0.540237
4 8 4 100 0.13729
0 9 4 100 0.186026
2 9 4 100 0.0033557
3 9 4 100 0.626361
4 9 4 100 0.184257
0 10 4 100 0.304676
2 10 4 100 0.0039963
3 10 4 100 0.471707
4 10 4 100 0.21962
0 11 4 100 0.26923
2 11 4 100 0.0058525
3 11 4 100 0.542451
4 11 4 100 0.182467
0 12 4 100 0.258216
2 12 4 100 0.00785616
3 12 4 100 0.57909
4 12 4 100 0.154838
0 13 4 100 0.210725
1 13 4 100 3.89739e-07
2 13 4 100 0.000379832
3 13 4 100 0.622655
4 13 4 100 0.166239
0 14 4 100 0.283002
2 14 4 100 0.0134891
3 14 4 100 0.567112
4 14 4 100 0.136397
0 15 4 100 0.22666
2 15 4 100 1.51965e-05
3 15 4 100 0.63781
4 15 4 100 0.135515
0 16 4 100 0.342429
2 16 4 100 1.02095e-06
3 16 4 100 0.574241
4 16 4 100 0.0833292
0 17 4 100 0.192041
2 17 4 100 2.34994e-06
3 17 4 100 0.663742
4 17 4 100 0.144214
0 18 4 100 0.00818826
3 18 4 100 0.71688
4 18 4 100 0.274932
0 19 4 100 0.399386
1 19 4 100 2.56599e-06
2 19 4 100 2.49067e-05
3 19 4 100 0.45275
4 19 4 100 0.147836
0 20 4 100 0.283037
2 20 4 100 1.87431e-06
3 20 4 100 0.561876
4 20 4 100 0.155085
0 21 4 100 0.488434
2 21 4 100 9.53667e-06
3 21 4 100 0.130915
4 21 4 100 0.380642
0 22 4 100 0.392584
3 22 4 100 0.400044
4 22 4 100 0.207372
0 23 4 100 0.517662
3 23 4 100 0.354045
4 23 4 100 0.128293
0 24 4 100 0.108285
3 24 4 100 0.0123413
4 24 4 100 0.879374
0 25 4 100 0.0012003
3 25 4 100 0.00741057
4 25 4 100 0.991389
0 26 4 100 0.00180411
3 26 4 100 0.0258459
4 26 4 100 0.97235
0 27 4 100 0.000103407
3 27 4 100 0.0195202
4 27 4 100 0.980376
0 28 4 100 4.41485e-05
3 28 4 100 0.000791453
4 28 4 100 0.999164
0 1 5 100 1.61277e-06
1 1 5 100 0.946146
2 1 5 100 0.000211954
3 1 5 100 0.000408833
4 1 5 100 0.00241914
5 1 5 100 0.0508121
0 2 5 100 0.344253
1 2 5 100 0.00097113
2 2 5 100 0.573005
3 2 5 100 0.0327199
4 2 5 100 0.0188289
5 2 5 100 0.0302218
0 3 5 100 0.599214
1 3 5 100 1.12233e-05
2 3 5 100 0.0374453
3 3 5 100 0.120045
4 3 5 100 0.110189
5 3 5 100 0.133096
0 4 5 100 0.728911
1 4 5 100 5.76244e-07
2 4 5 100 0.0223108
3 4 5 100 0.104141
4 4 5 100 0.055148
5 4 5 100 0.0894888
0 5 5 100 0.634906
2 5 5 100 0.0376789
3 5 5 100 0.150839
4 5 5 100 0.0623785
5 5 5 100 0.114197
0 6 5 100 0.553557
1 6 5 100 6.20333e-07
2 6 5 100 0.0498332
3 6 5 100 0.233896
4 6 5 100 0.0985666
5 6 5 100 0.0641466
0 7 5 100 0.404515
2 7 5 100 0.0238245
3 7 5 100 0.343941
4 7 5 100 0.121316
5 7 5 100 0.106403
0 8 5 100 0.312461
2 8 5 100 0.0147759
3 8 5 100 0.345081
4 8 5 100 0.196456
5 8 5 100 0.131227
0 9 5 100 0.287021
2 9 5 100 0.0100384
3 9 5 100 0.367542
4 9 5 100 0.233589
5 9 5 100 0.101809
0 10 5 100 0.245659
1 10 5 100 0.00418907
2 10 5 100 0.0191427
3 10 5 100 0.352747
4 10 5 100 0.251747
5 10 5 100 0.126515
0 11 5 100 0.311595
2 11 5 100 0.0208101
3 11 5 100 0.330077
4 11 5 100 0.249347
5 11 5 100 0.0881713
0 12 5 100 0.250716
2 12 5 100 0.0204518
3 12 5 100 0.321038
4 12 5 100 0.273328
5 12 5 100 0.134466
0 13 5 100 0.251708
2 13 5 100 0.0111611
3 13 5 100 0.320795
4 13 5 100 0.156731
5 13 5 100 0.259605
0 14 5 100 0.358579
1 14 5 100 3.70699e-07
2 14 5 100 0.0103077
3 14 5 100 0.210457
4 14 5 100 0.0824775
5 14 5 100 0.338178
0 15 5 100 0.27072
1 15 5 100 2.96822e-06
2 15 5 100 0.0217407
3 15 5 100 0.279024
4 15 5 100 0.131011
5 15 5 100 0.297502
0 16 5 100 0.228093
1 16 5 100 8.08032e-07
2 16 5 100 0.00907028
3 16 5 100 0.285107
4 16 5 100 0.0780258
5 16 5 100 0.399703
0 17 5 100 0.223467
1 17 5 100 5.74364e-06
2 17 5 100 0.0947313
3 17 5 100 0.238018
4 17 5 100 0.0476372
5 17 5 100 0.396141
0 18 5 100 0.461348
2 18 5 100 0.0745402
3 18 5 100 0.155472
4 18 5 100 0.230764
5 18 5 100 0.0778761
0 19 5 100 0.19909
2 19 5 100 0.181737
3 19 5 100 0.0909916
4 19 5 100 0.178914
5 19 5 100 0.349268
0 20 5 100 0.431893
2 20 5 100 1.36013e-06
3 20 5 100 0.312527
4 20 5 100 0.225782
5 20 5 100 0.0297963
0 21 5 100 0.220133
4 21 5 100 0.203484
5 21 5 100 0.576383
0 22 5 100 0.200085
3 22 5 100 0.199968
4 22 5 100 0.200004
5 22 5 100 0.399943
0 23 5 100 0.200033
2 23 5 100 1.54421e-05
3 23 5 100 0.199718
4 23 5 100 0.400011
5 23 5 100 0.200222
0 24 5 100 0.33337
1 24 5 100 3.73368e-06
5 24 5 100 0.666626
0 25 5 100 0.635477
2 25 5 100 1.89208e-05
5 25 5 100 0.364504
0 26 5 100 0.406107
1 26 5 100 0.504216
2 26 5 100 0.00165563
4 26 5 100 1.06766e-05
5 26 5 100 0.0880109
0 27 5 100 0.999666
5 27 5 100 0.00033394
1 28 5 100 1
0 1 6 100 0.00279201
1 1 6 100 0.969303
2 1 6 100 0.000763887
3 1 6 100 0.000765569
4 1 6 100 0.00228693
5 1 6 100 0.00656227
6 1 6 100 0.0175261
0 2 6 100 0.28022
1 2 6 100 0.00359128
2 2 6 100 0.579532
3 2 6 100 0.0344179
4 2 6 100 0.0304531
5 2 6 100 0.0298068
6 2 6 100 0.0419793
0 3 6 100 0.517862
1 3 6 100 0.0017928
2 3 6 100 0.025506
3 3 6 100 0.0678308
4 3 6 100 0.195938
5 3 6 100 0.110191
6 3 6 100 0.0808791
0 4 6 100 0.699469
1 4 6 100 0.00354751
2 4 6 100 0.0085822
3 4 6 100 0.086433
4 4 6 100 0.0541284
5 4 6 100 0.109698
6 4 6 100 0.0381417
0 5 6 100 0.658406
1 5 6 100 0.00178572
2 5 6 100 0.0312849
3 5 6 100 0.107917
4 5 6 100 0.0540664
5 5 6 100 0.0995837
6 5 6 100 0.0469558
0 6 6 100 0.516857
1 6 6 100 0.00182091
2 6 6 100 0.02667
3 6 6 100 0.16986
4 6 6 100 0.0947555
5 6 6 100 0.128108
6 6 6 100 0.0619287
0 7 6 100 0.437614
2 7 6 100 0.0100812
3 7 6 100 0.214144
4 7 6 100 0.0886999
5 7 6 100 0.205486
6 7 6 100 0.043975
0 8 6 100 0.368624
1 8 6 100 1.61592e-06
2 8 6 100 0.000993176
3 8 6 100 0.202996
4 8 6 100 0.075301
5 8 6 100 0.264972
6 8 6 100 0.0871126
0 9 6 100 0.28861
1 9 6 100 0.00245697
2 9 6 100 0.00665124
3 9 6 100 0.189239
4 9 6 100 0.0951678
5 9 6 100 0.302019
6 9 6 100 0.115856
0 10 6 100 0.275127
2 10 6 100 0.000384657
3 10 6 100 0.183155
4 10 6 100 0.105264
5 10 6 100 0.284978
6 10 6 100 0.151092
0 11 6 100 0.280742
2 11 6 100 1.50399e-05
3 11 6 100 0.167089
4 11 6 100 0.103097
5 11 6 100 0.303068
6 11 6 100 0.145988
0 12 6 100 0.280458
1 12 6 100 3.07253e-07
2 12 6 100 6.20809e-06
3 12 6 100 0.180371
4 12 6 100 0.0866176
5 12 6 100 0.276846
6 12 6 100 0.1757
0 13 6 100 0.304932
1 13 6 100 4.17026e-07
2 13 6 100 3.35826e-05
3 13 6 100 0.139405
4 13 6 100 0.0859037
5 13 6 100 0.294073
6 13 6 100 0.175653
0 14 6 100 0.216477
1 14 6 100 0.00890526
2 14 6 100 0.00895108
3 14 6 100 0.134046
4 14 6 100 0.0287976
5 14 6 100 0.438125
6 14 6 100 0.164698
0 15 6 100 0.170098
1 15 6 100 5.99723e-06
2 15 6 100 0.0127528
3 15 6 100 0.236658
4 15 6 100 0.0232577
5 15 6 100 0.249354
6 15 6 100 0.307873
0 16 6 100 0.238322
1 16 6 100 0.0161271
2 16 6 100 0.0161314
3 16 6 100 0.16406
4 16 6 100 0.0172088
5 16 6 100 0.258908
6 16 6 100 0.289243
0 17 6 100 0.259931
2 17 6 100 6.22905e-05
3 17 6 100 0.186747
4 17 6 100 0.00209292
5 17 6 100 0.388368
6 17 6 100 0.162799
0 18 6 100 0.221919
1 18 6 100 0.0293205
2 18 6 100 0.000675291
3 18 6 100 0.10264
4 18 6 100 0.0525471
5 18 6 100 0.406816
6 18 6 100 0.186082
0 19 6 100 0.178872
1 19 6 100 0.000382078
2 19 6 100 0.000905433
3 19 6 100 0.32456
4 19 6 100 0.00117568
5 19 6 100 0.168896
6 19 6 100 0.325208
0 20 6 100 0.121154
3 20 6 100 0.111111
4 20 6 100 3.52903e-06
5 20 6 100 0.22225
6 20 6 100 0.545481
0 21 6 100 0.317115
2 21 6 100 4.0986e-06
3 21 6 100 0.166666
5 21 6 100 0.171782
6 21 6 100 0.344432
0 22 6 100 0.00435603
3 22 6 100 0.495643
5 22 6 100 0.500001
0 23 6 100 0.332882
3 23 6 100 0.333334
5 23 6 100 0.333784
3 24 6 100 0.333332
4 24 6 100 0.333334
5 24 6 100 0.333334
0 1 7 100 0.00587596
1 1 7 100 0.867891
2 1 7 100 0.00114146
3 1 7 100 1.99822e-05
4 1 7 100 0.0159672
5 1 7 100 0.0294472
6 1 7 100 0.0307738
7 1 7 100 0.0488836
0 2 7 100 0.285784
1 2 7 100 0.00633459
2 2 7 100 0.501172
3 2 7 100 0.03667
4 2 7 100 0.0501311
5 2 7 100 0.0270345
6 2 7 100 0.0586563
7 2 7 100 0.034217
0 3 7 100 0.519624
1 3 7 100 0.00316442
2 3 7 100 0.0280003
3 3 7 100 0.0731628
4 3 7 100 0.180992
5 3 7 100 0.0478636
6 3 7 100 0.100808
7 3 7 100 0.0463841
0 4 7 100 0.67026
1 4 7 100 0.00316392
2 4 7 100 0.025478
3 4 7 100 0.0636394
4 4 7 100 0.0667541
5 4 7 100 0.0949308
6 4 7 100 0.0555606
7 4 7 100 0.0202136
0 5 7 100 0.658667
1 5 7 100 0.00317431
2 5 7 100 0.0294177
3 5 7 100 0.0921643
4 5 7 100 0.0306546
5 5 7 100 0.0813616
6 5 7 100 0.0584915
7 5 7 100 0.0460688
0 6 7 100 0.560176
2 6 7 100 0.0379468
3 6 7 100 0.124217
4 6 7 100 0.070713
5 6 7 100 0.0691444
6 6 7 100 0.0886204
7 6 7 100 0.0491823
0 7 7 100 0.475064
2 7 7 100 0.0161873
3 7 7 100 0.182124
4 7 7 100 0.0725145
5 7 7 100 0.130175
6 7 7 100 0.0736502
7 7 7 100 0.0502856
0 8 7 100 0.354336
2 8 7 100 0.00107029
3 8 7 100 0.216239
4 8 7 100 0.0924501
5 8 7 100 0.18087
6 8 7 100 0.099448
7 8 7 100 0.0555866
0 9 7 100 0.332068
1 9 7 100 1.00782e-06
2 9 7 100 0.00423912
3 9 7 100 0.186123
4 9 7 100 0.091255
5 9 7 100 0.175459
6 9 7 100 0.122241
7 9 7 100 0.0886136
0 10 7 100 0.291939
1 10 7 100 2.03582e-06
2 10 7 100 0.001604
3 10 7 100 0.149684
4 10 7 100 0.102796
5 10 7 100 0.147863
6 10 7 100 0.172784
7 10 7 100 0.133327
0 11 7 100 0.280714
1 11 7 100 0.00588234
2 11 7 100 4.38955e-05
3 11 7 100 0.166123
4 11 7 100 0.086831
5 11 7 100 0.170649
6 11 7 100 0.141222
7 11 7 100 0.148535
0 12 7 100 0.394868
2 12 7 100 5.45226e-05
3 12 7 100 0.144569
4 12 7 100 0.0807245
5 12 7 100 0.135693
6 12 7 100 0.127518
7 12 7 100 0.116573
0 13 7 100 0.308058
1 13 7 100 2.95522e-07
2 13 7 100 1.55329e-05
3 13 7 100 0.167553
4 13 7 100 0.0770242
5 13 7 100 0.161911
6 13 7 100 0.194948
7 13 7 100 0.0904903
0 14 7 100 0.181975
2 14 7 100 8.13087e-05
3 14 7 100 0.1233
4 14 7 100 0.106803
5 14 7 100 0.165895
6 14 7 100 0.274059
7 14 7 100 0.147887
0 15 7 100 0.259252
1 15 7 100 1.72444e-05
2 15 7 100 2.43441e-06
3 15 7 100 0.141667
4 15 7 100 0.0662153
5 15 7 100 0.257505
6 15 7 100 0.165039
7 15 7 100 0.110302
0 16 7 100 0.116522
2 16 7 100 1.54903e-06
3 16 7 100 0.128952
4 16 7 100 0.0952773
5 16 7 100 0.141058
6 16 7 100 0.342673
7 16 7 100 0.175515
0 17 7 100 0.314829
2 17 7 100 1.47233e-06
3 17 7 100 0.0653617
4 17 7 100 0.194152
5 17 7 100 0.0970562
6 17 7 100 0.259225
7 17 7 100 0.0693754
0 18 7 100 0.241747
3 18 7 100 0.0952396
5 18 7 100 0.283309
6 18 7 100 0.0952401
7 18 7 100 0.284465
0 19 7 100 0.100953
2 19 7 100 5.32167e-05
3 19 7 100 0.157895
4 19 7 100 0.0526221
5 19 7 100 0.105268
6 19 7 100 0.168063
7 19 7 100 0.415146
0 20 7 100 0.273084
3 20 7 100 0.0909552
5 20 7 100 0.0908946
6 20 7 100 0.181884
7 20 7 100 0.363182
0 21 7 100 0.0914903
3 21 7 100 0.180835
5 21 7 100 0.181828
6 21 7 100 0.363604
7 21 7 100 0.182243
0 22 7 100 0.281048
2 22 7 100 3.45709e-06
3 22 7 100 0.000679345
4 22 7 100 2.88619e-05
5 22 7 100 0.142857
6 22 7 100 0.432881
7 22 7 100 0.142502
0 23 7 100 0.00333611
3 23 7 100 0.2
5 23 7 100 0.2
6 23 7 100 0.596523
7 23 7 100 0.000141034
0 24 7 100 0.333334
6 24 7 100 0.666666
5 25 7 100 0.333334
6 25 7 100 0.666666
0 26 7 100 0.217692
6 26 7 100 0.782308
0 27 7 100 0.500002
6 27 7 100 0.499998
0 28 7 100 1
0 29 7 100 0.99976
6 29 7 100 0.000239586
0 30 7 100 0.00121146
6 30 7 100 0.998789
6 31 7 100 0.999988
7 31 7 100 1.17939e-05
0 32 7 100 0.999912
6 32 7 100 7.66062e-05
7 32 7 100 1.1236e-05
0 33 7 100 1.44685e-05
6 33 7 100 4.65821e-05
7 33 7 100 0.999939
4 34 7 100 1
0 35 7 100 0.042382
7 35 7 100 0.957618
0 36 7 100 0.87071
7 36 7 100 0.12929
0 1 8 100 1.21328e-05
1 1 8 100 0.727248
2 1 8 100 0.00107133
3 1 8 100 0.000116549
4 1 8 100 0.0244581
5 1 8 100 0.00845108
6 1 8 100 0.221856
7 1 8 100 4.99101e-05
8 1 8 100 0.0167361
0 2 8 100 0.305562
1 2 8 100 0.00421245
2 2 8 100 0.511706
3 2 8 100 0.0282026
4 2 8 100 0.0374739
5 2 8 100 0.0428174
6 2 8 100 0.0237254
7 2 8 100 0.0250175
8 2 8 100 0.0212826
0 3 8 100 0.561683
1 3 8 100 0.00428302
2 3 8 100 0.047561
3 3 8 100 0.0875827
4 3 8 100 0.10699
5 3 8 100 0.0375975
6 3 8 100 0.0510067
7 3 8 100 0.0582653
8 3 8 100 0.0450306
0 4 8 100 0.695145
1 4 8 100 0.0156028
2 4 8 100 0.010468
3 4 8 100 0.100472
4 4 8 100 0.0353277
5 4 8 100 0.0286404
6 4 8 100 0.0395644
7 4 8 100 0.0370208
8 4 8 100 0.0377586
0 5 8 100 0.684731
1 5 8 100 1.26742e-05
2 5 8 100 0.0355692
3 5 8 100 0.114013
4 5 8 100 0.0292288
5 5 8 100 0.0323738
6 5 8 100 0.045706
7 5 8 100 0.0325557
8 5 8 100 0.02581
0 6 8 100 0.570732
2 6 8 100 0.0270873
3 6 8 100 0.148492
4 6 8 100 0.0693655
5 6 8 100 0.0499349
6 6 8 100 0.0286756
7 6 8 100 0.0671765
8 6 8 100 0.0385361
0 7 8 100 0.419385
1 7 8 100 0.00840335
2 7 8 100 0.00354841
3 7 8 100 0.276668
4 7 8 100 0.0784959
5 7 8 100 0.0834283
6 7 8 100 0.0398604
7 7 8 100 0.055226
8 7 8 100 0.034984
0 8 8 100 0.356699
1 8 8 100 1.28879e-07
2 8 8 100 0.00889929
3 8 8 100 0.18678
4 8 8 100 0.136523
5 8 8 100 0.127355
6 8 8 100 0.0530803
7 8 8 100 0.0699995
8 8 8 100 0.0606629
0 9 8 100 0.239897
1 9 8 100 0.01932
2 9 8 100 0.000778251
3 9 8 100 0.191165
4 9 8 100 0.119652
5 9 8 100 0.152818
6 9 8 100 0.129223
7 9 8 100 0.0833044
8 9 8 100 0.063842
0 10 8 100 0.323079
1 10 8 100 1.52889e-07
2 10 8 100 0.0210162
3 10 8 100 0.204897
4 10 8 100 0.0773448
5 10 8 100 0.136027
6 10 8 100 0.114952
7 10 8 100 0.0616618
8 10 8 100 0.0610215
0 11 8 100 0.351745
1 11 8 100 0.00645114
2 11 8 100 0.00193698
3 11 8 100 0.160653
4 11 8 100 0.0615986
5 11 8 100 0.163871
6 11 8 100 0.112025
7 11 8 100 0.0947205
8 11 8 100 0.0469985
0 12 8 100 0.274207
2 12 8 100 0.00771132
3 12 8 100 0.189032
4 12 8 100 0.081154
5 12 8 100 0.168701
6 12 8 100 0.109234
7 12 8 100 0.0906775
8 12 8 100 0.079283
0 13 8 100 0.298198
1 13 8 100 0.00942364
2 13 8 100 2.69542e-06
3 13 8 100 0.153827
4 13 8 100 0.0736401
5 13 8 100 0.186291
6 13 8 100 0.0875601
7 13 8 100 0.12241
8 13 8 100 0.0686485
0 14 8 100 0.242484
1 14 8 100 0.0118945
2 14 8 100 1.03368e-06
3 14 8 100 0.0952138
4 14 8 100 0.0356737
5 14 8 100 0.144676
6 14 8 100 0.103622
7 14 8 100 0.224883
8 14 8 100 0.141552
0 15 8 100 0.260719
1 15 8 100 1.60421e-07
2 15 8 100 2.26091e-06
3 15 8 100 0.0615978
4 15 8 100 0.0496173
5 15 8 100 0.202426
6 15 8 100 0.0947647
7 15 8 100 0.139188
8 15 8 100 0.191686
0 16 8 100 0.179822
1 16 8 100 5.32807e-06
2 16 8 100 1.84163e-06
3 16 8 100 0.0580462
4 16 8 100 0.0387076
5 16 8 100 0.0900198
6 16 8 100 0.207874
7 16 8 100 0.272312
8 16 8 100 0.153212
0 17 8 100 0.296593
3 17 8 100 0.0252165
4 17 8 100 0.0266589
5 17 8 100 0.103361
6 17 8 100 0.15789
7 17 8 100 0.189847
8 17 8 100 0.200433
0 18 8 100 0.12118
2 18 8 100 3.27867e-06
3 18 8 100 0.0311999
4 18 8 100 0.0625013
5 18 8 100 0.156231
6 18 8 100 0.247646
7 18 8 100 0.134049
8 18 8 100 0.24719
0 19 8 100 0.321706
2 19 8 100 6.24421e-07
3 19 8 100 0.0462319
4 19 8 100 0.000469937
5 19 8 100 0.222231
6 19 8 100 0.0745159
7 19 8 100 0.148349
8 19 8 100 0.186496
0 20 8 100 0.166701
3 20 8 100 0.058871
4 20 8 100 0.0588237
5 20 8 100 0.0588231
6 20 8 100 0.176457
7 20 8 100 0.176738
8 20 8 100 0.303586
0 21 8 100 0.0758421
3 21 8 100 0.166663
4 21 8 100 0.16687
5 21 8 100 0.0832313
6 21 8 100 0.0834463
7 21 8 100 0.00038747
8 21 8 100 0.42356
0 22 8 100 0.227691
3 22 8 100 0.111093
5 22 8 100 0.111109
7 22 8 100 1.16118e-05
8 22 8 100 0.550095
0 23 8 100 0.229149
3 23 8 100 8.6117e-06
4 23 8 100 0.143068
5 23 8 100 0.142857
6 23 8 100 0.142861
7 23 8 100 0.0197989
8 23 8 100 0.322257
0 24 8 100 0.414748
2 24 8 100 6.68074e-06
3 24 8 100 1.24673e-05
5 24 8 100 0.199224
6 24 8 100 2.25574e-06
8 24 8 100 0.386006
0 25 8 100 0.474661
7 25 8 100 0.0253169
8 25 8 100 0.500022
0 26 8 100 0.534588
8 26 8 100 0.465412
8 27 8 100 1
0 1 9 100 0.00298613
1 1 9 100 0.699571
2 1 9 100 0.000191637
3 1 9 100 0.000154394
4 1 9 100 0.000112582
5 1 9 100 3.51218e-06
6 1 9 100 0.261113
7 1 9 100 0.01518
8 1 9 100 0.0146418
9 1 9 100 0.00604586
0 2 9 100 0.204274
1 2 9 100 0.00588881
2 2 9 100 0.472751
3 2 9 100 0.0206155
4 2 9 100 0.0118691
5 2 9 100 0.00524109
6 2 9 100 0.0758811
7 2 9 100 0.164962
8 2 9 100 0.0333968
9 2 9 100 0.00512024
0 3 9 100 0.444277
1 3 9 100 0.0116834
2 3 9 100 0.0142965
3 3 9 100 0.0747468
4 3 9 100 0.107882
5 3 9 100 0.0113281
6 3 9 100 0.221495
7 3 9 100 0.0521684
8 3 9 100 0.0418935
9 3 9 100 0.0202285
0 4 9 100 0.57899
1 4 9 100 1.72867e-05
2 4 9 100 0.0863187
3 4 9 100 0.0614171
4 4 9 100 0.0397996
5 4 9 100 0.0342587
6 4 9 100 0.0577683
7 4 9 100 0.107189
8 4 9 100 0.00947778
9 4 9 100 0.024763
0 5 9 100 0.649448
1 5 9 100 2.27383e-06
2 5 9 100 0.0290086
3 5 9 100 0.0926748
4 5 9 100 0.0956628
5 5 9 100 0.0153932
6 5 9 100 0.0333257
7 5 9 100 0.0519571
8 5 9 100 0.0167892
9 5 9 100 0.0157379
0 6 9 100 0.577226
1 6 9 100 0.0029361
2 6 9 100 0.0650794
3 6 9 100 0.133613
4 6 9 100 0.0737715
5 6 9 100 0.0456389
6 6 9 100 0.0267789
7 6 9 100 0.0401509
8 6 9 100 0.0232877
9 6 9 100 0.0115181
0 7 9 100 0.531079
1 7 9 100 2.69419e-06
2 7 9 100 0.0210525
3 7 9 100 0.129573
4 7 9 100 0.0520348
5 7 9 100 0.0657598
6 7 9 100 0.0875823
7 7 9 100 0.0734752
8 7 9 100 0.0237554
9 7 9 100 0.0156854
0 8 9 100 0.40289
2 8 9 100 0.00681325
3 8 9 100 0.151601
4 8 9 100 0.055221
5 8 9 100 0.108603
6 8 9 100 0.104008
7 8 9 100 0.127577
8 8 9 100 0.0210627
9 8 9 100 0.0222233
0 9 9 100 0.363656
2 9 9 100 0.00438901
3 9 9 100 0.137083
4 9 9 100 0.061158
5 9 9 100 0.0997472
6 9 9 100 0.145733
7 9 9 100 0.118858
8 9 9 100 0.0403493
9 9 9 100 0.0290268
0 10 9 100 0.317668
1 10 9 100 1.19602e-07
2 10 9 100 0.00224082
3 10 9 100 0.14748
4 10 9 100 0.0610995
5 10 9 100 0.0824377
6 10 9 100 0.154714
7 10 9 100 0.171837
8 10 9 100 0.0305667
9 10 9 100 0.0319558
0 11 9 100 0.301707
2 11 9 100 5.33292e-05
3 11 9 100 0.147149
4 11 9 100 0.0461429
5 11 9 100 0.111324
6 11 9 100 0.140986
7 11 9 100 0.169955
8 11 9 100 0.0431403
9 11 9 100 0.0395429
0 12 9 100 0.30115
1 12 9 100 1.1506e-06
2 12 9 100 0.0124199
3 12 9 100 0.135052
4 12 9 100 0.0758241
5 12 9 100 0.0702551
6 12 9 100 0.158336
7 12 9 100 0.143346
8 12 9 100 0.0522895
9 12 9 100 0.0513257
0 13 9 100 0.364618
2 13 9 100 0.0153079
3 13 9 100 0.127424
4 13 9 100 0.0544193
5 13 9 100 0.0641076
6 13 9 100 0.164378
7 13 9 100 0.109234
8 13 9 100 0.0695503
9 13 9 100 0.0309598
0 14 9 100 0.303393
2 14 9 100 0.0209377
3 14 9 100 0.134744
4 14 9 100 0.0619081
5 14 9 100 0.0734241
6 14 9 100 0.179563
7 14 9 100 0.115881
8 14 9 100 0.0683958
9 14 9 100 0.0417532
0 15 9 100 0.340788
2 15 9 100 0.0255394
3 15 9 100 0.122538
4 15 9 100 0.000855277
5 15 9 100 0.0647302
6 15 9 100 0.196676
7 15 9 100 0.112365
8 15 9 100 0.0963605
9 15 9 100 0.0401478
0 16 9 100 0.239643
2 16 9 100 1.51663e-05
3 16 9 100 0.0728639
4 16 9 100 0.035745
5 16 9 100 0.0926087
6 16 9 100 0.205101
7 16 9 100 0.157413
8 16 9 100 0.142749
9 16 9 100 0.0538602
0 17 9 100 0.28767
2 17 9 100 0.00103668
3 17 9 100 0.0847179
4 17 9 100 0.0434002
5 17 9 100 0.0650693
6 17 9 100 0.218404
7 17 9 100 0.19516
8 17 9 100 0.0434678
9 17 9 100 0.0610751
0 18 9 100 0.346873
2 18 9 100 1.19991e-05
3 18 9 100 0.0784006
4 18 9 100 0.0268208
5 18 9 100 0.0730318
6 18 9 100 0.174816
7 18 9 100 0.101779
8 18 9 100 0.0651101
9 18 9 100 0.133156
0 19 9 100 0.480796
3 19 9 100 0.0355474
4 19 9 100 6.23166e-06
5 19 9 100 0.0622148
6 19 9 100 0.0962091
7 19 9 100 0.158809
8 19 9 100 0.0560796
9 19 9 100 0.110338
0 20 9 100 0.298722
2 20 9 100 6.98895e-06
3 20 9 100 0.0867685
4 20 9 100 2.74575e-06
5 20 9 100 0.136781
6 20 9 100 0.130415
7 20 9 100 0.130113
8 20 9 100 0.130191
9 20 9 100 0.0869997
0 21 9 100 0.0640704
3 21 9 100 0.187486
4 21 9 100 0.124817
5 21 9 100 0.125131
6 21 9 100 0.0615092
7 21 9 100 0.249423
8 21 9 100 0.125003
9 21 9 100 0.0625616
0 22 9 100 0.561525
2 22 9 100 7.10891e-05
3 22 9 100 0.0907997
4 22 9 100 0.27268
7 22 9 100 0.0747758
9 22 9 100 0.000147632
0 23 9 100 0.287387
1 23 9 100 0.142806
2 23 9 100 2.3106e-05
3 23 9 100 0.142909
5 23 9 100 0.000677737
6 23 9 100 0.142562
7 23 9 100 6.23964e-06
8 23 9 100 0.142857
9 23 9 100 0.140772
0 24 9 100 0.616127
2 24 9 100 9.20339e-06
3 24 9 100 3.65518e-05
4 24 9 100 0.000144746
5 24 9 100 0.133626
6 24 9 100 0.250001
7 24 9 100 5.13541e-05
8 24 9 100 4.14877e-06
0 25 9 100 0.498899
1 25 9 100 0.500001
5 25 9 100 0.000520603
8 25 9 100 0.000563339
9 25 9 100 1.63869e-05
0 26 9 100 1
1 27 9 100 1
5 28 9 100 1
0 1 10 100 0.000529163
1 1 10 100 0.662669
2 1 10 100 0.000503768
3 1 10 100 0.00411626
4 1 10 100 0.00854341
5 1 10 100 3.81112e-05
6 1 10 100 0.0811232
7 1 10 100 0.0159731
8 1 10 100 0.11483
9 1 10 100 0.103293
10 1 10 100 0.00838065
0 2 10 100 0.215155
1 2 10 100 0.00828393
2 2 10 100 0.499208
3 2 10 100 0.0395979
4 2 10 100 0.0275051
5 2 10 100 0.00422253
6 2 10 100 0.0821929
7 2 10 100 0.0300795
8 2 10 100 0.0426957
9 2 10 100 0.0434853
10 2 10 100 0.00757438
0 3 10 100 0.458753
1 3 10 100 0.00379466
2 3 10 100 0.028477
3 3 10 100 0.0904006
4 3 10 100 0.118266
5 3 10 100 0.0189853
6 3 10 100 0.115516
7 3 10 100 0.0238333
8 3 10 100 0.0686994
9 3 10 100 0.0506424
10 3 10 100 0.0226314
0 4 10 100 0.678247
1 4 10 100 7.04419e-07
2 4 10 100 0.0241692
3 4 10 100 0.0473154
4 4 10 100 0.0771275
5 4 10 100 0.0406639
6 4 10 100 0.0574679
7 4 10 100 0.0203945
8 4 10 100 0.0388746
9 4 10 100 0.011731
10 4 10 100 0.00400793
0 5 10 100 0.648914
2 5 10 100 0.0320647
3 5 10 100 0.0716249
4 5 10 100 0.0458113
5 5 10 100 0.0529826
6 5 10 100 0.0447378
7 5 10 100 0.0379033
8 5 10 100 0.0299694
9 5 10 100 0.013206
10 5 10 100 0.0227853
0 6 10 100 0.519251
2 6 10 100 0.0831051
3 6 10 100 0.1378
4 6 10 100 0.0574675
5 6 10 100 0.0686286
6 6 10 100 0.050581
7 6 10 100 0.0411145
8 6 10 100 0.0168456
9 6 10 100 0.0048757
10 6 10 100 0.0203309
0 7 10 100 0.394005
1 7 10 100 7.35408e-07
2 7 10 100 0.0197899
3 7 10 100 0.202356
4 7 10 100 0.0641175
5 7 10 100 0.144613
6 7 10 100 0.0797914
7 7 10 100 0.0233325
8 7 10 100 0.0453581
9 7 10 100 0.00599587
10 7 10 100 0.0206402
0 8 10 100 0.449238
2 8 10 100 0.00450398
3 8 10 100 0.146499
4 8 10 100 0.0546567
5 8 10 100 0.134978
6 8 10 100 0.108072
7 8 10 100 0.0410838
8 8 10 100 0.0358266
9 8 10 100 0.0144426
10 8 10 100 0.0106999
0 9 10 100 0.352355
1 9 10 100 1.01405e-05
2 9 10 100 0.00474567
3 9 10 100 0.138023
4 9 10 100 0.0427153
5 9 10 100 0.129824
6 9 10 100 0.167195
7 9 10 100 0.0857687
8 9 10 100 0.0527916
9 9 10 100 0.00631067
10 9 10 100 0.0202611
0 10 10 100 0.391233
1 10 10 100 4.61255e-07
2 10 10 100 0.000150384
3 10 10 100 0.123381
4 10 10 100 0.0387519
5 10 10 100 0.0987663
6 10 10 100 0.174071
7 10 10 100 0.102488
8 10 10 100 0.03936
9 10 10 100 0.0157912
10 10 10 100 0.0160066
0 11 10 100 0.322519
2 11 10 100 0.000217613
3 11 10 100 0.127969
4 11 10 100 0.0446503
5 11 10 100 0.136614
6 11 10 100 0.179267
7 11 10 100 0.0825964
8 11 10 100 0.0605786
9 11 10 100 0.02197
10 11 10 100 0.0236183
0 12 10 100 0.290346
1 12 10 100 0.00714297
2 12 10 100 1.60743e-05
3 12 10 100 0.111212
4 12 10 100 0.035971
5 12 10 100 0.111989
6 12 10 100 0.192163
7 12 10 100 0.102137
8 12 10 100 0.0906002
9 12 10 100 0.0141435
10 12 10 100 0.0442801
0 13 10 100 0.271237
1 13 10 100 0.0084746
2 13 10 100 1.41862e-06
3 13 10 100 0.08945
4 13 10 100 0.0734215
5 13 10 100 0.181713
6 13 10 100 0.136175
7 13 10 100 0.121025
8 13 10 100 0.0652967
9 13 10 100 0.0252771
10 13 10 100 0.0279288
0 14 10 100 0.304337
1 14 10 100 0.0116168
2 14 10 100 8.13747e-07
3 14 10 100 0.0797415
4 14 10 100 0.0929443
5 14 10 100 0.133405
6 14 10 100 0.129051
7 14 10 100 0.123869
8 14 10 100 0.0478424
9 14 10 100 0.0580414
10 14 10 100 0.0191513
0 15 10 100 0.228014
1 15 10 100 0.0133128
2 15 10 100 0.00231433
3 15 10 100 0.109328
4 15 10 100 0.103089
5 15 10 100 0.0800161
6 15 10 100 0.136172
7 15 10 100 0.154474
8 15 10 100 0.0821106
9 15 10 100 0.072563
10 15 10 100 0.0186059
0 16 10 100 0.250438
3 16 10 100 0.0997425
4 16 10 100 0.0599862
5 16 10 100 0.18426
6 16 10 100 0.0779345
7 16 10 100 0.120679
8 16 10 100 0.116965
9 16 10 100 0.0259447
10 16 10 100 0.0640502
0 17 10 100 0.296514
2 17 10 100 3.60811e-07
3 17 10 100 0.0545345
4 17 10 100 0.0541732
5 17 10 100 0.109835
6 17 10 100 0.0530173
7 17 10 100 0.256775
8 17 10 100 0.0651831
9 17 10 100 0.0272684
10 17 10 100 0.0826993
0 18 10 100 0.300245
2 18 10 100 7.02319e-07
3 18 10 100 0.0370394
4 18 10 100 0.0370533
5 18 10 100 0.143888
6 18 10 100 0.0366541
7 18 10 100 0.147669
8 18 10 100 0.110946
9 18 10 100 0.0748023
10 18 10 100 0.111702
0 19 10 100 0.162649
4 19 10 100 0.0639484
5 19 10 100 0.0667703
6 19 10 100 7.98225e-07
7 19 10 100 0.230706
8 19 10 100 0.154424
9 19 10 100 0.1579
10 19 10 100 0.163601
0 20 10 100 0.217775
3 20 10 100 4.67882e-06
4 20 10 100 0.188837
5 20 10 100 0.0248193
7 20 10 100 0.2
8 20 10 100 0.161499
9 20 10 100 0.10384
10 20 10 100 0.103226
0 21 10 100 0.567265
3 21 10 100 9.40989e-06
5 21 10 100 0.000158813
6 21 10 100 3.75719e-06
7 21 10 100 0.143371
8 21 10 100 0.180318
9 21 10 100 0.108738
10 21 10 100 0.000136181
0 22 10 100 2.82727e-05
5 22 10 100 0.333191
7 22 10 100 0.333448
10 22 10 100 0.333332
0 23 10 100 0.999722
8 23 10 100 0.000277927
0 24 10 100 0.000945969
7 24 10 100 0.5
10 24 10 100 0.499054
0 25 10 100 0.496895
5 25 10 100 0.000270353
7 25 10 100 0.5
8 25 10 100 0.0027562
9 25 10 100 7.85792e-05
0 26 10 100 0.50001
7 26 10 100 0.49999
0 1 11 100 0.000118068
1 1 11 100 0.747068
2 1 11 100 0.0006844
3 1 11 100 2.46299e-06
4 1 11 100 0.00102144
5 1 11 100 0.0203186
6 1 11 100 0.00852208
7 1 11 100 0.0101903
8 1 11 100 0.129222
9 1 11 100 0.046841
10 1 11 100 0.0326635
11 1 11 100 0.00334762
0 2 11 100 0.275502
1 2 11 100 0.00119762
2 2 11 100 0.418374
3 2 11 100 0.0277773
4 2 11 100 0.0374827
5 2 11 100 0.00189648
6 2 11 100 0.0507816
7 2 11 100 0.00341498
8 2 11 100 0.0675541
9 2 11 100 0.0807274
10 2 11 100 0.0341064
11 2 11 100 0.00118621
0 3 11 100 0.406694
1 3 11 100 6.1071e-07
2 3 11 100 0.0241125
3 3 11 100 0.047534
4 3 11 100 0.0962976
5 3 11 100 0.0471796
6 3 11 100 0.0688507
7 3 11 100 0.0322533
8 3 11 100 0.150546
9 3 11 100 0.0748898
10 3 11 100 0.0383052
11 3 11 100 0.0133368
0 4 11 100 0.572554
1 4 11 100 1.1794e-06
2 4 11 100 0.0333434
3 4 11 100 0.06521
4 4 11 100 0.0402143
5 4 11 100 0.05877
6 4 11 100 0.0389276
7 4 11 100 0.0241087
8 4 11 100 0.0735102
9 4 11 100 0.0651358
10 4 11 100 0.0169594
11 4 11 100 0.0112654
0 5 11 100 0.639604
1 5 11 100 0.00340165
2 5 11 100 0.0334672
3 5 11 100 0.0642209
4 5 11 100 0.056412
5 5 11 100 0.0248123
6 5 11 100 0.0507968
7 5 11 100 0.011689
8 5 11 100 0.0691016
9 5 11 100 0.0274753
10 5 11 100 0.0108508
11 5 11 100 0.0081684
0 6 11 100 0.527573
1 6 11 100 8.26618e-07
2 6 11 100 0.0694135
3 6 11 100 0.0855647
4 6 11 100 0.0549326
5 6 11 100 0.0574496
6 6 11 100 0.0704525
7 6 11 100 0.0239629
8 6 11 100 0.0439318
9 6 11 100 0.0483396
10 6 11 100 0.0150754
11 6 11 100 0.00330353
0 7 11 100 0.452907
2 7 11 100 0.0102252
3 7 11 100 0.149896
4 7 11 100 0.0609398
5 7 11 100 0.0910794
6 7 11 100 0.0943347
7 7 11 100 0.0310778
8 7 11 100 0.0380826
9 7 11 100 0.0442161
10 7 11 100 0.0264655
11 7 11 100 0.000775718
0 8 11 100 0.471275
1 8 11 100 7.55758e-07
2 8 11 100 9.73804e-05
3 8 11 100 0.106446
4 8 11 100 0.0609817
5 8 11 100 0.0709677
6 8 11 100 0.09496
7 8 11 100 0.0539558
8 8 11 100 0.0511131
9 8 11 100 0.0518323
10 8 11 100 0.0336812
11 8 11 100 0.0046891
0 9 11 100 0.38895
1 9 11 100 1.24147e-07
2 9 11 100 0.00113217
3 9 11 100 0.120146
4 9 11 100 0.0356649
5 9 11 100 0.0857771
6 9 11 100 0.088058
7 9 11 100 0.0437155
8 9 11 100 0.094828
9 9 11 100 0.0974943
10 9 11 100 0.044129
11 9 11 100 0.000104517
0 10 11 100 0.354791
1 10 11 100 0.00325009
2 10 11 100 0.00775534
3 10 11 100 0.0953776
4 10 11 100 0.0452411
5 10 11 100 0.0813507
6 10 11 100 0.116507
7 10 11 100 0.0415221
8 10 11 100 0.068776
9 10 11 100 0.130976
10 10 11 100 0.0377655
11 10 11 100 0.016688
0 11 11 100 0.298276
2 11 11 100 0.00521843
3 11 11 100 0.110301
4 11 11 100 0.0358357
5 11 11 100 0.120946
6 11 11 100 0.105608
7 11 11 100 0.0395751
8 11 11 100 0.102872
9 11 11 100 0.088919
10 11 11 100 0.0878061
11 11 11 100 0.00464226
0 12 11 100 0.272891
1 12 11 100 2.08795e-07
2 12 11 100 0.00645005
3 12 11 100 0.0731289
4 12 11 100 0.0806475
5 12 11 100 0.110128
6 12 11 100 0.102308
7 12 11 100 0.0802223
8 12 11 100 0.0667765
9 12 11 100 0.113982
10 12 11 100 0.0749896
11 12 11 100 0.0184752
0 13 11 100 0.33862
2 13 11 100 0.00776868
3 13 11 100 0.0460881
4 13 11 100 0.0465936
5 13 11 100 0.109367
6 13 11 100 0.0916608
7 13 11 100 0.0626088
8 13 11 100 0.122778
9 13 11 100 0.12747
10 13 11 100 0.038957
11 13 11 100 0.00808812
0 14 11 100 0.263905
2 14 11 100 0.00947442
3 14 11 100 0.0568633
4 14 11 100 0.0378004
5 14 11 100 0.0948468
6 14 11 100 0.0656833
7 14 11 100 0.106918
8 14 11 100 0.12792
9 14 11 100 0.192702
10 14 11 100 0.0438524
11 14 11 100 3.46395e-05
0 15 11 100 0.201822
1 15 11 100 0.0117649
2 15 11 100 0.0117405
3 15 11 100 0.106007
4 15 11 100 0.0125878
5 15 11 100 0.0554288
6 15 11 100 0.105908
7 15 11 100 0.0901362
8 15 11 100 0.168668
9 15 11 100 0.152114
10 15 11 100 0.0710049
11 15 11 100 0.0128184
0 16 11 100 0.367205
1 16 11 100 0.0153847
2 16 11 100 1.1653e-05
3 16 11 100 0.0619603
4 16 11 100 0.015458
5 16 11 100 0.0467682
6 16 11 100 0.087185
7 16 11 100 0.0677686
8 16 11 100 0.168423
9 16 11 100 0.107866
10 16 11 100 0.0465783
11 16 11 100 0.0153911
0 17 11 100 0.363484
1 17 11 100 0.0208334
3 17 11 100 0.0626556
4 17 11 100 7.57708e-07
5 17 11 100 0.104172
6 17 11 100 0.0629305
7 17 11 100 0.0450243
8 17 11 100 0.067056
9 17 11 100 0.167439
10 17 11 100 0.0834649
11 17 11 100 0.0229404
0 18 11 100 0.26358
2 18 11 100 0.0263016
3 18 11 100 0.0273274
4 18 11 100 0.0981219
5 18 11 100 0.105258
6 18 11 100 0.0789369
7 18 11 100 0.0542976
8 18 11 100 0.101044
9 18 11 100 0.125777
10 18 11 100 0.0830989
11 18 11 100 0.0362558
0 19 11 100 0.313144
2 19 11 100 8.24026e-07
3 19 11 100 0.0346518
4 19 11 100 0.0344828
5 19 11 100 0.00128503
6 19 11 100 0.137933
7 19 11 100 0.0692747
8 19 11 100 0.164907
9 19 11 100 0.0904385
10 19 11 100 0.110923
11 19 11 100 0.0429598
0 20 11 100 0.386019
2 20 11 100 1.32999e-06
3 20 11 100 0.095257
4 20 11 100 1.62959e-06
5 20 11 100 0.0949136
6 20 11 100 0.0476242
7 20 11 100 0.0952737
8 20 11 100 0.189272
9 20 11 100 0.000490169
10 20 11 100 0.0834906
11 20 11 100 0.00765774
0 21 11 100 0.529092
2 21 11 100 0.0587875
3 21 11 100 0.058891
4 21 11 100 0.000262489
6 21 11 100 2.58896e-05
7 21 11 100 0.0588238
8 21 11 100 0.117244
9 21 11 100 0.117809
10 21 11 100 0.0588243
11 21 11 100 0.000240702
0 22 11 100 0.307998
3 22 11 100 0.0833712
4 22 11 100 0.0833019
5 22 11 100 0.0833555
7 22 11 100 0.250019
8 22 11 100 5.74067e-05
9 22 11 100 0.10866
10 22 11 100 0.0800602
11 22 11 100 0.003177
0 23 11 100 0.125002
4 23 11 100 0.125
6 23 11 100 0.124981
7 23 11 100 0.375
9 23 11 100 0.125
10 23 11 100 0.125017
0 24 11 100 0.503255
3 24 11 100 1.03413e-05
4 24 11 100 1.70708e-05
5 24 11 100 9.58604e-05
7 24 11 100 0.333334
8 24 11 100 0.163281
10 24 11 100 6.48359e-06
0 25 11 100 0.00948648
7 25 11 100 0.990514
0 26 11 100 0.000128121
5 26 11 100 1.95266e-05
7 26 11 100 0.9998
8 26 11 100 4.1655e-06
10 26 11 100 8.00111e-06
11 26 11 100 4.03469e-05
7 27 11 100 1
0 1 12 100 9.9897e-06
1 1 12 100 0.658984
2 1 12 100 0.00368592
3 1 12 100 9.92456e-07
4 1 12 100 0.00453986
5 1 12 100 0.041667
6 1 12 100 0.00510811
7 1 12 100 0.0135952
8 1 12 100 0.0227406
9 1 12 100 0.10693
10 1 12 100 0.032947
11 1 12 100 0.100419
12 1 12 100 0.00937268
0 2 12 100 0.204907
1 2 12 100 1.91144e-07
2 2 12 100 0.469106
3 2 12 100 0.00497813
4 2 12 100 0.0301349
5 2 12 100 0.0436724
6 2 12 100 0.0234534
7 2 12 100 0.00943203
8 2 12 100 0.0346274
9 2 12 100 0.0566748
10 2 12 100 0.0603686
11 2 12 100 0.0603781
12 2 12 100 0.00226685
0 3 12 100 0.39448
1 3 12 100 2.29084e-06
2 3 12 100 0.00971487
3 3 12 100 0.0588058
4 3 12 100 0.117923
5 3 12 100 0.0623805
6 3 12 100 0.0279856
7 3 12 100 0.0352789
8 3 12 100 0.025047
9 3 12 100 0.142397
10 3 12 100 0.0695086
11 3 12 100 0.0440484
12 3 12 100 0.0124285
0 4 12 100 0.564489
2 4 12 100 0.0334038
3 4 12 100 0.0721374
4 4 12 100 0.019218
5 4 12 100 0.0532409
6 4 12 100 0.0241929
7 4 12 100 0.0128313
8 4 12 100 0.03671
9 4 12 100 0.0659696
10 4 12 100 0.0588918
11 4 12 100 0.0503707
12 4 12 100 0.00854476
0 5 12 100 0.607973
1 5 12 100 1.87644e-06
2 5 12 100 0.0279522
3 5 12 100 0.0639895
4 5 12 100 0.0387149
5 5 12 100 0.0286648
6 5 12 100 0.0519697
7 5 12 100 0.0341063
8 5 12 100 0.018568
9 5 12 100 0.0433929
10 5 12 100 0.0607722
11 5 12 100 0.0170015
12 5 12 100 0.00689283
0 6 12 100 0.497252
2 6 12 100 0.0947068
3 6 12 100 0.0995339
4 6 12 100 0.0370477
5 6 12 100 0.0620783
6 6 12 100 0.0418931
7 6 12 100 0.044019
8 6 12 100 0.0524988
9 6 12 100 0.0202991
10 6 12 100 0.0186488
11 6 12 100 0.0228556
12 6 12 100 0.00916637
0 7 12 100 0.473804
1 7 12 100 0.000161156
2 7 12 100 0.0214345
3 7 12 100 0.119513
4 7 12 100 0.0484079
5 7 12 100 0.0981768
6 7 12 100 0.0304375
7 7 12 100 0.0657693
8 7 12 100 0.0291291
9 7 12 100 0.0477355
10 7 12 100 0.0307407
11 7 12 100 0.0224382
12 7 12 100 0.0122521
0 8 12 100 0.438676
2 8 12 100 0.000802724
3 8 12 100 0.0782313
4 8 12 100 0.0433368
5 8 12 100 0.108343
6 8 12 100 0.0601014
7 8 12 100 0.0888442
8 8 12 100 0.0562973
9 8 12 100 0.0422993
10 8 12 100 0.0650755
11 8 12 100 0.00545034
12 8 12 100 0.0125418
0 9 12 100 0.473689
2 9 12 100 3.90855e-05
3 9 12 100 0.0880795
4 9 12 100 0.0276766
5 9 12 100 0.0627863
6 9 12 100 0.100299
7 9 12 100 0.0412099
8 9 12 100 0.0494168
9 9 12 100 0.0508752
10 9 12 100 0.0518078
11 9 12 100 0.0226049
12 9 12 100 0.0315167
0 10 12 100 0.327636
1 10 12 100 0.00562548
2 10 12 100 0.0114942
3 10 12 100 0.0997796
4 10 12 100 0.0629859
5 10 12 100 0.070136
6 10 12 100 0.087621
7 10 12 100 0.051808
8 10 12 100 0.0659927
9 10 12 100 0.0804428
10 10 12 100 0.105504
11 10 12 100 0.0177259
12 10 12 100 0.0132484
0 11 12 100 0.354692
2 11 12 100 0.00674005
3 11 12 100 0.0906092
4 11 12 100 0.0537729
5 11 12 100 0.0812432
6 11 12 100 0.0620782
7 11 12 100 0.0448466
8 11 12 100 0.060709
9 11 12 100 0.126522
10 11 12 100 0.0847598
11 11 12 100 0.0328187
12 11 12 100 0.00120778
0 12 12 100 0.274538
2 12 12 100 3.38761e-05
3 12 12 100 0.112042
4 12 12 100 0.0671997
5 12 12 100 0.0633067
6 12 12 100 0.0549712
7 12 12 100 0.0577136
8 12 12 100 0.078317
9 12 12 100 0.0927241
10 12 12 100 0.157347
11 12 12 100 0.0414838
12 12 12 100 0.000323668
0 13 12 100 0.335075
2 13 12 100 5.22824e-05
3 13 12 100 0.080084
4 13 12 100 0.0517771
5 13 12 100 0.0390667
6 13 12 100 0.0191167
7 13 12 100 0.0395898
8 13 12 100 0.104876
9 13 12 100 0.134701
10 13 12 100 0.116484
11 13 12 100 0.068008
12 13 12 100 0.011169
0 14 12 100 0.274182
2 14 12 100 3.62165e-07
3 14 12 100 0.0676152
4 14 12 100 0.0234836
5 14 12 100 0.0478425
6 14 12 100 0.0218929
7 14 12 100 0.0562742
8 14 12 100 0.0895206
9 14 12 100 0.20673
10 14 12 100 0.130907
11 14 12 100 0.0690717
12 14 12 100 0.0124804
0 15 12 100 0.358993
2 15 12 100 2.34286e-06
3 15 12 100 0.131988
4 15 12 100 0.0460904
5 15 12 100 3.9841e-05
6 15 12 100 0.0615358
7 15 12 100 0.0134204
8 15 12 100 0.092664
9 15 12 100 0.0634479
10 15 12 100 0.178826
11 15 12 100 0.0213204
12 15 12 100 0.0316718
0 16 12 100 0.321581
1 16 12 100 2.98715e-07
2 16 12 100 3.9779e-06
3 16 12 100 0.0407762
4 16 12 100 0.0403528
5 16 12 100 0.039876
6 16 12 100 0.100008
7 16 12 100 0.0599199
8 16 12 100 0.0967915
9 16 12 100 0.0207202
10 16 12 100 0.161696
11 16 12 100 0.118209
12 16 12 100 6.37019e-05
0 17 12 100 0.340816
2 17 12 100 3.73236e-07
3 17 12 100 0.0279057
4 17 12 100 0.0555604
5 17 12 100 0.000885387
6 17 12 100 0.0847323
7 17 12 100 0.0260786
8 17 12 100 0.0821356
9 17 12 100 0.0574731
10 17 12 100 0.0474632
11 17 12 100 0.193432
12 17 12 100 0.083518
0 18 12 100 0.175498
2 18 12 100 5.69742e-07
3 18 12 100 0.0370376
4 18 12 100 0.0740742
5 18 12 100 2.66682e-05
6 18 12 100 5.87112e-05
7 18 12 100 0.148011
8 18 12 100 0.15451
9 18 12 100 0.0372329
10 18 12 100 0.0757692
11 18 12 100 0.186106
12 18 12 100 0.111677
0 19 12 100 0.222897
2 19 12 100 8.54101e-06
3 19 12 100 0.00023497
4 19 12 100 0.000152557
5 19 12 100 1.99913e-05
6 19 12 100 4.82604e-05
7 19 12 100 0.12788
8 19 12 100 0.13059
9 19 12 100 0.130296
10 19 12 100 0.127179
11 19 12 100 0.259982
12 19 12 100 0.000710876
0 20 12 100 0.432192
3 20 12 100 3.56047e-05
4 20 12 100 2.59074e-06
5 20 12 100 5.36176e-05
7 20 12 100 0.15784
8 20 12 100 0.0526316
10 20 12 100 0.0527449
11 20 12 100 0.291106
12 20 12 100 0.0133938
0 21 12 100 0.53469
5 21 12 100 0.076927
6 21 12 100 0.000408864
7 21 12 100 0.153803
8 21 12 100 0.000305576
9 21 12 100 0.0770417
10 21 12 100 0.000166915
11 21 12 100 0.00630466
12 21 12 100 0.150352
0 22 12 100 0.143741
4 22 12 100 0.00536963
5 22 12 100 2.31152e-06
6 22 12 100 0.142856
8 22 12 100 0.142859
9 22 12 100 0.142798
10 22 12 100 0.285719
11 22 12 100 0.000360654
12 22 12 100 0.136294
0 23 12 100 0.436183
3 23 12 100 3.71023e-05
9 23 12 100 0.142852
10 23 12 100 0.285719
11 23 12 100 0.135198
12 23 12 100 9.57448e-06
0 24 12 100 0.0434279
3 24 12 100 2.04289e-06
5 24 12 100 1.70826e-06
6 24 12 100 0.148928
7 24 12 100 0.166687
8 24 12 100 0.166661
10 24 12 100 0.307629
11 24 12 100 0.166663
0 25 12 100 0.167735
5 25 12 100 1.87925e-05
6 25 12 100 0.250183
7 25 12 100 0.331628
9 25 12 100 0.250194
11 25 12 100 2.73088e-05
12 25 12 100 0.00021381
0 26 12 100 1.53062e-05
6 26 12 100 0.5
10 26 12 100 0.499984
9 27 12 100 1
0 1 13 100 6.4072e-05
1 1 13 100 0.695061
2 1 13 100 0.000307323
3 1 13 100 3.57186e-06
4 1 13 100 9.11802e-07
5 1 13 100 0.00558853
6 1 13 100 0.00329212
7 1 13 100 0.000132249
8 1 13 100 1.01752e-05
9 1 13 100 0.011786
10 1 13 100 0.0287998
11 1 13 100 0.167166
12 1 13 100 0.0820024
13 1 13 100 0.00578651
0 2 13 100 0.221329
1 2 13 100 1.1742e-07
2 2 13 100 0.456514
3 2 13 100 0.00533665
4 2 13 100 0.0117531
5 2 13 100 0.0213701
6 2 13 100 0.00983027
7 2 13 100 0.00594511
8 2 13 100 0.017501
9 2 13 100 0.0579305
10 2 13 100 0.00580365
11 2 13 100 0.0492992
12 2 13 100 0.124417
13 2 13 100 0.0129697
0 3 13 100 0.40782
1 3 13 100 9.80483e-07
2 3 13 100 0.0167874
3 3 13 100 0.0230942
4 3 13 100 0.119599
5 3 13 100 0.049745
6 3 13 100 0.0512012
7 3 13 100 0.0272813
8 3 13 100 0.0249144
9 3 13 100 0.0236153
10 3 13 100 0.0117601
11 3 13 100 0.146745
12 3 13 100 0.0577618
13 3 13 100 0.0396739
0 4 13 100 0.589758
2 4 13 100 0.0639677
3 4 13 100 0.0185744
4 4 13 100 0.0291406
5 4 13 100 0.0349959
6 4 13 100 0.0329795
7 4 13 100 0.0172369
8 4 13 100 0.0509302
9 4 13 100 0.02806
10 4 13 100 0.0169056
11 4 13 100 0.0749031
12 4 13 100 0.0370346
13 4 13 100 0.00551419
0 5 13 100 0.66653
1 5 13 100 8.48132e-07
2 5 13 100 0.0231497
3 5 13 100 0.0719537
4 5 13 100 0.0850739
5 5 13 100 0.0297607
6 5 13 100 0.0129912
7 5 13 100 0.0181679
8 5 13 100 0.00708979
9 5 13 100 0.0173919
10 5 13 100 0.0126062
11 5 13 100 0.0485632
12 5 13 100 0.00607707
13 5 13 100 0.00064422
0 6 13 100 0.593743
2 6 13 100 0.0814757
3 6 13 100 0.0622601
4 6 13 100 0.0534621
5 6 13 100 0.0265421
6 6 13 100 0.027979
7 6 13 100 0.0550462
8 6 13 100 0.0357637
9 6 13 100 0.0223958
10 6 13 100 0.000794483
11 6 13 100 0.0203034
12 6 13 100 0.0179377
13 6 13 100 0.00229678
0 7 13 100 0.44945
1 7 13 100 2.02751e-07
2 7 13 100 0.00152004
3 7 13 100 0.123352
4 7 13 100 0.0597501
5 7 13 100 0.0977904
6 7 13 100 0.0432428
7 7 13 100 0.066478
8 7 13 100 0.0536952
9 7 13 100 0.0250387
10 7 13 100 0.013152
11 7 13 100 0.0419689
12 7 13 100 0.0225797
13 7 13 100 0.00198213
0 8 13 100 0.417148
1 8 13 100 2.27363e-06
2 8 13 100 5.98412e-05
3 8 13 100 0.103036
4 8 13 100 0.0385099
5 8 13 100 0.0839092
6 8 13 100 0.021148
7 8 13 100 0.0673182
8 8 13 100 0.0876311
9 8 13 100 0.0441063
10 8 13 100 0.0161997
11 8 13 100 0.0657677
12 8 13 100 0.0501222
13 8 13 100 0.00504184
0 9 13 100 0.401642
1 9 13 100 2.53246e-07
2 9 13 100 0.0015261
3 9 13 100 0.0837367
4 9 13 100 0.0220979
5 9 13 100 0.0676779
6 9 13 100 0.0495782
7 9 13 100 0.0760506
8 9 13 100 0.0659404
9 9 13 100 0.0329108
10 9 13 100 0.0217493
11 9 13 100 0.121903
12 9 13 100 0.0498435
13 9 13 100 0.00534329
0 10 13 100 0.356895
2 10 13 100 2.03204e-05
3 10 13 100 0.0933796
4 10 13 100 0.0311043
5 10 13 100 0.067877
6 10 13 100 0.0492452
7 10 13 100 0.0413311
8 10 13 100 0.0731926
9 10 13 100 0.0715205
10 10 13 100 0.00266275
11 10 13 100 0.126405
12 10 13 100 0.0845749
13 10 13 100 0.00179187
0 11 13 100 0.289691
2 11 13 100 8.71343e-06
3 11 13 100 0.12841
4 11 13 100 0.0262885
5 11 13 100 0.0854949
6 11 13 100 0.0686221
7 11 13 100 0.0600365
8 11 13 100 0.0860602
9 11 13 100 0.054047
10 11 13 100 0.0356696
11 11 13 100 0.112386
12 11 13 100 0.0444269
13 11 13 100 0.0088582
0 12 13 100 0.320821
2 12 13 100 5.09415e-06
3 12 13 100 0.0518876
4 12 13 100 0.0417871
5 12 13 100 0.0901635
6 12 13 100 0.0600221
7 12 13 100 0.00125284
8 12 13 100 0.0688279
9 12 13 100 0.092203
10 12 13 100 0.0743697
11 12 13 100 0.125161
12 12 13 100 0.0631237
13 12 13 100 0.0103753
0 13 13 100 0.322783
1 13 13 100 1.88174e-07
2 13 13 100 0.0111741
3 13 13 100 0.0976733
4 13 13 100 0.0121996
5 13 13 100 0.0687841
6 13 13 100 0.0464184
7 13 13 100 0.0168722
8 13 13 100 0.0472367
9 13 13 100 0.10256
10 13 13 100 0.0423829
11 13 13 100 0.165324
12 13 13 100 0.0511517
13 13 13 100 0.0154403
0 14 13 100 0.242587
1 14 13 100 5.51803e-07
2 14 13 100 0.000109664
3 14 13 100 0.0787534
4 14 13 100 0.0100623
5 14 13 100 0.0640506
6 14 13 100 0.0517431
7 14 13 100 0.0518289
8 14 13 100 0.0257779
9 14 13 100 0.1536
10 14 13 100 0.0526035
11 14 13 100 0.175023
12 14 13 100 0.0936098
13 14 13 100 0.000249988
0 15 13 100 0.375721
2 15 13 100 0.0155688
3 15 13 100 0.124487
4 15 13 100 0.0011663
5 15 13 100 0.0798812
6 15 13 100 0.0142149
7 15 13 100 0.0157555
8 15 13 100 0.0470484
9 15 13 100 0.119123
10 15 13 100 0.0163816
11 15 13 100 0.0954884
12 15 13 100 0.0795844
13 15 13 100 0.0155795
0 16 13 100 0.301778
2 16 13 100 0.0215641
3 16 13 100 0.108202
4 16 13 100 0.0155809
5 16 13 100 0.107232
6 16 13 100 0.0212683
7 16 13 100 0.000398769
8 16 13 100 0.0425593
9 16 13 100 0.0608126
10 16 13 100 0.106435
11 16 13 100 0.0850313
12 16 13 100 0.0860802
13 16 13 100 0.0430583
0 17 13 100 0.222342
2 17 13 100 0.0277818
3 17 13 100 0.00745847
4 17 13 100 5.48945e-05
5 17 13 100 0.160935
6 17 13 100 3.61595e-07
7 17 13 100 0.0277073
8 17 13 100 0.0248111
9 17 13 100 0.0779981
10 17 13 100 0.111109
11 17 13 100 0.11369
12 17 13 100 0.199052
13 17 13 100 0.0270616
0 18 13 100 0.247952
3 18 13 100 7.25991e-06
4 18 13 100 4.42297e-07
5 18 13 100 0.07966
6 18 13 100 0.0800822
7 18 13 100 4.71083e-05
8 18 13 100 6.29783e-05
9 18 13 100 0.0801069
10 18 13 100 0.0771903
11 18 13 100 0.0893516
12 18 13 100 0.225229
13 18 13 100 0.12031
0 19 13 100 0.329476
2 19 13 100 1.22276e-05
3 19 13 100 0.0463233
4 19 13 100 4.32078e-05
5 19 13 100 0.0350281
6 19 13 100 0.0940846
7 19 13 100 8.144e-06
8 19 13 100 0.061032
9 19 13 100 0.0483941
10 19 13 100 0.046201
11 19 13 100 0.000958219
12 19 13 100 0.242396
13 19 13 100 0.0960433
0 20 13 100 0.614515
2 20 13 100 8.80454e-05
5 20 13 100 0.0617525
7 20 13 100 1.43569e-05
8 20 13 100 0.0916814
10 20 13 100 0.000881076
12 20 13 100 0.153845
13 20 13 100 0.0772228
0 21 13 100 0.250103
3 21 13 100 9.45381e-07
5 21 13 100 0.0833335
8 21 13 100 0.0833335
10 21 13 100 0.0832285
12 21 13 100 0.416667
13 21 13 100 0.0833334
0 22 13 100 0.16667
4 22 13 100 3.64478e-06
5 22 13 100 0.166958
9 22 13 100 0.332213
12 22 13 100 0.331468
13 22 13 100 0.00268789
0 23 13 100 0.179549
3 23 13 100 0.166665
5 23 13 100 4.51421e-05
7 23 13 100 0.166666
8 23 13 100 6.25315e-06
9 23 13 100 0.166656
10 23 13 100 0.153734
12 23 13 100 0.166667
13 23 13 100 1.10853e-05
0 24 13 100 0.593694
3 24 13 100 9.17557e-06
9 24 13 100 0.2
10 24 13 100 0.00502904
11 24 13 100 0.00126781
12 24 13 100 0.2
0 25 13 100 0.215167
3 25 13 100 0.183621
8 25 13 100 0.199273
9 25 13 100 0.199982
10 25 13 100 0.00054815
11 25 13 100 0.00140806
12 25 13 100 0.2
0 26 13 100 1.49004e-05
8 26 13 100 0.499968
9 26 13 100 0.499706
12 26 13 100 9.08626e-05
13 26 13 100 0.000220484
0 1 14 100 1.44709e-05
1 1 14 100 0.751633
2 1 14 100 0.00119259
3 1 14 100 0.00741173
4 1 14 100 1.32051e-07
5 1 14 100 1.41834e-05
6 1 14 100 0.00802725
7 1 14 100 0.0139056
8 1 14 100 0.022979
9 1 14 100 0.0289259
10 1 14 100 0.0294669
11 1 14 100 0.0576232
12 1 14 100 0.0225281
13 1 14 100 0.040795
14 1 14 100 0.0154828
0 2 14 100 0.277236
1 2 14 100 3.62613e-05
2 2 14 100 0.480415
3 2 14 100 0.022106
4 2 14 100 0.0226396
5 2 14 100 0.00784317
6 2 14 100 0.00981197
7 2 14 100 0.00742082
8 2 14 100 1.0708e-07
9 2 14 100 0.00752095
10 2 14 100 0.0312185
11 2 14 100 0.0662382
12 2 14 100 0.0486082
13 2 14 100 0.0172982
14 2 14 100 0.00160743
0 3 14 100 0.444899
1 3 14 100 1.61058e-06
2 3 14 100 0.0359576
3 3 14 100 0.040458
4 3 14 100 0.0877284
5 3 14 100 0.0235036
6 3 14 100 0.0754611
7 3 14 100 0.00896684
8 3 14 100 0.00744819
9 3 14 100 0.0153794
10 3 14 100 0.0378792
11 3 14 100 0.097581
12 3 14 100 0.0455018
13 3 14 100 0.0490335
14 3 14 100 0.0302003
0 4 14 100 0.66998
2 4 14 100 0.0175883
3 4 14 100 0.0292889
4 4 14 100 0.0334384
5 4 14 100 0.046729
6 4 14 100 0.0396695
7 4 14 100 0.00744217
8 4 14 100 0.00773698
9 4 14 100 0.00147302
10 4 14 100 0.0298278
11 4 14 100 0.0512257
12 4 14 100 0.0357997
13 4 14 100 0.0245772
14 4 14 100 0.00522393
0 5 14 100 0.618975
2 5 14 100 0.0293332
3 5 14 100 0.0654089
4 5 14 100 0.0167069
5 5 14 100 0.0086235
6 5 14 100 0.0181883
7 5 14 100 0.0761757
8 5 14 100 0.0165049
9 5 14 100 0.0163348
10 5 14 100 0.0202109
11 5 14 100 0.0469844
12 5 14 100 0.0305004
13 5 14 100 0.0358267
14 5 14 100 0.000227073
0 6 14 100 0.541939
1 6 14 100 5.25758e-07
2 6 14 100 0.0451523
3 6 14 100 0.0821219
4 6 14 100 0.0398707
5 6 14 100 0.00964406
6 6 14 100 0.0234776
7 6 14 100 0.0907356
8 6 14 100 0.0304862
9 6 14 100 0.00776088
10 6 14 100 0.00161967
11 6 14 100 0.0281271
12 6 14 100 0.0328575
13 6 14 100 0.051079
14 6 14 100 0.015128
0 7 14 100 0.456723
2 7 14 100 0.00688436
3 7 14 100 0.114019
4 7 14 100 0.0430123
5 7 14 100 0.0450786
6 7 14 100 0.0173361
7 7 14 100 0.101061
8 7 14 100 0.040177
9 7 14 100 0.0293461
10 7 14 100 0.0314291
11 7 14 100 0.01007
12 7 14 100 0.0391972
13 7 14 100 0.0482139
14 7 14 100 0.0174521
0 8 14 100 0.33074
2 8 14 100 7.8149e-05
3 8 14 100 0.107777
4 8 14 100 0.0177354
5 8 14 100 0.0488356
6 8 14 100 0.0594873
7 8 14 100 0.0971744
8 8 14 100 0.0291608
9 8 14 100 0.068682
10 8 14 100 0.0417665
11 8 14 100 0.0864981
12 8 14 100 0.029703
13 8 14 100 0.0678689
14 8 14 100 0.0144923
0 9 14 100 0.385735
2 9 14 100 0.00163966
3 9 14 100 0.131284
4 9 14 100 0.0155738
5 9 14 100 0.0498356
6 9 14 100 0.0254005
7 9 14 100 0.104802
8 9 14 100 0.0301061
9 9 14 100 0.0482059
10 9 14 100 0.0012618
11 9 14 100 0.0999629
12 9 14 100 0.0495714
13 9 14 100 0.0544418
14 9 14 100 0.00217989
0 10 14 100 0.363491
2 10 14 100 0.00301214
3 10 14 100 0.0993754
4 10 14 100 0.0420582
5 10 14 100 0.0694001
6 10 14 100 0.0558644
7 10 14 100 0.0676375
8 10 14 100 0.0607339
9 10 14 100 0.0092255
10 10 14 100 0.0106446
11 10 14 100 0.111566
12 10 14 100 0.0634678
13 10 14 100 0.0341567
14 10 14 100 0.00936688
0 11 14 100 0.251723
2 11 14 100 3.12677e-05
3 11 14 100 0.11626
4 11 14 100 0.0569997
5 11 14 100 0.0226801
6 11 14 100 0.0925553
7 11 14 100 0.0776941
8 11 14 100 0.06188
9 11 14 100 0.0310492
10 11 14 100 0.0213258
11 11 14 100 0.132476
12 11 14 100 0.101522
13 11 14 100 0.0328267
14 11 14 100 0.000977139
0 12 14 100 0.264129
2 12 14 100 0.0129618
3 12 14 100 0.131496
4 12 14 100 0.0276776
5 12 14 100 0.0642705
6 12 14 100 0.0750717
7 12 14 100 0.0544835
8 12 14 100 0.0401474
9 12 14 100 0.0383453
10 12 14 100 0.0408561
11 12 14 100 0.114766
12 12 14 100 0.0621466
13 12 14 100 0.0680555
14 12 14 100 0.00559256
0 13 14 100 0.35632
2 13 14 100 0.015394
3 13 14 100 0.0626275
4 13 14 100 0.0154776
5 13 14 100 0.109265
6 13 14 100 0.0570125
7 13 14 100 0.0460074
8 13 14 100 0.0645219
9 13 14 100 0.0621762
10 13 14 100 0.0304009
11 13 14 100 0.0629515
12 13 14 100 0.0422957
13 13 14 100 0.0600368
14 13 14 100 0.0155128
0 14 14 100 0.339785
1 14 14 100 3.03334e-05
2 14 14 100 0.0356428
3 14 14 100 0.0527324
4 14 14 100 0.0975281
5 14 14 100 0.102123
6 14 14 100 0.0501607
7 14 14 100 0.0334092
8 14 14 100 0.0679523
9 14 14 100 0.0169725
10 14 14 100 0.0486014
11 14 14 100 0.0499773
12 14 14 100 0.0198074
13 14 14 100 0.0851065
14 14 14 100 0.000170457
0 15 14 100 0.306962
2 15 14 100 0.0195567
3 15 14 100 0.0980397
4 15 14 100 0.0407504
5 15 14 100 0.0809532
6 15 14 100 0.0593019
7 15 14 100 0.0160836
8 15 14 100 0.0396741
9 15 14 100 0.0648776
10 15 14 100 0.0566995
11 15 14 100 0.0391845
12 15 14 100 0.030177
13 15 14 100 0.147028
14 15 14 100 0.000711564
0 16 14 100 0.202785
2 16 14 100 3.19444e-06
3 16 14 100 0.0677081
4 16 14 100 0.0749999
5 16 14 100 0.100394
6 16 14 100 0.0750705
7 16 14 100 0.0749253
8 16 14 100 0.0319335
9 16 14 100 0.0248919
10 16 14 100 0.025024
11 16 14 100 0.077333
12 16 14 100 0.046594
13 16 14 100 0.148466
14 16 14 100 0.0498721
0 17 14 100 0.327987
2 17 14 100 0.0277771
3 17 14 100 0.0654758
4 17 14 100 2.84573e-05
5 17 14 100 0.055748
6 17 14 100 0.0245684
7 17 14 100 0.142391
8 17 14 100 5.56515e-05
9 17 14 100 0.0172406
10 17 14 100 0.0805895
11 17 14 100 0.0555727
12 17 14 100 0.0127232
13 17 14 100 0.111146
14 17 14 100 0.0786962
0 18 14 100 0.201212
2 18 14 100 0.032838
3 18 14 100 0.107523
4 18 14 100 0.0304245
5 18 14 100 0.123016
6 18 14 100 0.0596769
7 18 14 100 0.0689662
8 18 14 100 0.0338027
9 18 14 100 0.000316815
10 18 14 100 0.0344823
11 18 14 100 0.0646916
12 18 14 100 0.0351868
13 18 14 100 0.174083
14 18 14 100 0.0337799
0 19 14 100 0.209248
2 19 14 100 0.0476188
3 19 14 100 0.0476192
4 19 14 100 0.000360007
5 19 14 100 0.142695
6 19 14 100 0.0318089
7 19 14 100 1.17884e-05
8 19 14 100 0.0476166
9 19 14 100 2.93549e-05
10 19 14 100 2.43157e-06
11 19 14 100 0.0460171
12 19 14 100 0.137274
13 19 14 100 0.284795
14 19 14 100 0.00490284
0 20 14 100 0.400001
4 20 14 100 0.0666514
5 20 14 100 0.133334
6 20 14 100 1.46784e-05
7 20 14 100 1.05027e-05
8 20 14 100 0.133323
10 20 14 100 1.22013e-05
12 20 14 100 0.133429
13 20 14 100 0.0666668
14 20 14 100 0.0665581
0 21 14 100 0.0897445
2 21 14 100 0.0833297
3 21 14 100 2.38998e-05
5 21 14 100 0.242076
7 21 14 100 0.0833269
8 21 14 100 0.0833403
9 21 14 100 0.0833336
10 21 14 100 0.0833336
12 21 14 100 3.18054e-06
13 21 14 100 0.251445
14 21 14 100 4.29493e-05
0 22 14 100 0.125
2 22 14 100 0.125
3 22 14 100 0.125
5 22 14 100 0.249999
8 22 14 100 0.125
9 22 14 100 0.122105
11 22 14 100 0.00285439
12 22 14 100 1.32109e-06
13 22 14 100 0.12504
0 23 14 100 0.171118
2 23 14 100 0.162218
3 23 14 100 0.333333
7 23 14 100 0.166666
13 23 14 100 0.166664
0 24 14 100 0.250007
2 24 14 100 0.250001
3 24 14 100 7.05378e-06
5 24 14 100 4.11233e-06
10 24 14 100 0.249981
13 24 14 100 0.25
0 25 14 100 0.25147
2 25 14 100 0.25
4 25 14 100 0.25
10 25 14 100 0.248397
13 25 14 100 0.000132771
0 26 14 100 0.250035
5 26 14 100 0.499968
10 26 14 100 0.249967
14 26 14 100 3.02265e-05
0 27 14 100 0.250009
5 27 14 100 0.25
11 27 14 100 2.80412e-06
14 27 14 100 0.499988
0 28 14 100 0.499839
9 28 14 100 0.000188924
10 28 14 100 0.249967
13 28 14 100 6.67569e-06
14 28 14 100 0.249999
0 29 14 100 0.000735506
3 29 14 100 0.332595
9 29 14 100 0.333332
10 29 14 100 0.333334
14 29 14 100 3.51172e-06
0 30 14 100 0.5
3 30 14 100 0.5
0 31 14 100 3.98695e-05
3 31 14 100 0.499992
10 31 14 100 0.499968
0 1 15 100 0.0100746
1 1 15 100 0.717062
2 1 15 100 0.000796362
3 1 15 100 1.64689e-06
5 1 15 100 2.46165e-06
6 1 15 100 0.00190791
7 1 15 100 1.69011e-06
8 1 15 100 0.010117
9 1 15 100 1.6639e-07
10 1 15 100 0.0101408
11 1 15 100 0.0202518
12 1 15 100 0.0404326
13 1 15 100 0.12754
14 1 15 100 0.0616713
0 2 15 100 0.304999
1 2 15 100 1.06103e-07
2 2 15 100 0.490875
3 2 15 100 0.0201938
4 2 15 100 0.000919663
5 2 15 100 0.00127227
6 2 15 100 0.0028467
7 2 15 100 0.0103636
8 2 15 100 3.16897e-05
9 2 15 100 0.00146708
10 2 15 100 0.0300572
11 2 15 100 0.0294808
12 2 15 100 0.0215157
13 2 15 100 0.0412063
14 2 15 100 0.0338739
15 2 15 100 0.0108975
0 3 15 100 0.44702
1 3 15 100 8.574e-06
2 3 15 100 0.0562031
3 3 15 100 0.0543142
4 3 15 100 0.105389
5 3 15 100 0.00707981
6 3 15 100 0.0319143
7 3 15 100 0.0303098
8 3 15 100 0.00365828
9 3 15 100 0.0202114
10 3 15 100 0.0291468
11 3 15 100 0.0219581
12 3 15 100 0.0450742
13 3 15 100 0.0487834
14 3 15 100 0.0672119
15 3 15 100 0.0317173
0 4 15 100 0.651638
2 4 15 100 0.00196406
3 4 15 100 0.0301232
4 4 15 100 0.0392511
5 4 15 100 0.012732
6 4 15 100 0.0304397
7 4 15 100 0.0136359
8 4 15 100 0.0174056
9 4 15 100 0.0249308
10 4 15 100 0.0382176
11 4 15 100 0.0210716
12 4 15 100 0.0317084
13 4 15 100 0.0390182
14 4 15 100 0.0362997
15 4 15 100 0.0115636
0 5 15 100 0.634879
2 5 15 100 0.0136127
3 5 15 100 0.0714306
4 5 15 100 0.0357126
5 5 15 100 0.019366
6 5 15 100 0.0169639
7 5 15 100 0.0480468
8 5 15 100 0.000102093
9 5 15 100 0.0216212
10 5 15 100 0.0300022
11 5 15 100 0.00238476
12 5 15 100 0.00111269
13 5 15 100 0.0730016
14 5 15 100 0.0216376
15 5 15 100 0.0101261
0 6 15 100 0.57722
2 6 15 100 0.0478113
3 6 15 100 0.0658679
4 6 15 100 0.0307511
5 6 15 100 0.0260408
6 6 15 100 0.0297239
7 6 15 100 0.0387913
8 6 15 100 0.0177121
9 6 15 100 0.0123449
10 6 15 100 0.0187365
11 6 15 100 0.0110042
12 6 15 100 0.0116982
13 6 15 100 0.0127989
14 6 15 100 0.0908921
15 6 15 100 0.00860713
0 7 15 100 0.42474
2 7 15 100 0.000203828
3 7 15 100 0.120118
4 7 15 100 0.0409881
5 7 15 100 0.0356518
6 7 15 100 0.0694024
7 7 15 100 0.0811739
8 7 15 100 0.0210474
9 7 15 100 0.0414491
10 7 15 100 0.0134931
11 7 15 100 0.0192369
12 7 15 100 0.0573084
13 7 15 100 0.0309088
14 7 15 100 0.0319507
15 7 15 100 0.0123268
0 8 15 100 0.369129
1 8 15 100 0.00882285
2 8 15 100 0.00537089
3 8 15 100 0.0941128
4 8 15 100 0.0297953
5 8 15 100 0.0386667
6 8 15 100 0.0554058
7 8 15 100 0.054698
8 8 15 100 0.0139343
9 8 15 100 0.0838155
10 8 15 100 0.0452412
11 8 15 100 0.0106966
12 8 15 100 0.0524284
13 8 15 100 0.0740718
14 8 15 100 0.0532397
15 8 15 100 0.0105714
0 9 15 100 0.369039
1 9 15 100 3.98727e-07
2 9 15 100 0.00115833
3 9 15 100 0.0435346
4 9 15 100 0.044633
5 9 15 100 0.0430313
6 9 15 100 0.0339316
7 9 15 100 0.0229762
8 9 15 100 0.0536241
9 9 15 100 0.0335239
10 9 15 100 0.0420129
11 9 15 100 0.019491
12 9 15 100 0.0854235
13 9 15 100 0.0822771
14 9 15 100 0.106391
15 9 15 100 0.0189522
0 10 15 100 0.403905
2 10 15 100 0.0044304
3 10 15 100 0.0227699
4 10 15 100 0.0437393
5 10 15 100 0.0349423
6 10 15 100 0.0318265
7 10 15 100 0.0335604
8 10 15 100 0.0444497
9 10 15 100 0.0464263
10 10 15 100 0.0571159
11 10 15 100 0.0409874
12 10 15 100 0.0686103
13 10 15 100 0.0882691
14 10 15 100 0.0635027
15 10 15 100 0.0154645
0 11 15 100 0.231967
2 11 15 100 9.04554e-06
3 11 15 100 0.0807308
4 11 15 100 0.0532749
5 11 15 100 0.0629863
6 11 15 100 0.0397281
7 11 15 100 0.040004
8 11 15 100 0.106683
9 11 15 100 0.032062
10 11 15 100 0.0468805
11 11 15 100 0.053833
12 11 15 100 0.0158713
13 11 15 100 0.158683
14 11 15 100 0.0637892
15 11 15 100 0.0134977
0 12 15 100 0.141879
2 12 15 100 8.79431e-06
3 12 15 100 0.0297688
4 12 15 100 0.0620731
5 12 15 100 0.0512025
6 12 15 100 0.0757409
7 12 15 100 0.0657606
8 12 15 100 0.075186
9 12 15 100 0.0951998
10 12 15 100 0.0309986
11 12 15 100 0.0886312
12 12 15 100 0.091136
13 12 15 100 0.114649
14 12 15 100 0.061806
15 12 15 100 0.0159591
0 13 15 100 0.246729
2 13 15 100 2.89109e-06
3 13 15 100 0.0357265
4 13 15 100 0.0357359
5 13 15 100 0.0892769
6 13 15 100 0.0286745
7 13 15 100 0.0539192
8 13 15 100 0.0313065
9 13 15 100 0.0518378
10 13 15 100 0.135881
11 13 15 100 0.0180019
12 13 15 100 0.0703322
13 13 15 100 0.10832
14 13 15 100 0.092696
15 13 15 100 0.00155944
0 14 15 100 0.310298
2 14 15 100 0.0212727
3 14 15 100 0.0638245
4 14 15 100 0.0425545
5 14 15 100 0.063466
6 14 15 100 0.0858121
7 14 15 100 0.063759
8 14 15 100 0.0213
9 14 15 100 0.0214973
10 14 15 100 0.0638302
11 14 15 100 0.0213059
12 14 15 100 0.0594929
13 14 15 100 0.0527769
14 14 15 100 0.0871268
15 14 15 100 0.0216829
0 15 15 100 0.317668
2 15 15 100 2.01012e-05
3 15 15 100 0.0736175
4 15 15 100 0.0235355
5 15 15 100 0.143157
6 15 15 100 0.0397336
7 15 15 100 0.0243906
8 15 15 100 0.0477017
9 15 15 100 0.0245537
10 15 15 100 0.0487929
11 15 15 100 0.0492733
12 15 15 100 0.0489881
13 15 15 100 0.0853375
14 15 15 100 0.0731929
15 15 15 100 3.7761e-05
0 16 15 100 0.329633
1 16 15 100 3.36216e-06
2 16 15 100 2.98575e-07
3 16 15 100 0.0571971
4 16 15 100 0.0292807
5 16 15 100 0.0506214
6 16 15 100 0.0536051
7 16 15 100 0.0285715
8 16 15 100 3.09566e-05
9 16 15 100 0.000103185
10 16 15 100 0.0285986
11 16 15 100 0.0899226
12 16 15 100 0.000158899
13 16 15 100 0.209695
14 16 15 100 0.094087
15 16 15 100 0.0284918
0 17 15 100 0.290844
2 17 15 100 0.0355722
3 17 15 100 0.0370126
4 17 15 100 1.13453e-06
5 17 15 100 0.107142
6 17 15 100 0.0356772
7 17 15 100 0.0357157
9 17 15 100 5.45203e-07
10 17 15 100 0.0713634
11 17 15 100 0.142822
12 17 15 100 2.29939e-05
13 17 15 100 0.179202
14 17 15 100 0.0637619
15 17 15 100 0.000863324
0 18 15 100 0.256687
1 18 15 100 1.99361e-05
2 18 15 100 0.0406881
3 18 15 100 0.124901
4 18 15 100 3.89119e-05
5 18 15 100 0.124998
6 18 15 100 0.0390661
7 18 15 100 6.34299e-06
10 18 15 100 0.124317
11 18 15 100 0.0817218
12 18 15 100 0.0424106
13 18 15 100 0.0773018
14 18 15 100 0.0860554
15 18 15 100 0.00178876
0 19 15 100 0.278818
2 19 15 100 4.36095e-06
3 19 15 100 0.106497
4 19 15 100 0.0305708
5 19 15 100 0.10543
6 19 15 100 0.0421155
7 19 15 100 0.0168229
8 19 15 100 1.87845e-06
9 19 15 100 0.0128244
10 19 15 100 0.157715
11 19 15 100 0.0582238
12 19 15 100 0.0526606
13 19 15 100 0.12965
14 19 15 100 0.00857935
15 19 15 100 8.66942e-05
0 20 15 100 0.360727
3 20 15 100 0.0909092
4 20 15 100 0.0909092
5 20 15 100 0.18185
7 20 15 100 0.0106687
8 20 15 100 0.0802603
12 20 15 100 0.0909091
13 20 15 100 0.0908569
14 20 15 100 0.0029087
0 21 15 100 0.300226
3 21 15 100 0.1
4 21 15 100 0.0998459
5 21 15 100 0.2
6 21 15 100 0.0999698
10 21 15 100 0.199958
0 22 15 100 0.500039
3 22 15 100 0.125435
4 22 15 100 0.124999
10 22 15 100 0.125
13 22 15 100 0.124508
14 22 15 100 1.74037e-05
0 23 15 100 2.5095e-06
3 23 15 100 0.166667
5 23 15 100 0.166667
10 23 15 100 0.333331
12 23 15 100 0.166667
13 23 15 100 0.166667
0 24 15 100 0.174332
3 24 15 100 0.165818
7 24 15 100 1.11922e-05
11 24 15 100 0.166667
12 24 15 100 0.159674
13 24 15 100 0.166667
14 24 15 100 0.166666
15 24 15 100 0.000164535
0 25 15 100 0.201974
3 25 15 100 0.199979
5 25 15 100 0.198047
10 25 15 100 0.2
14 25 15 100 0.2
0 26 15 100 0.199961
2 26 15 100 3.22857e-06
4 26 15 100 5.24006e-05
5 26 15 100 0.200001
10 26 15 100 0.200001
13 26 15 100 0.199999
14 26 15 100 0.199983
0 27 15 100 0.749306
10 27 15 100 0.000375426
14 27 15 100 0.250319
14 28 15 100 0.666667
15 28 15 100 0.333333
10 29 15 100 0.333332
13 29 15 100 0.0110326
15 29 15 100 0.655636
10 30 15 100 0.5
15 30 15 100 0.5
0 31 15 100 0.000376117
10 31 15 100 0.5
15 31 15 100 0.499624
0 32 15 100 0.999966
14 32 15 100 3.4286e-05
10 33 15 100 1
10 34 15 100 1
0 1 16 100 1.15434e-05
1 1 16 100 0.723608
2 1 16 100 0.000670833
3 1 16 100 0.000299776
5 1 16 100 2.77455e-06
6 1 16 100 0.0113639
7 1 16 100 8.31803e-05
8 1 16 100 0.0114939
9 1 16 100 8.06677e-05
10 1 16 100 3.77527e-05
11 1 16 100 0.0784652
12 1 16 100 0.00010438
13 1 16 100 0.0799473
14 1 16 100 0.024082
15 1 16 100 0.069742
16 1 16 100 6.48658e-06
0 2 16 100 0.201605
1 2 16 100 2.94305e-07
2 2 16 100 0.495307
3 2 16 100 0.0100785
4 2 16 100 0.00181796
5 2 16 100 0.0155909
6 2 16 100 0.0297426
7 2 16 100 0.0318845
8 2 16 100 0.0228154
9 2 16 100 0.000284607
10 2 16 100 6.57878e-05
11 2 16 100 0.0129591
12 2 16 100 0.00061184
13 2 16 100 0.0827577
14 2 16 100 0.0481648
15 2 16 100 0.0218358
16 2 16 100 0.0244779
0 3 16 100 0.412686
2 3 16 100 0.0191507
3 3 16 100 0.0745601
4 3 16 100 0.123979
5 3 16 100 0.0271199
6 3 16 100 0.0149239
7 3 16 100 0.0232923
8 3 16 100 0.0232454
9 3 16 100 0.0142296
10 3 16 100 0.000808386
11 3 16 100 0.0238887
12 3 16 100 0.0256082
13 3 16 100 0.0838962
14 3 16 100 0.0152402
15 3 16 100 0.0742666
16 3 16 100 0.0431046
0 4 16 100 0.614474
1 4 16 100 1.70575e-07
2 4 16 100 0.0193346
3 4 16 100 0.0114052
4 4 16 100 0.0239967
5 4 16 100 0.0255201
6 4 16 100 0.0395238
7 4 16 100 0.0456007
8 4 16 100 0.0322548
9 4 16 100 0.0253166
10 4 16 100 0.00176401
11 4 16 100 0.0215171
12 4 16 100 0.0227136
13 4 16 100 0.0735332
14 4 16 100 0.0323595
15 4 16 100 0.0105066
16 4 16 100 0.000179192
0 5 16 100 0.676818
1 5 16 100 3.54676e-07
2 5 16 100 0.0151928
3 5 16 100 0.0126074
4 5 16 100 0.0467107
5 5 16 100 0.0349685
6 5 16 100 0.0379754
7 5 16 100 0.0129523
8 5 16 100 0.000428161
9 5 16 100 0.023254
10 5 16 100 0.00230296
11 5 16 100 0.0109076
12 5 16 100 0.000956945
13 5 16 100 0.0231305
14 5 16 100 0.0473692
15 5 16 100 0.0422912
16 5 16 100 0.0121344
0 6 16 100 0.50005
1 6 16 100 0.000652098
2 6 16 100 0.078442
3 6 16 100 0.0370479
4 6 16 100 0.0342731
5 6 16 100 0.0382196
6 6 16 100 0.0118926
7 6 16 100 0.0478973
8 6 16 100 0.0467605
9 6 16 100 0.0488566
10 6 16 100 0.0120253
11 6 16 100 0.0133936
12 6 16 100 0.00116847
13 6 16 100 0.0361356
14 6 16 100 0.0359401
15 6 16 100 0.0451167
16 6 16 100 0.0121283
0 7 16 100 0.405735
2 7 16 100 0.0015396
3 7 16 100 0.109208
4 7 16 100 0.0517867
5 7 16 100 0.105261
6 7 16 100 0.0203189
7 7 16 100 0.0129835
8 7 16 100 0.0456964
9 7 16 100 0.0612463
10 7 16 100 0.0141824
11 7 16 100 0.0132949
12 7 16 100 0.0354353
13 7 16 100 0.0390472
14 7 16 100 0.023921
15 7 16 100 0.0471682
16 7 16 100 0.0131755
0 8 16 100 0.436425
2 8 16 100 0.0015997
3 8 16 100 0.0680588
4 8 16 100 0.0133919
5 8 16 100 0.0557486
6 8 16 100 0.0391616
7 8 16 100 0.0504729
8 8 16 100 0.0276819
9 8 16 100 0.0555168
10 8 16 100 0.0482775
11 8 16 100 0.0498176
12 8 16 100 0.0311962
13 8 16 100 0.0401827
14 8 16 100 0.0406407
15 8 16 100 0.0316629
16 8 16 100 0.0101658
0 9 16 100 0.284684
1 9 16 100 1.8951e-06
2 9 16 100 0.00031156
3 9 16 100 0.0411638
4 9 16 100 0.0392609
5 9 16 100 0.108024
6 9 16 100 0.0847219
7 9 16 100 0.0377609
8 9 16 100 0.0503979
9 9 16 100 0.0635317
10 9 16 100 0.0497212
11 9 16 100 0.0636573
12 9 16 100 0.0250488
13 9 16 100 0.098315
14 9 16 100 0.0132137
15 9 16 100 0.0140057
16 9 16 100 0.0261796
0 10 16 100 0.360178
2 10 16 100 0.024921
3 10 16 100 0.0125408
4 10 16 100 0.0625677
5 10 16 100 0.0688934
6 10 16 100 0.0820038
7 10 16 100 0.0392335
8 10 16 100 0.0257906
9 10 16 100 0.0499354
10 10 16 100 0.0389665
11 10 16 100 0.0527263
12 10 16 100 0.0393302
13 10 16 100 0.0541536
14 10 16 100 0.0141468
15 10 16 100 0.0501283
16 10 16 100 0.0244847
0 11 16 100 0.392246
2 11 16 100 3.48575e-05
3 11 16 100 0.0289618
4 11 16 100 0.0147148
5 11 16 100 0.113286
6 11 16 100 0.0211942
7 11 16 100 0.0556099
8 11 16 100 0.0418007
9 11 16 100 0.0139479
10 11 16 100 0.072999
11 11 16 100 0.0734632
12 11 16 100 0.030154
13 11 16 100 0.110753
14 11 16 100 0.000658929
15 11 16 100 0.0153853
16 11 16 100 0.0147902
0 12 16 100 0.348605
2 12 16 100 0.0166291
3 12 16 100 0.0294155
4 12 16 100 0.00431152
5 12 16 100 0.0331621
6 12 16 100 0.088192
7 12 16 100 0.000859186
8 12 16 100 0.0347228
9 12 16 100 0.0797009
10 12 16 100 0.116731
11 12 16 100 0.0339019
12 12 16 100 0.0319457
13 12 16 100 0.0647941
14 12 16 100 0.0506703
15 12 16 100 0.0660585
16 12 16 100 0.000301
0 13 16 100 0.32771
1 13 16 100 1.99034e-05
2 13 16 100 0.0178605
3 13 16 100 0.0228877
4 13 16 100 0.0124014
5 13 16 100 0.0182
6 13 16 100 0.039847
7 13 16 100 0.0187003
8 13 16 100 0.0513512
9 13 16 100 0.123781
10 13 16 100 0.0914153
11 13 16 100 0.0464722
12 13 16 100 0.0210941
13 13 16 100 0.0535625
14 13 16 100 0.0475582
15 13 16 100 0.106864
16 13 16 100 0.000273937
0 14 16 100 0.343208
2 14 16 100 0.0189503
3 14 16 100 0.0551333
4 14 16 100 5.81245e-05
5 14 16 100 0.0339296
6 14 16 100 0.0191212
7 14 16 100 0.0190667
8 14 16 100 0.0377695
9 14 16 100 0.0997471
10 14 16 100 0.00332732
11 14 16 100 0.0178753
12 14 16 100 0.070277
13 14 16 100 0.112556
14 14 16 100 0.0736822
15 14 16 100 0.0942407
16 14 16 100 0.00105804
0 15 16 100 0.324467
2 15 16 100 0.0243257
3 15 16 100 0.0724175
4 15 16 100 0.0243827
5 15 16 100 0.0243927
6 15 16 100 0.00319983
7 15 16 100 0.073085
8 15 16 100 0.0240428
9 15 16 100 0.0248946
10 15 16 100 0.0160431
11 15 16 100 0.0243977
12 15 16 100 0.097711
13 15 16 100 0.0957979
14 15 16 100 0.0239755
15 15 16 100 0.122938
16 15 16 100 0.0239299
0 16 16 100 0.456346
2 16 16 100 4.97346e-05
3 16 16 100 0.0302671
4 16 16 100 8.73463e-06
5 16 16 100 0.000207115
6 16 16 100 0.0303045
7 16 16 100 0.0595885
8 16 16 100 0.0731205
9 16 16 100 0.00298383
10 16 16 100 0.00206026
11 16 16 100 0.0342675
12 16 16 100 0.106871
13 16 16 100 0.064319
14 16 16 100 0.000612014
15 16 16 100 0.134903
16 16 16 100 0.00409138
0 17 16 100 0.261931
2 17 16 100 2.89339e-05
3 17 16 100 0.0383699
4 17 16 100 1.47254e-06
5 17 16 100 0.000243327
6 17 16 100 4.95296e-06
7 17 16 100 0.11416
8 17 16 100 0.0384086
9 17 16 100 0.00010218
10 17 16 100 0.0293162
11 17 16 100 0.00342135
12 17 16 100 0.069754
13 17 16 100 0.0400508
14 17 16 100 0.13024
15 17 16 100 0.115278
16 17 16 100 0.158688
0 18 16 100 0.275737
3 18 16 100 0.0476241
4 18 16 100 7.75124e-07
5 18 16 100 0.0476328
6 18 16 100 1.23691e-06
7 18 16 100 0.190485
8 18 16 100 4.66773e-06
10 18 16 100 9.81704e-06
11 18 16 100 0.0523709
12 18 16 100 0.010559
13 18 16 100 0.000132102
14 18 16 100 0.128157
15 18 16 100 0.209371
16 18 16 100 0.037915
0 19 16 100 0.228179
2 19 16 100 0.00896062
3 19 16 100 0.057505
7 19 16 100 0.166667
11 19 16 100 7.64939e-06
12 19 16 100 0.000408435
13 19 16 100 0.0554807
14 19 16 100 0.213325
15 19 16 100 0.210476
16 19 16 100 0.058991
0 20 16 100 0.587379
2 20 16 100 3.8635e-06
3 20 16 100 0.0791577
4 20 16 100 0.0833335
5 20 16 100 5.00161e-06
6 20 16 100 2.2011e-06
7 20 16 100 0.0833335
10 20 16 100 3.00425e-05
11 20 16 100 2.22618e-05
13 20 16 100 5.95047e-05
14 20 16 100 0.166671
16 20 16 100 1.89026e-06
0 21 16 100 0.340443
2 21 16 100 0.000235618
3 21 16 100 0.106824
5 21 16 100 0.0144288
6 21 16 100 0.0932543
9 21 16 100 1.23324e-06
10 21 16 100 0.110738
11 21 16 100 0.00173344
12 21 16 100 0.11098
13 21 16 100 0.110651
14 21 16 100 0.108587
15 21 16 100 0.00167078
16 21 16 100 0.000453082
0 22 16 100 0.285717
5 22 16 100 0.142846
7 22 16 100 0.143181
10 22 16 100 5.06945e-06
11 22 16 100 0.0111074
12 22 16 100 0.142897
14 22 16 100 0.142863
15 22 16 100 0.131366
16 22 16 100 1.80089e-05
0 23 16 100 0.285953
3 23 16 100 0.142857
7 23 16 100 0.142857
12 23 16 100 0.142857
13 23 16 100 0.142627
14 23 16 100 0.142848
0 24 16 100 0.333285
3 24 16 100 0.166667
7 24 16 100 0.333334
10 24 16 100 4.74752e-05
12 24 16 100 0.166667
0 25 16 100 0.389662
4 25 16 100 2.60057e-06
7 25 16 100 0.199901
9 25 16 100 0.00010185
10 25 16 100 0.00977937
11 25 16 100 0.000549472
12 25 16 100 0.400001
16 25 16 100 2.61321e-06
0 26 16 100 0.250001
7 26 16 100 0.499203
9 26 16 100 0.000784754
12 26 16 100 0.250001
13 26 16 100 1.11737e-05
0 27 16 100 0.499993
12 27 16 100 0.5
16 27 16 100 7.10449e-06
12 28 16 100 1
12 29 16 100 1
0 30 16 100 0.00132493
12 30 16 100 0.998675
12 31 16 100 1
13 32 16 100 1
0 1 17 100 7.682e-07
1 1 17 100 0.787959
2 1 17 100 1.24171e-05
6 1 17 100 0.0283771
7 1 17 100 1.17975e-06
8 1 17 100 3.71361e-06
11 1 17 100 0.0303031
12 1 17 100 2.26943e-05
13 1 17 100 1.70737e-06
14 1 17 100 0.0322293
15 1 17 100 0.0605116
16 1 17 100 0.0605778
0 2 17 100 0.155595
2 2 17 100 0.539722
3 2 17 100 5.25374e-06
6 2 17 100 3.35228e-05
7 2 17 100 0.11866
8 2 17 100 5.78937e-05
9 2 17 100 4.19253e-06
10 2 17 100 1.55343e-05
11 2 17 100 0.0303031
12 2 17 100 8.56018e-06
13 2 17 100 0.0303029
14 2 17 100 0.0303019
15 2 17 100 0.0333028
16 2 17 100 0.00116478
17 2 17 100 0.0605224
0 3 17 100 0.425918
2 3 17 100 0.0288125
3 3 17 100 0.0694647
4 3 17 100 0.129921
5 3 17 100 0.00250551
6 3 17 100 0.000500661
7 3 17 100 0.0302051
8 3 17 100 0.00194751
9 3 17 100 9.58806e-05
10 3 17 100 0.000574109
11 3 17 100 0.0303845
12 3 17 100 0.00966909
13 3 17 100 0.0309793
14 3 17 100 0.0303044
15 3 17 100 0.0829258
16 3 17 100 0.0729925
17 3 17 100 0.0527992
0 4 17 100 0.547067
2 4 17 100 4.80576e-05
3 4 17 100 0.0594604
4 4 17 100 0.0306602
5 4 17 100 0.0315192
6 4 17 100 5.95889e-05
7 4 17 100 0.119507
11 4 17 100 0.0303031
12 4 17 100 0.000842752
13 4 17 100 0.028237
14 4 17 100 0.0605974
15 4 17 100 0.0303067
16 4 17 100 0.0613839
17 4 17 100 8.37113e-06
0 5 17 100 0.63803
1 5 17 100 4.87585e-06
2 5 17 100 2.79719e-05
3 5 17 100 0.146217
4 5 17 100 0.0614398
5 5 17 100 0.0284401
6 5 17 100 6.69702e-06
7 5 17 100 0.00193191
8 5 17 100 0.00112703
9 5 17 100 0.000113883
10 5 17 100 6.00155e-06
11 5 17 100 1.475e-06
12 5 17 100 0.00215193
13 5 17 100 5.38624e-05
14 5 17 100 0.0206798
15 5 17 100 0.0625174
16 5 17 100 0.035348
17 5 17 100 0.00190276
0 6 17 100 0.479025
1 6 17 100 2.31144e-05
2 6 17 100 0.0541864
3 6 17 100 0.0874996
4 6 17 100 0.134739
5 6 17 100 0.0412224
6 6 17 100 0.00062022
7 6 17 100 0.0967447
8 6 17 100 0.00456992
9 6 17 100 0.000152674
10 6 17 100 3.24701e-05
11 6 17 100 0.0324678
12 6 17 100 0.0150953
13 6 17 100 2.78916e-05
14 6 17 100 0.0239061
15 6 17 100 0.0018878
16 6 17 100 0.0276726
17 6 17 100 0.000127115
0 7 17 100 0.51914
2 7 17 100 0.000264601
3 7 17 100 0.120202
4 7 17 100 0.0754983
5 7 17 100 0.035313
6 7 17 100 0.00654498
7 7 17 100 0.0660867
8 7 17 100 0.0707975
9 7 17 100 0.000106207
10 7 17 100 9.02239e-05
11 7 17 100 0.000107072
12 7 17 100 0.00120593
13 7 17 100 0.0322657
14 7 17 100 0.00010458
15 7 17 100 0.0654681
16 7 17 100 1.60575e-05
17 7 17 100 0.00678941
0 8 17 100 0.450637
2 8 17 100 8.12499e-05
3 8 17 100 0.102055
4 8 17 100 0.0352667
5 8 17 100 0.0453074
6 8 17 100 0.00680029
7 8 17 100 0.0997875
8 8 17 100 0.0666756
9 8 17 100 3.4501e-05
10 8 17 100 0.00027219
11 8 17 100 9.91018e-05
12 8 17 100 0.0333384
13 8 17 100 0.0665803
14 8 17 100 0.000432295
15 8 17 100 0.062078
16 8 17 100 0.00160909
17 8 17 100 0.0289459
0 9 17 100 0.303956
2 9 17 100 0.000349673
3 9 17 100 0.0360566
4 9 17 100 0.00669451
5 9 17 100 0.0757385
6 9 17 100 0.0391652
7 9 17 100 0.0968833
8 9 17 100 0.104633
9 9 17 100 0.000386039
10 9 17 100 0.0344715
11 9 17 100 0.0691217
12 9 17 100 0.0383119
13 9 17 100 0.0346341
14 9 17 100 0.0308149
15 9 17 100 0.0586459
16 9 17 100 0.0354545
17 9 17 100 0.0346822
0 10 17 100 0.230857
2 10 17 100 4.47426e-06
3 10 17 100 0.0360648
4 10 17 100 0.0694279
5 10 17 100 0.0676262
6 10 17 100 0.137361
7 10 17 100 0.123164
8 10 17 100 0.105293
9 10 17 100 0.00201612
10 10 17 100 0.0716634
11 10 17 100 0.00146959
12 10 17 100 0.0400387
13 10 17 100 0.0374618
14 10 17 100 0.0345054
15 10 17 100 0.0339177
16 10 17 100 0.00145267
17 10 17 100 0.00767565
0 11 17 100 0.382266
2 11 17 100 1.36133e-05
3 11 17 100 0.0435776
4 11 17 100 0.0400019
5 11 17 100 0.0521078
6 11 17 100 0.057452
7 11 17 100 0.0802421
8 11 17 100 0.0709931
9 11 17 100 0.000142387
10 11 17 100 3.55053e-05
11 11 17 100 0.00272314
12 11 17 100 0.101272
13 11 17 100 0.0799852
14 11 17 100 7.7687e-05
15 11 17 100 0.0858945
16 11 17 100 0.00118372
17 11 17 100 0.00203122
0 12 17 100 0.440687
2 12 17 100 0.000226383
3 12 17 100 0.0875136
4 12 17 100 0.0342055
5 12 17 100 5.05625e-07
6 12 17 100 0.0889375
7 12 17 100 1.19664e-05
8 12 17 100 0.0403631
9 12 17 100 0.0407421
10 12 17 100 0.0465781
11 12 17 100 0.00227587
12 12 17 100 1.53546e-05
13 12 17 100 0.130434
14 12 17 100 0.043581
15 12 17 100 0.0443992
16 12 17 100 2.76883e-05
17 12 17 100 6.65248e-07
0 13 17 100 0.239487
2 13 17 100 0.0439934
3 13 17 100 0.0895121
4 13 17 100 0.0452969
5 13 17 100 0.000135169
6 13 17 100 0.0459751
7 13 17 100 0.091926
8 13 17 100 0.0454547
9 13 17 100 0.000205129
10 13 17 100 0.0367427
11 13 17 100 2.39341e-05
12 13 17 100 3.14304e-06
13 13 17 100 0.133268
14 13 17 100 0.0455013
15 13 17 100 0.181678
16 13 17 100 0.000316504
17 13 17 100 0.000480379
0 14 17 100 0.489374
2 14 17 100 2.63556e-06
3 14 17 100 0.00937594
4 14 17 100 0.0455391
5 14 17 100 0.00102921
6 14 17 100 0.0446815
7 14 17 100 0.0470508
8 14 17 100 0.0412993
9 14 17 100 6.34982e-07
10 14 17 100 0.00135271
11 14 17 100 0.00436784
12 14 17 100 0.046875
13 14 17 100 0.0525038
14 14 17 100 0.0978683
15 14 17 100 0.11036
16 14 17 100 0.00755213
17 14 17 100 0.000766712
0 15 17 100 0.29075
2 15 17 100 0.047433
3 15 17 100 0.0468674
4 15 17 100 0.0476176
5 15 17 100 1.87244e-06
6 15 17 100 2.0345e-05
8 15 17 100 0.139061
9 15 17 100 0.0460846
10 15 17 100 3.84724e-05
11 15 17 100 0.0473391
12 15 17 100 0.0965455
13 15 17 100 0.00014479
14 15 17 100 0.0935661
15 15 17 100 0.0952314
16 15 17 100 0.048324
17 15 17 100 0.000975623
0 16 17 100 0.344478
2 16 17 100 0.0499941
3 16 17 100 0.0959373
4 16 17 100 1.09712e-06
5 16 17 100 4.0591e-06
6 16 17 100 0.0501078
7 16 17 100 0.0618953
8 16 17 100 0.054156
9 16 17 100 0.0474609
10 16 17 100 0.00033016
11 16 17 100 0.0490412
12 16 17 100 5.038e-05
13 16 17 100 0.0500049
14 16 17 100 0.0949688
15 16 17 100 0.0510405
16 16 17 100 0.0505201
17 16 17 100 8.91636e-06
0 17 17 100 0.167457
2 17 17 100 0.0833334
6 17 17 100 0.164202
7 17 17 100 0.000525844
8 17 17 100 0.0833326
9 17 17 100 0.0826338
12 17 17 100 7.35096e-05
13 17 17 100 0.0153157
14 17 17 100 0.242197
15 17 17 100 0.0760933
16 17 17 100 0.0833547
17 17 17 100 0.00148189
0 18 17 100 0.286497
6 18 17 100 0.142482
7 18 17 100 0.132445
8 18 17 100 0.142857
10 18 17 100 6.13831e-06
12 18 17 100 0.142438
15 18 17 100 0.0104125
16 18 17 100 0.142859
17 18 17 100 3.82534e-06
0 19 17 100 0.166751
4 19 17 100 3.99946e-06
6 19 17 100 0.164957
8 19 17 100 0.0998373
11 19 17 100 0.0584925
12 19 17 100 0.168374
15 19 17 100 0.166659
16 19 17 100 0.174925
0 20 17 100 0.499982
7 20 17 100 5.50385e-06
8 20 17 100 1.10709e-05
11 20 17 100 1.54132e-05
13 20 17 100 0.250001
16 20 17 100 0.249985
0 21 17 100 0.252915
2 21 17 100 0.000223612
5 21 17 100 0.0493798
6 21 17 100 0.200465
11 21 17 100 0.247016
13 21 17 100 0.25
0 22 17 100 0.0417981
6 22 17 100 0.249539
11 22 17 100 0.208673
12 22 17 100 0.250007
14 22 17 100 2.61605e-06
16 22 17 100 0.249981
0 23 17 100 0.0140682
6 23 17 100 0.00494759
7 23 17 100 0.0036554
11 23 17 100 0.235947
14 23 17 100 0.2521
15 23 17 100 0.239295
17 23 17 100 0.249986
0 24 17 100 0.579201
4 24 17 100 9.0406e-06
6 24 17 100 0.000665659
7 24 17 100 0.00778663
11 24 17 100 0.00785596
14 24 17 100 0.332174
15 24 17 100 0.0716841
16 24 17 100 0.000623373
0 25 17 100 0.528028
5 25 17 100 2.39032e-05
14 25 17 100 0.469712
15 25 17 100 0.00111802
16 25 17 100 0.00111802
0 26 17 100 0.493478
6 26 17 100 7.52166e-06
9 26 17 100 9.88483e-05
13 26 17 100 0.108185
14 26 17 100 0.000200848
15 26 17 100 0.00316958
16 26 17 100 0.394775
17 26 17 100 8.53486e-05
0 1 18 100 0.0299706
1 1 18 100 0.684317
2 1 18 100 2.23302e-05
3 1 18 100 3.37982e-05
6 1 18 100 8.052e-06
7 1 18 100 6.53913e-05
8 1 18 100 2.20103e-06
9 1 18 100 0.00838257
10 1 18 100 0.0526339
11 1 18 100 2.20103e-06
12 1 18 100 0.0565218
13 1 18 100 0.0569064
14 1 18 100 8.09817e-06
15 1 18 100 0.10509
16 1 18 100 2.57881e-05
17 1 18 100 0.00166135
18 1 18 100 0.00434773
0 2 18 100 0.0763301
1 2 18 100 1.80818e-06
2 2 18 100 0.658047
4 2 18 100 1.44364e-06
5 2 18 100 1.77818e-05
6 2 18 100 0.0526154
12 2 18 100 0.105259
15 2 18 100 0.05263
16 2 18 100 0.00179682
17 2 18 100 0.000664681
18 2 18 100 0.0526358
0 3 18 100 0.280967
2 3 18 100 0.049079
3 3 18 100 4.64104e-05
4 3 18 100 0.162705
5 3 18 100 0.00675385
6 3 18 100 0.111365
7 3 18 100 0.000273165
8 3 18 100 0.0599484
9 3 18 100 0.000160185
10 3 18 100 2.43469e-06
11 3 18 100 1.3632e-06
12 3 18 100 0.0525834
13 3 18 100 0.0526342
14 3 18 100 0.0234739
15 3 18 100 0.0526831
16 3 18 100 0.0114135
17 3 18 100 0.135909
18 3 18 100 8.07316e-07
0 4 18 100 0.735264
2 4 18 100 3.02759e-06
3 4 18 100 0.00399511
4 4 18 100 0.000436098
5 4 18 100 6.54862e-05
6 4 18 100 0.0979481
7 4 18 100 0.000515329
8 4 18 100 5.88904e-05
9 4 18 100 3.36361e-05
10 4 18 100 0.000244499
11 4 18 100 8.58552e-05
12 4 18 100 0.105434
13 4 18 100 0.000115783
14 4 18 100 1.3183e-06
15 4 18 100 0.0526318
16 4 18 100 0.000192755
17 4 18 100 0.000231249
18 4 18 100 0.00274222
0 5 18 100 0.735817
1 5 18 100 8.42416e-06
2 5 18 100 1.48798e-05
3 5 18 100 0.0528527
4 5 18 100 0.000118934
5 5 18 100 1.69635e-06
6 5 18 100 0.0019629
7 5 18 100 0.000305778
8 5 18 100 0.000316788
9 5 18 100 0.000194627
10 5 18 100 0.000173354
11 5 18 100 0.000318298
12 5 18 100 0.0526316
13 5 18 100 8.12745e-06
14 5 18 100 0.000142528
15 5 18 100 0.139147
16 5 18 100 0.00692589
17 5 18 100 0.00691468
18 5 18 100 0.00214449
0 6 18 100 0.472266
2 6 18 100 4.08599e-06
3 6 18 100 0.105225
4 6 18 100 0.000140563
5 6 18 100 0.0139521
6 6 18 100 0.0463469
7 6 18 100 0.000956658
8 6 18 100 5.41449e-06
9 6 18 100 0.00120421
10 6 18 100 0.000959132
11 6 18 100 0.0429231
12 6 18 100 0.106467
13 6 18 100 0.00174855
14 6 18 100 0.0599567
15 6 18 100 0.145559
17 6 18 100 0.00191113
18 6 18 100 0.000373452
0 7 18 100 0.428223
2 7 18 100 0.000101387
3 7 18 100 0.0569335
4 7 18 100 0.0526371
5 7 18 100 2.26051e-05
6 7 18 100 0.0527152
7 7 18 100 0.102849
9 7 18 100 2.04203e-06
10 7 18 100 0.0526348
11 7 18 100 6.24739e-06
12 7 18 100 0.105262
14 7 18 100 0.0523377
15 7 18 100 0.0541571
16 7 18 100 0.0073493
17 7 18 100 0.033109
18 7 18 100 0.00166062
0 8 18 100 0.302133
2 8 18 100 4.9039e-05
3 8 18 100 0.0568798
4 8 18 100 9.19716e-05
5 8 18 100 0.105193
6 8 18 100 0.0444716
7 8 18 100 0.055988
8 8 18 100 0.000117383
9 8 18 100 5.43197e-07
10 8 18 100 0.00145101
11 8 18 100 5.5457e-05
12 8 18 100 0.10451
13 8 18 100 0.122837
14 8 18 100 0.0996844
15 8 18 100 0.0528604
16 8 18 100 0.000842183
17 8 18 100 0.0526037
18 8 18 100 0.000231395
0 9 18 100 0.390783
2 9 18 100 0.000305321
3 9 18 100 0.111134
4 9 18 100 8.16187e-05
5 9 18 100 0.0555497
6 9 18 100 0.0557906
7 9 18 100 0.10916
9 9 18 100 4.26031e-05
11 9 18 100 1.87364e-05
12 9 18 100 0.110882
13 9 18 100 0.110736
14 9 18 100 0.0017295
15 9 18 100 7.10558e-05
16 9 18 100 0.00166505
17 9 18 100 0.0520382
18 9 18 100 1.26607e-05
0 10 18 100 0.311745
2 10 18 100 1.04898e-06
3 10 18 100 1.51482e-05
5 10 18 100 1.14275e-05
6 10 18 100 0.175966
7 10 18 100 0.0606772
8 10 18 100 0.000161917
9 10 18 100 0.0600748
10 10 18 100 0.000169376
11 10 18 100 0.0485726
12 10 18 100 0.0600743
13 10 18 100 0.166844
14 10 18 100 0.0559829
15 10 18 100 0.00202152
16 10 18 100 8.30426e-05
17 10 18 100 0.0555952
18 10 18 100 0.00200463
0 11 18 100 0.284578
1 11 18 100 2.38802e-05
2 11 18 100 2.38053e-06
3 11 18 100 0.000146622
4 11 18 100 0.000106617
5 11 18 100 0.0693392
6 11 18 100 0.0734292
7 11 18 100 0.066653
8 11 18 100 1.77709e-05
9 11 18 100 0.066653
10 11 18 100 1.374e-06
11 11 18 100 0.0157811
12 11 18 100 0.0666724
13 11 18 100 0.123048
14 11 18 100 0.053059
15 11 18 100 3.38583e-05
16 11 18 100 0.0323383
17 11 18 100 0.148109
18 11 18 100 7.39369e-06
0 12 18 100 0.501694
2 12 18 100 0.000122429
3 12 18 100 9.5885e-06
5 12 18 100 0.143122
6 12 18 100 0.00748363
7 12 18 100 5.07697e-06
8 12 18 100 4.51031e-06
9 12 18 100 0.064244
10 12 18 100 1.39746e-06
11 12 18 100 0.000147761
12 12 18 100 0.0714279
13 12 18 100 0.134688
14 12 18 100 0.00119359
15 12 18 100 0.0701761
16 12 18 100 9.21609e-06
17 12 18 100 0.00566997
0 13 18 100 0.24577
4 13 18 100 0.0833399
5 13 18 100 4.40596e-06
6 13 18 100 0.0833676
8 13 18 100 0.0875276
9 13 18 100 1.30725e-05
11 13 18 100 0.000101207
12 13 18 100 0.0833465
13 13 18 100 0.0833334
14 13 18 100 0.166566
15 13 18 100 0.0832991
17 13 18 100 0.0833318
0 14 18 100 0.434022
2 14 18 100 3.05775e-06
3 14 18 100 1.58212e-06
4 14 18 100 0.000409875
6 14 18 100 0.180908
7 14 18 100 0.00523739
8 14 18 100 0.0992057
9 14 18 100 1.30549e-06
11 14 18 100 0.000343545
12 14 18 100 1.18496e-05
13 14 18 100 0.000197864
14 14 18 100 0.171169
15 14 18 100 0.00276876
16 14 18 100 0.00245233
17 14 18 100 0.0148188
18 14 18 100 0.0884492
0 15 18 100 0.120814
5 15 18 100 0.00163018
6 15 18 100 0.227631
7 15 18 100 0.00027324
8 15 18 100 0.000387539
10 15 18 100 1.67251e-05
11 15 18 100 0.0162148
12 15 18 100 0.19695
13 15 18 100 0.000239136
14 15 18 100 0.100619
15 15 18 100 0.220158
17 15 18 100 0.0825492
18 15 18 100 0.0325171
0 16 18 100 0.378051
3 16 18 100 5.27077e-05
5 16 18 100 1.65038e-06
6 16 18 100 0.246158
10 16 18 100 4.11117e-05
12 16 18 100 0.125032
14 16 18 100 0.125
15 16 18 100 0.000500939
16 16 18 100 8.07428e-05
17 16 18 100 8.07428e-05
18 16 18 100 0.125
0 17 18 100 0.428524
3 17 18 100 6.03203e-06
6 17 18 100 3.07703e-05
12 17 18 100 0.142883
13 17 18 100 0.142858
14 17 18 100 0.142858
15 17 18 100 7.44929e-05
18 17 18 100 0.142766
0 18 18 100 0.166512
2 18 18 100 1.98546e-05
5 18 18 100 0.103349
6 18 18 100 0.0313352
8 18 18 100 0.000210184
10 18 18 100 0.000150079
11 18 18 100 0.031998
12 18 18 100 0.000402855
13 18 18 100 0.166662
14 18 18 100 0.166591
15 18 18 100 0.166028
16 18 18 100 7.5225e-05
18 18 18 100 0.166667
0 19 18 100 0.0120295
5 19 18 100 1.24045e-05
6 19 18 100 0.00116006
7 19 18 100 9.34071e-05
9 19 18 100 1.54863e-05
11 19 18 100 0.013084
13 19 18 100 0.242166
14 19 18 100 0.0883101
15 19 18 100 0.248851
16 19 18 100 0.0162007
18 19 18 100 0.378078
0 20 18 100 0.500001
6 20 18 100 0.24877
15 20 18 100 0.00123146
18 20 18 100 0.249998
0 21 18 100 0.5
6 21 18 100 0.498989
15 21 18 100 0.00101086
14 22 18 100 1
14 23 18 100 1
0 24 18 100 0.00019305
14 24 18 100 0.999807
14 25 18 100 1
0 1 19 100 0.023881
1 1 19 100 0.838719
2 1 19 100 0.00148236
3 1 19 100 7.4938e-06
6 1 19 100 1.35466e-05
7 1 19 100 0.0399997
12 1 19 100 0.040071
14 1 19 100 0.00601433
15 1 19 100 1.06678e-06
16 1 19 100 0.0492491
18 1 19 100 0.000561227
19 1 19 100 4.08809e-07
0 2 19 100 0.348771
2 2 19 100 0.367756
3 2 19 100 0.0204064
4 2 19 100 0.00379364
5 2 19 100 0.000183284
7 2 19 100 0.0400059
8 2 19 100 0.00219664
9 2 19 100 0.00237437
10 2 19 100 0.000394958
11 2 19 100 5.26423e-05
12 2 19 100 0.010148
13 2 19 100 0.077881
14 2 19 100 0.00024876
15 2 19 100 0.000454761
17 2 19 100 0.122563
18 2 19 100 0.00238136
19 2 19 100 0.000387473
0 3 19 100 0.371341
2 3 19 100 0.00155348
3 3 19 100 0.0502524
4 3 19 100 0.0739582
5 3 19 100 0.0680087
6 3 19 100 0.0113491
7 3 19 100 0.0360524
8 3 19 100 0.000672732
9 3 19 100 0.00430689
10 3 19 100 0.000112431
11 3 19 100 0.000145354
12 3 19 100 0.0400119
13 3 19 100 0.0412187
14 3 19 100 0.0799548
15 3 19 100 0.000468386
16 3 19 100 0.0963113
17 3 19 100 0.123569
18 3 19 100 0.000306457
19 3 19 100 0.00040624
0 4 19 100 0.415705
2 4 19 100 1.1937e-06
3 4 19 100 0.0352342
4 4 19 100 0.0402796
5 4 19 100 0.084058
6 4 19 100 0.0352946
7 4 19 100 0.0401907
8 4 19 100 0.040099
9 4 19 100 0.0232603
10 4 19 100 0.000200741
11 4 19 100 0.0400953
12 4 19 100 0.00736525
13 4 19 100 0.000197804
14 4 19 100 0.0771131
15 4 19 100 0.0379099
16 4 19 100 0.000197083
17 4 19 100 0.120119
18 4 19 100 0.00222606
19 4 19 100 0.000453313
0 5 19 100 0.721075
2 5 19 100 9.76794e-05
3 5 19 100 0.0474401
4 5 19 100 0.00824794
5 5 19 100 0.0799743
6 5 19 100 0.000390255
7 5 19 100 7.10866e-06
8 5 19 100 0.0400008
9 5 19 100 2.04581e-05
10 5 19 100 0.0141258
12 5 19 100 0.0393972
13 5 19 100 0.0400043
14 5 19 100 1.15277e-05
15 5 19 100 0.00912367
16 5 19 100 7.10866e-06
17 5 19 100 8.24693e-07
18 5 19 100 6.63049e-05
19 5 19 100 9.78982e-06
0 6 19 100 0.477098
2 6 19 100 0.118412
3 6 19 100 0.0346941
4 6 19 100 0.0411793
5 6 19 100 0.0524539
6 6 19 100 0.00795886
7 6 19 100 0.0817266
8 6 19 100 0.000131366
9 6 19 100 0.00475572
10 6 19 100 0.00397485
11 6 19 100 0.00118759
12 6 19 100 0.0796135
13 6 19 100 0.00584988
14 6 19 100 0.000147026
15 6 19 100 9.27053e-05
16 6 19 100 0.0803995
17 6 19 100 0.00558419
18 6 19 100 0.0040407
19 6 19 100 0.000700451
0 7 19 100 0.451904
2 7 19 100 0.000106122
3 7 19 100 0.102901
4 7 19 100 0.0518135
5 7 19 100 0.0791948
6 7 19 100 0.00641535
7 7 19 100 0.0409937
8 7 19 100 6.13953e-05
9 7 19 100 0.000382191
10 7 19 100 0.00584385
11 7 19 100 0.039913
12 7 19 100 0.078126
13 7 19 100 0.0203466
14 7 19 100 0.0392679
15 7 19 100 0.000748992
16 7 19 100 0.0434021
17 7 19 100 0.000703552
18 7 19 100 0.00102016
19 7 19 100 0.0368558
0 8 19 100 0.673387
2 8 19 100 2.85167e-05
3 8 19 100 0.0401071
4 8 19 100 0.0184609
5 8 19 100 0.0450332
6 8 19 100 0.00239038
7 8 19 100 0.00240252
8 8 19 100 0.0024613
9 8 19 100 1.90277e-05
10 8 19 100 0.000101846
11 8 19 100 0.00226131
12 8 19 100 0.0549844
13 8 19 100 5.68238e-05
14 8 19 100 1.22864e-05
15 8 19 100 1.51017e-05
16 8 19 100 0.0875662
17 8 19 100 0.00282573
18 8 19 100 0.00435751
19 8 19 100 0.0635291
0 9 19 100 0.396187
2 9 19 100 0.000679163
3 9 19 100 0.0460553
4 9 19 100 0.0503389
5 9 19 100 0.00404255
6 9 19 100 0.150382
7 9 19 100 0.0091222
8 9 19 100 0.100081
9 9 19 100 0.000403746
10 9 19 100 0.000324375
11 9 19 100 8.77074e-07
12 9 19 100 0.143348
13 9 19 100 0.00497423
14 9 19 100 1.94937e-06
15 9 19 100 0.000404078
16 9 19 100 0.0917864
17 9 19 100 0.000610606
18 9 19 100 0.00071158
19 9 19 100 0.000546914
0 10 19 100 0.460365
2 10 19 100 0.0489552
3 10 19 100 0.0106174
4 10 19 100 2.53215e-05
5 10 19 100 0.00829826
6 10 19 100 0.194912
7 10 19 100 1.40732e-06
8 10 19 100 0.10516
9 10 19 100 1.5185e-05
10 10 19 100 4.14275e-05
11 10 19 100 1.23036e-06
12 10 19 100 0.0567124
13 10 19 100 0.000274189
14 10 19 100 4.37767e-05
15 10 19 100 1.45497e-05
16 10 19 100 0.105453
17 10 19 100 0.00178782
18 10 19 100 0.000471486
19 10 19 100 0.00685083
0 11 19 100 0.279513
2 11 19 100 6.6712e-07
3 11 19 100 0.00336327
4 11 19 100 5.22567e-06
5 11 19 100 0.0553368
6 11 19 100 0.0550221
7 11 19 100 2.28049e-05
8 11 19 100 0.110393
9 11 19 100 1.6142e-06
10 11 19 100 0.0523189
11 11 19 100 1.94321e-05
12 11 19 100 0.107625
13 11 19 100 0.0555581
14 11 19 100 0.0555751
15 11 19 100 0.0555281
16 11 19 100 0.166293
17 11 19 100 0.000881275
18 11 19 100 0.00252915
19 11 19 100 1.3131e-05
0 12 19 100 0.211587
2 12 19 100 3.79332e-06
3 12 19 100 0.0216266
4 12 19 100 0.000286088
5 12 19 100 0.00037289
6 12 19 100 0.0592114
7 12 19 100 0.000138776
8 12 19 100 0.292889
9 12 19 100 0.00171143
10 12 19 100 3.15236e-05
12 12 19 100 0.176787
13 12 19 100 2.1659e-05
14 12 19 100 0.0588237
15 12 19 100 0.0593564
16 12 19 100 0.116023
17 12 19 100 5.25907e-05
18 12 19 100 0.000631804
19 12 19 100 0.000444504
0 13 19 100 0.418741
2 13 19 100 4.46528e-06
3 13 19 100 8.02597e-05
4 13 19 100 1.02222e-05
5 13 19 100 1.84787e-06
6 13 19 100 6.80625e-05
8 13 19 100 0.0588237
9 13 19 100 0.000544895
10 13 19 100 0.0549134
11 13 19 100 0.000152296
12 13 19 100 0.105768
13 13 19 100 0.000216666
14 13 19 100 0.0587611
15 13 19 100 0.11383
16 13 19 100 0.125419
17 13 19 100 0.00712294
18 13 19 100 0.0359415
19 13 19 100 0.0196003
0 14 19 100 0.418032
2 14 19 100 2.30989e-05
3 14 19 100 0.0515466
4 14 19 100 0.000129052
5 14 19 100 1.02742e-06
6 14 19 100 9.55372e-05
7 14 19 100 1.57218e-06
8 14 19 100 0.0682699
9 14 19 100 3.51949e-06
10 14 19 100 0.0628465
11 14 19 100 0.000109338
12 14 19 100 0.00194301
13 14 19 100 0.000515601
14 14 19 100 0.00642241
15 14 19 100 0.0211711
16 14 19 100 0.298431
17 14 19 100 0.00801031
18 14 19 100 0.0494488
19 14 19 100 0.0129991
0 15 19 100 0.460436
2 15 19 100 7.32544e-07
3 15 19 100 0.00135965
4 15 19 100 5.57172e-06
5 15 19 100 4.63325e-06
6 15 19 100 0.000149931
7 15 19 100 0.00109852
8 15 19 100 0.133329
9 15 19 100 0.000148658
10 15 19 100 0.00491476
11 15 19 100 0.0606403
12 15 19 100 0.0686503
13 15 19 100 0.00025284
14 15 19 100 0.00126098
15 15 19 100 0.0674871
16 15 19 100 0.197534
17 15 19 100 5.84098e-05
18 15 19 100 0.000310884
19 15 19 100 0.00235828
0 16 19 100 0.457778
7 16 19 100 0.181818
8 16 19 100 0.0877229
9 16 19 100 9.01724e-06
14 16 19 100 0.0909093
15 16 19 100 0.0909093
16 16 19 100 0.0908333
17 16 19 100 3.10718e-06
18 16 19 100 9.01724e-06
19 16 19 100 7.39223e-06
0 17 19 100 0.144913
3 17 19 100 0.142857
5 17 19 100 4.35e-06
6 17 19 100 6.24063e-06
7 17 19 100 0.28269
9 17 19 100 4.64419e-05
10 17 19 100 0.00110758
14 17 19 100 5.51277e-06
15 17 19 100 0.142857
16 17 19 100 0.285512
0 18 19 100 0.253715
3 18 19 100 0.166667
7 18 19 100 0.166667
11 18 19 100 9.69561e-05
15 18 19 100 0.166667
16 18 19 100 0.165396
17 18 19 100 0.0633374
18 18 19 100 0.0172919
19 18 19 100 0.000161073
0 19 19 100 0.628172
4 19 19 100 1.70673e-05
5 19 19 100 4.82735e-06
6 19 19 100 4.16132e-05
13 19 19 100 9.12177e-06
14 19 19 100 4.69512e-06
16 19 19 100 0.177748
17 19 19 100 1.50378e-05
18 19 19 100 0.193982
19 19 19 100 5.90799e-06
0 20 19 100 0.430124
3 20 19 100 0.200028
7 20 19 100 0.169801
15 20 19 100 4.52042e-05
16 20 19 100 0.200003
0 21 19 100 0.00802504
7 21 19 100 0.241923
15 21 19 100 0.250001
16 21 19 100 0.250039
17 21 19 100 0.250006
19 21 19 100 5.81841e-06
0 22 19 100 0.333333
12 22 19 100 0.333333
14 22 19 100 0.333333
0 23 19 100 0.333189
7 23 19 100 0.333329
9 23 19 100 5.36434e-06
14 23 19 100 0.333335
16 23 19 100 3.21549e-05
17 23 19 100 9.25749e-05
18 23 19 100 6.54348e-06
19 23 19 100 1.05672e-05
0 24 19 100 0.998613
11 24 19 100 2.96067e-05
17 24 19 100 0.00099328
18 24 19 100 0.000363875
14 25 19 100 1
14 26 19 100 1
0 1 20 100 2.19413e-05
1 1 20 100 0.867388
2 1 20 100 2.67304e-05
3 1 20 100 0.000197027
4 1 20 100 3.73236e-05
5 1 20 100 4.14157e-05
9 1 20 100 0.0205052
12 1 20 100 0.00184152
15 1 20 100 0.104687
16 1 20 100 0.000138078
18 1 20 100 0.00511576
0 2 20 100 0.131289
2 2 20 100 0.2754
3 2 20 100 1.17609e-05
5 2 20 100 0.0258003
6 2 20 100 0.0671441
9 2 20 100 1.17609e-05
16 2 20 100 0.148499
18 2 20 100 0.351465
19 2 20 100 0.000379091
0 3 20 100 0.502202
2 3 20 100 1.27241e-05
3 3 20 100 0.0952759
4 3 20 100 0.0119251
5 3 20 100 0.0114
6 3 20 100 3.64343e-05
7 3 20 100 0.00426033
8 3 20 100 8.60338e-06
9 3 20 100 1.64478e-06
10 3 20 100 1.08094e-05
11 3 20 100 8.60338e-06
16 3 20 100 0.124862
17 3 20 100 1.73739e-05
18 3 20 100 0.00200317
20 3 20 100 0.247976
0 4 20 100 0.875634
2 4 20 100 3.89195e-05
4 4 20 100 0.000475892
5 4 20 100 0.00386773
6 4 20 100 0.00148106
7 4 20 100 0.111167
8 4 20 100 7.00925e-05
9 4 20 100 0.00184127
10 4 20 100 1.00054e-05
11 4 20 100 3.6128e-05
12 4 20 100 0.00526946
19 4 20 100 0.000108879
0 5 20 100 0.375009
2 5 20 100 1.46881e-05
4 5 20 100 0.00023811
5 5 20 100 1.01701e-05
7 5 20 100 0.124939
8 5 20 100 0.000232678
10 5 20 100 1.45421e-05
11 5 20 100 0.124986
12 5 20 100 0.0279863
16 5 20 100 0.097017
17 5 20 100 0.125
19 5 20 100 0.124553
0 6 20 100 0.504977
2 6 20 100 3.24944e-05
3 6 20 100 5.24366e-05
4 6 20 100 1.15779e-05
5 6 20 100 0.000319436
6 6 20 100 4.28391e-05
7 6 20 100 0.117253
8 6 20 100 0.124193
9 6 20 100 0.00157519
10 6 20 100 0.000595639
11 6 20 100 0.000702941
12 6 20 100 1.65938e-05
14 6 20 100 0.000341697
15 6 20 100 0.000700306
16 6 20 100 0.123021
17 6 20 100 0.123561
18 6 20 100 1.83552e-06
19 6 20 100 0.00059299
20 6 20 100 0.00200944
0 7 20 100 0.495138
2 7 20 100 8.11588e-05
3 7 20 100 0.12433
4 7 20 100 1.35328e-05
5 7 20 100 3.73156e-05
7 7 20 100 0.125072
8 7 20 100 1.31739e-05
9 7 20 100 4.40966e-05
11 7 20 100 6.1219e-05
16 7 20 100 0.124993
17 7 20 100 0.121298
19 7 20 100 0.00314215
20 7 20 100 0.00577691
0 8 20 100 0.483229
2 8 20 100 0.000465176
3 8 20 100 0.000747817
5 8 20 100 0.0180823
6 8 20 100 0.106177
7 8 20 100 0.0733
8 8 20 100 0.00139006
9 8 20 100 0.0181827
10 8 20 100 0.00248693
11 8 20 100 0.0144396
12 8 20 100 0.00154364
13 8 20 100 0.00118677
15 8 20 100 0.105064
16 8 20 100 0.0409079
17 8 20 100 0.005313
18 8 20 100 0.125
19 8 20 100 0.00248433
0 9 20 100 0.495005
2 9 20 100 0.00116218
3 9 20 100 0.115044
4 9 20 100 0.00270229
5 9 20 100 0.021139
6 9 20 100 0.000552834
7 9 20 100 0.000905033
8 9 20 100 0.125007
9 9 20 100 0.000552834
10 9 20 100 0.00290515
12 9 20 100 0.000152083
13 9 20 100 4.74764e-05
14 9 20 100 4.29413e-06
15 9 20 100 0.125579
16 9 20 100 0.109211
19 9 20 100 1.51153e-05
20 9 20 100 1.5333e-05
0 10 20 100 0.314753
2 10 20 100 1.57529e-05
3 10 20 100 0.000513664
5 10 20 100 0.00125836
7 10 20 100 0.106525
8 10 20 100 0.142424
10 10 20 100 0.000443638
11 10 20 100 2.76669e-05
12 10 20 100 0.141606
13 10 20 100 4.37354e-06
14 10 20 100 0.000248216
15 10 20 100 0.149134
16 10 20 100 0.142844
17 10 20 100 6.5742e-05
19 10 20 100 2.83282e-05
20 10 20 100 0.000108578
0 11 20 100 0.666295
3 11 20 100 3.13762e-06
5 11 20 100 9.56203e-06
9 11 20 100 0.000134729
11 11 20 100 8.2627e-06
12 11 20 100 0.000127174
14 11 20 100 5.39315e-05
17 11 20 100 2.83877e-05
18 11 20 100 0.333334
20 11 20 100 5.1767e-06
0 12 20 100 0.199969
2 12 20 100 3.13286e-05
8 12 20 100 0.199971
16 12 20 100 0.2
17 12 20 100 2.88963e-05
18 12 20 100 0.4
0 13 20 100 0.000104924
2 13 20 100 9.35052e-05
4 13 20 100 0.000177236
6 13 20 100 2.21774e-06
7 13 20 100 0.117567
8 13 20 100 0.199732
10 13 20 100 0.0777273
14 13 20 100 0.00405833
16 13 20 100 0.40049
17 13 20 100 2.28676e-05
18 13 20 100 9.48803e-05
19 13 20 100 0.199929
0 14 20 100 0.228445
2 14 20 100 2.83858e-05
6 14 20 100 0.000234328
7 14 20 100 0.000699915
8 14 20 100 0.25
9 14 20 100 1.70329e-05
10 14 20 100 1.95311e-05
13 14 20 100 1.33951e-05
14 14 20 100 9.87558e-06
16 14 20 100 0.231249
18 14 20 100 0.281057
19 14 20 100 0.00802252
20 14 20 100 0.000203897
2 15 20 100 3.37899e-06
4 15 20 100 1.21037e-05
7 15 20 100 2.07291e-05
10 15 20 100 2.24873e-05
16 15 20 100 0.666529
19 15 20 100 0.333413
0 16 20 100 0.165585
5 16 20 100 1.25871e-05
8 16 20 100 0.000774794
16 16 20 100 0.832471
19 16 20 100 0.00115708
1 1 21 100 0.698003
2 1 21 100 1.63536e-06
7 1 21 100 0.0999833
8 1 21 100 0.1
10 1 21 100 0.0999846
12 1 21 100 1.33249e-06
15 1 21 100 0.00200951
17 1 21 100 1.68341e-05
0 2 21 100 0.200454
2 2 21 100 0.299607
4 2 21 100 0.000136402
5 2 21 100 1.76797e-05
7 2 21 100 1.46399e-05
8 2 21 100 0.2
10 2 21 100 0.124739
15 2 21 100 0.099498
16 2 21 100 0.000100584
19 2 21 100 0.0752592
20 2 21 100 2.17433e-05
21 2 21 100 0.000151844
0 3 21 100 0.0118739
2 3 21 100 0.00282431
3 3 21 100 0.257601
4 3 21 100 0.115197
5 3 21 100 0.0778977
6 3 21 100 0.100306
7 3 21 100 0.0993469
8 3 21 100 0.126834
9 3 21 100 4.09209e-05
10 3 21 100 0.0996343
11 3 21 100 0.000242547
12 3 21 100 4.09209e-05
13 3 21 100 0.00536961
14 3 21 100 0.000240426
15 3 21 100 0.000186318
16 3 21 100 0.100014
17 3 21 100 0.00122105
18 3 21 100 4.09209e-05
20 3 21 100 0.000985625
21 3 21 100 0.000102719
0 4 21 100 0.692536
2 4 21 100 0.00855281
3 4 21 100 0.064502
4 4 21 100 2.27925e-06
5 4 21 100 0.0287703
6 4 21 100 0.000146417
7 4 21 100 1.04338e-05
8 4 21 100 0.0805226
9 4 21 100 6.10974e-05
11 4 21 100 0.0970386
12 4 21 100 8.68583e-05
13 4 21 100 4.96128e-06
14 4 21 100 0.00702922
15 4 21 100 0.000398116
16 4 21 100 0.00598202
17 4 21 100 0.0137895
18 4 21 100 6.10974e-05
19 4 21 100 5.33399e-05
20 4 21 100 0.000105521
21 4 21 100 0.000346746
0 5 21 100 0.877548
2 5 21 100 2.72173e-05
3 5 21 100 1.13308e-06
5 5 21 100 1.69923e-06
8 5 21 100 1.69923e-06
9 5 21 100 0.0999587
11 5 21 100 1.69923e-06
14 5 21 100 1.69923e-06
17 5 21 100 1.69923e-06
19 5 21 100 0.0224555
20 5 21 100 1.04126e-06
0 6 21 100 0.699316
2 6 21 100 0.0994152
3 6 21 100 0.00122227
4 6 21 100 7.8589e-06
7 6 21 100 0.0120084
10 6 21 100 0.0120084
13 6 21 100 0.0120084
16 6 21 100 0.112009
19 6 21 100 0.0519651
21 6 21 100 3.96048e-05
0 7 21 100 0.40441
2 7 21 100 0.00871852
3 7 21 100 0.230679
4 7 21 100 0.000556381
5 7 21 100 0.120996
6 7 21 100 0.00894002
7 7 21 100 0.000304441
8 7 21 100 0.000148531
9 7 21 100 0.000686251
10 7 21 100 0.00100522
12 7 21 100 7.36062e-05
13 7 21 100 3.12874e-05
14 7 21 100 0.00239
16 7 21 100 0.100004
17 7 21 100 0.0180983
18 7 21 100 0.00239705
19 7 21 100 0.017619
20 7 21 100 0.000165205
21 7 21 100 0.0827777
0 8 21 100 0.72331
2 8 21 100 4.92828e-05
3 8 21 100 0.0147411
4 8 21 100 0.00163071
5 8 21 100 0.131903
6 8 21 100 0.000449424
7 8 21 100 0.00172072
9 8 21 100 5.20225e-05
10 8 21 100 6.31156e-05
11 8 21 100 0.00122084
12 8 21 100 3.16895e-05
14 8 21 100 7.80773e-05
15 8 21 100 1.64434e-05
16 8 21 100 0.124675
19 8 21 100 5.70139e-05
20 8 21 100 1.65847e-06
0 9 21 100 0.259477
2 9 21 100 0.000117287
3 9 21 100 0.122215
4 9 21 100 5.89494e-05
5 9 21 100 0.125
7 9 21 100 0.125222
8 9 21 100 0.125015
16 9 21 100 0.125
17 9 21 100 0.114039
18 9 21 100 0.00385414
19 9 21 100 1.62761e-06
0 10 21 100 0.250128
5 10 21 100 0.0224877
7 10 21 100 0.154811
8 10 21 100 0.12545
9 10 21 100 0.125097
10 10 21 100 0.000252967
13 10 21 100 0.000252967
14 10 21 100 0.0717913
16 10 21 100 0.000252967
17 10 21 100 0.125003
18 10 21 100 0.124359
19 10 21 100 0.000105147
20 10 21 100 9.58441e-06
0 11 21 100 0.703549
2 11 21 100 2.19948e-06
3 11 21 100 6.18323e-06
4 11 21 100 4.59148e-05
5 11 21 100 0.138361
6 11 21 100 0.000119191
7 11 21 100 0.00681621
8 11 21 100 0.000139989
11 11 21 100 0.142688
12 11 21 100 2.7791e-05
14 11 21 100 0.000399004
15 11 21 100 7.58848e-06
16 11 21 100 0.000911
18 11 21 100 0.00236052
19 11 21 100 6.28737e-05
20 11 21 100 2.09902e-06
21 11 21 100 0.00450094
0 12 21 100 0.293934
1 12 21 100 3.50857e-06
2 12 21 100 1.34196e-05
5 12 21 100 0.142847
7 12 21 100 5.13472e-06
8 12 21 100 0.142858
14 12 21 100 0.14285
17 12 21 100 0.277489
0 13 21 100 0.316284
2 13 21 100 5.18142e-06
3 13 21 100 6.23978e-06
4 13 21 100 0.000237453
6 13 21 100 7.47337e-06
7 13 21 100 0.000262555
8 13 21 100 0.142688
11 13 21 100 4.50407e-06
12 13 21 100 7.22456e-06
17 13 21 100 0.230276
18 13 21 100 0.257731
19 13 21 100 0.0520136
21 13 21 100 0.000476322
0 14 21 100 0.409831
2 14 21 100 5.32779e-06
3 14 21 100 0.000420283
4 14 21 100 2.43681e-05
5 14 21 100 5.50527e-06
7 14 21 100 0.00119896
8 14 21 100 0.2
11 14 21 100 0.000290371
12 14 21 100 4.94703e-05
15 14 21 100 0.199995
17 14 21 100 0.173174
18 14 21 100 0.000456146
20 14 21 100 0.0145462
21 14 21 100 2.12121e-06
0 15 21 100 0.796866
2 15 21 100 0.0001049
3 15 21 100 0.00228456
7 15 21 100 6.68601e-06
9 15 21 100 1.24296e-05
11 15 21 100 0.00140091
15 15 21 100 0.000411198
16 15 21 100 6.15994e-05
17 15 21 100 0.19854
19 15 21 100 0.000312222
0 16 21 100 7.63758e-05
14 16 21 100 0.2
15 16 21 100 0.3999
