2 0.149308 0.84733 0.00217312 0.000797491 0.000312204 2.29866e-05 2.00791e-05 1.9598e-05 8.72867e-06 7.49029e-06 
3 0.352707 0.632968 0.00404204 0.00565126 0.00239193 0.000858688 0.00059518 0.000295873 2.62115e-05 0.000463751 
4 0.679077 0.289606 0.0241878 0.00524377 0.000889537 0.000640033 0.000194267 7.43867e-05 5.07901e-05 3.58879e-05 
5 0.525748 0.467685 0.00325868 0.000792839 0.00234292 4.99652e-05 3.74347e-05 3.7048e-05 4.78503e-05 0 
6 0.385953 0.123035 0.214461 0.176709 0.0623774 0.0193725 0.0124596 0.00277606 0.000550042 0.00230546 
7 0.810271 0.164417 0.0171926 0.00498393 0.0014713 0.00146834 0.00010717 4.0651e-05 2.77559e-05 1.96121e-05 
8 0.401326 0.130253 0.0631567 0.187039 0.07892 0.0665803 0.0498427 0.00335147 0.00717526 0.0123563 
9 0.369951 0.577744 0.0115231 0.0395014 0.000686731 0.000172852 0.000151247 0.000147623 6.57492e-05 5.6421e-05 
10 0.373161 0.517709 0.00930052 0.084665 0.0041242 0.000957802 0.00878979 0.000707211 0.000314734 0.000270081 
11 0.855392 0.12997 0.00860367 0.00558576 0.00021485 6.79009e-05 5.08767e-05 5.03512e-05 6.50323e-05 0 
12 0.262017 0.216395 0.17994 0.273999 0.0587197 0.00095496 0.00681453 0.00102426 7.27225e-05 6.2405e-05 
13 0.764531 0.10505 0.0693472 0.0385273 0.00689932 0.00775509 0.00403412 0.000495549 0.000221928 0.00313896 
14 0.805953 0.0355836 0.0236795 0.015446 0.0114046 0.0498518 0.0239112 0.00165208 0.0201474 0.0123709 
15 0.668206 0.0647668 0.247256 0.0114808 0.00374756 0.00188724 0.0011479 0.00124474 0.000156966 0.000105817 
16 0.879997 0.0390535 0.0115126 0.0189823 0.0135623 0.0191681 0.00979531 0.000625421 0.000643844 0.00665952 
17 0.931447 0.0510829 0.00739989 0.00578586 0.00152413 0.00153155 0.000397681 0.00032504 0.000295785 0.000210577 
18 0.935168 0.061322 0.00103502 0.00119313 0.000456038 0.000458259 0.000118991 9.7256e-05 8.85024e-05 6.30072e-05 
19 0.635547 0.0791051 0.058451 0.187859 0.0100648 0.0149027 0.00839232 0.00451719 0.000678706 0.000483136 
20 0.705782 0.136769 0.0158189 0.0419194 0.0554428 0.0154474 0.0136134 0.00212051 0.011733 0.00135371 
21 0.824294 0.11998 0.0142794 0.0162403 0.0175762 0.00423266 0.00109905 0.000898293 0.000817442 0.000581959 
22 0.761441 0.0932347 0.0541253 0.0653909 0.0101212 0.00870265 0.00225972 0.00184696 0.00168072 0.00119655 
23 0.249761 0.54448 0.0136533 0.139006 0.0106436 0.00987617 0.0083376 0.000968674 0.000536834 0.0227367 
24 0.739996 0.197796 0.021319 0.0159197 0.0168867 0.0046068 0.00112461 0.000919183 0.000836452 0.000595493 
25 0.545818 0.376793 0.0161038 0.0466483 0.00500254 0.005178 0.00288358 0.000660082 0.000278824 0.000634129 
26 0.369254 0.102134 0.0605794 0.115026 0.131516 0.164948 0.0261352 0.00472723 0.0211717 0.0045072 
27 0.348696 0.395964 0.0759115 0.105768 0.0254326 0.0310533 0.000729593 0.0158759 0.00031765 0.000251526 
28 0.780409 0.157968 0.0370479 0.00932449 0.0106897 0.00253059 0.000657039 0.000537023 0.000488688 0.00034791 
29 0.15481 0.0835684 0.668448 0.0531839 0.00763026 0.0301529 0.0012186 0.000456272 0.000311536 0.000220129 
30 0.0909985 0.124668 0.703632 0.00574929 0.0498533 0.00210912 0.0175368 0.000120222 0.0030462 0.00228674 
31 0.76685 0.156606 0.0180608 0.0281912 0.0107752 0.0108277 0.00281152 0.00229796 0.00209113 0.00148873 
32 0.540156 0.395467 0.0373503 0.0104438 0.00562764 0.00910239 0.000566795 0.000560889 0.000724431 1.06775e-07 
33 0.759111 0.220475 0.0108664 0.00580177 0.00175717 0.00127867 0.000388111 0.000148611 0.00010147 7.16977e-05 
34 0.918776 0.0497244 0.00972745 0.0128621 0.00458464 0.00290054 0.000817077 0.000237529 0.00021615 0.000153883 
35 0.296084 0.0809728 0.0892856 0.255333 0.0851078 0.164084 0.0128581 0.0151187 0.000689932 0.000466798 
36 0.365291 0.33013 0.215947 0.0252074 0.013066 0.0269367 0.01161 0.00153138 0.00601193 0.00426874 
37 0.458365 0.16505 0.126924 0.161766 0.0421762 0.0341128 6.40297e-06 5.39582e-05 0.00655031 0.00499485 
38 0.12463 0.849585 0.0124156 0.00537631 0.0042707 0.00206542 0.000536121 0.000438192 0.000398752 0.000283882 
39 0.223728 0.432107 0.193321 0.0688389 0.0162244 0.0381947 0.0136763 0.0018034 0.00707984 0.00502701 
40 0.411284 0.258003 0.140933 0.0407812 0.0352725 0.0541682 0.00557317 0.0245349 0.0240431 0.00540698 
41 0.71453 0.0816157 0.0308979 0.0791146 0.0347069 0.0540842 0.00196842 0.00120503 0.00109657 0.000780676 
42 0.770673 0.191911 0.00873085 0.0102291 0.0118383 0.000351707 0.000274034 0.00565557 0.000336763 0 
43 0.0850748 0.0883438 0.05783 0.73359 0.0114178 0.0134738 0.00368709 0.00263722 0.00313909 0.000806643 
44 0.0756218 0.0918826 0.448665 0.21842 0.117081 0.0391453 0.00721328 0.00137178 1.56316e-06 0.000597275 
45 0.402076 0.407385 0.094688 0.0858667 0.0059169 0.000216449 0.00346689 0.000177211 0.00020698 0 
46 0.229164 0.524737 0.165536 0.0103383 0.0408388 0.0166977 0.000499031 0.000549729 0.0110047 0.000635174 
47 0.294446 0.671035 0.0184522 0.0127164 0.00105832 0.000121815 9.12733e-05 9.73535e-05 0.0019823 0 
48 0.732835 0.167814 0.0290997 0.0209651 0.0174576 0.00371911 0.00409247 0.00451743 0.011719 0.00778049 
49 0.420065 0.138896 0.109266 0.140707 0.0534085 0.0648196 0.0493143 0.0136589 0.00160016 0.0082651 
50 0.6594 0.269123 0.0302283 0.0220645 0.0102612 0.00704735 6.29e-06 3.81888e-06 0.000495332 0.00137017 
51 0.326179 0.374238 0.0546892 0.161215 0.0699522 0.00751279 2.89471e-06 1.26875e-05 0.00164565 0.00455214 
52 0.732798 0.0813966 0.0242792 0.103266 0.0182316 0.0158935 0.00296804 0.018219 0.00185364 0.00109428 
53 0.781047 0.115079 0.0212771 0.0332116 0.0126941 0.0127559 0.0033122 0.00270718 0.00302826 0.0148877 
54 0.191781 0 0.0547333 0.0267095 0.517695 0.209078 3.8746e-06 0 0 0 
55 0.680391 0.111866 0.0474923 0.0721672 0.0125362 0.0654273 0.00337938 0.00263499 0.00239783 0.00170708 
56 0.317571 0.154021 0.170259 0.210469 0.0441293 0.0927599 0.00182979 0.00117634 0.00123117 0.00655376 
57 0.729648 0.0963212 0.0842722 0.0718467 0.00387176 0.00360932 0.00833669 0.000918873 0.000686402 0.000488668 
58 0.88187 0.085353 0.00641925 0.0162265 0.0037246 0.00355413 0.000922864 0.000754291 0.000686401 0.000488668 
59 0.529287 0.152995 0.134724 0.0941662 0.0356437 0.01828 0.0304592 0.00223674 0.00129374 0.000914145 
60 0.380594 0.197622 0.161151 0.130576 0.0946731 0.0197907 0.0107199 0.00339195 3.86526e-06 0.0014769 
61 0.241427 0.0735513 0.0922986 0.166163 0.241491 0.162331 0.00526187 0.0128144 0.0042744 0.000387167 
62 0.155206 0.445128 0.233103 0.120839 0.0342438 0.00511764 0.00406202 0.00160135 1.8248e-06 0.000697248 
63 0.173641 0.210413 0.0459454 0.459353 0.0767148 0.0318231 0.00116865 0.000434476 0.000296654 0.000209613 
64 0.247072 0.0640114 0.645734 0.027678 0.00716927 0.00535992 0.00162687 0.000622947 0.000425339 0.000300541 
65 0.419269 0.101419 0.0245204 0.193725 0.0595556 0.194844 0.00313204 0.00138199 0.0012576 0.000895321 
66 0.414436 0.283188 0.240895 0.0414308 0.00166821 0.0170656 0.000402811 0.000398648 0.000514885 0 
67 0.376567 0.143847 0.0915649 0.261493 0.0363945 0.0458039 0.033531 0.00453137 0.00191409 0.00435321 
68 0.47116 0.143848 0.0552253 0.230268 0.0333581 0.0355463 0.0197954 0.00453137 0.00191409 0.00435321 
69 0.181764 0.259244 0.295628 0.0594673 0.0759716 0.0124837 0.0840162 0.00888427 0.00850622 0.0140349 
70 0.0948784 0.230575 0.298662 0.167063 0.0994194 0.0389658 0 6.72087e-06 0.0579602 0.0124685 
71 0.0938754 0.365222 0.416091 0.0495745 0.0249724 0.00488856 0.0330237 0.00349208 0.00334348 0.00551662 
72 0.114014 0.131237 0.382048 0.139915 0.109917 0.0495307 0 3.68808e-06 0.0594994 0.0138353 
73 0.193419 0.392237 0.121605 0.186035 0.0654275 0.020098 0.0156242 0.00233435 0.000983629 0.00223707 
74 0 8.65522e-07 0.999997 2.31361e-06 0 0 0 0 0 0 
75 0.385178 0.0627258 0.124592 0.277659 0.108412 0.00604397 0.0229611 0.0118506 1.51046e-06 0.000576095 
76 0.402658 0.199944 0.11834 0.121241 0.038685 0.0735604 0.022589 0.00297954 0.0116971 0.00830549 
77 0.343058 0.114725 0.443648 0.0601228 0.0224332 0.0102967 0.00312531 0.00119671 0.000817098 0.000577355 
78 0.392873 0.113565 0.116808 0.171502 0.133378 0.0489788 0.0198487 0.00140733 0.000960301 0.000678541 
79 0.43243 0.151895 0.136209 0.0595769 0.0192377 0.166127 0.0258058 0.00805416 0.000400572 0.000263274 
80 0.636439 0.0756933 0.10623 0.100779 0.015019 0.052124 0.00424799 0.00124292 0.00117348 0.0070521 
81 0.208485 0.0875542 0.0616836 0.235472 0.0727864 0.229484 0.0411548 0.0529999 0.0011465 0.0092336 
82 0.137209 0.114826 0.427213 0.10134 0.111365 0.0371183 0 2.22662e-06 0.0599045 0.0110223 
83 0.670002 0.0914454 0.0340477 0.0500247 0.0235187 0.0284486 0.0436275 0.0239601 0.00940583 0.02552 
84 0.723353 0.136036 0.0402746 0.0319809 0.0117509 0.0331682 0.00754383 0.0121287 0.00220234 0.00156135 
85 0.287561 0.108284 0.19427 0.253761 0.130415 0.0152886 0.00669747 0.00259107 2.95263e-06 0.00112819 
86 0.159583 0.27101 0.309272 0.0479758 0.0783783 0.0130111 0.0878939 0.00929431 0.00889881 0.0146827 
87 0.413322 0.163764 0.0628864 0.246752 0.0379765 0.040468 0.0225363 0.0051588 0.00217912 0.00495596 
88 0.284012 0.136255 0.0918852 0.34075 0.0470393 0.0554669 0.0365193 0.00338709 0.00143073 0.00325391 
89 0.378786 0.11638 0.049769 0.240037 0.0623521 0.0542724 0.080187 0.00232181 0.00418458 0.0117105 
90 0.497819 0.152604 0.089187 0.0471544 0.0324836 0.0674636 0.0700343 0.00384211 0.0287964 0.0106165 
91 0.499613 0.193876 0.0861401 0.0446726 0.0357597 0.0831014 0.0290161 0.00360681 0.0141597 0.010054 
92 0.1774 0.230995 0.24692 0.0452297 0.0956106 0.0161901 0.135458 0.0167499 0.0146857 0.0207603 
93 0.238848 0.282025 0.327832 0.032844 0.0379351 0.00783074 0.0528991 0.0055938 0.00535577 0.00883681 
94 0.364191 0.142528 0.0685343 0.259724 0.0350194 0.0723585 0.0434862 0.00805678 0.00186372 0.00423865 
95 0.422862 0.147485 0.123114 0.0673855 0.0452819 0.0846477 0.0551264 0.0148746 0.0204449 0.0187784 
96 0.490095 0.144573 0.103847 0.0780971 0.0191726 0.0360753 0.0913873 0.00178344 0.0340695 0.000900078 
97 0.208017 0.182633 0.229776 0.186347 0.113726 0.0283723 0.0436016 0.00541112 5.5218e-06 0.00210985 
98 0.251496 0.68342 0.0180896 0.0360782 0.00566064 0.00152948 0.00133831 0.00130624 0.00058178 0.00049924 
99 0.440699 0.143103 0.102034 0.129712 0.0983993 0.0353364 0.0473679 0.00160173 0.00102362 0.00072328 
100 0.706144 0.121922 0.0214927 0.0541741 0.0144416 0.034392 0.00593745 0.0375994 0.00227642 0.00162064 
101 0.747376 0.106006 0.021207 0.0510741 0.0277739 0.0127865 0.0259047 0.00397461 0.00227642 0.00162064 
102 0.42425 0.120579 0.0889204 0.182209 0.0698344 0.0349476 0.0542006 0.00159212 0.00281996 0.0206471 
103 0.43699 0.134211 0.0834739 0.185296 0.0563946 0.0740362 0.0121397 0.0102055 0.00653985 0.000713078 
104 0.184706 0.0970353 0.0526956 0.567609 0.0544428 0.0291826 0.00927143 0.00212229 0.000896472 0.00203884 
105 0.41463 0.129909 0.0861472 0.0401157 0.0459551 0.144869 0.0893641 0.00435572 0.0174804 0.0271735 
106 0.274422 0.540955 0.0396777 0.0135655 0.034144 0.0011652 0.031159 0.0548944 0.00975698 0.000259448 
107 0.15527 0.232214 0.271797 0.0516759 0.0653949 0.026552 0.169275 0.00841842 0.00732181 0.0120807 
108 0.688299 0.107051 0.0267733 0.0265645 0.100955 0.0260178 0.00994837 0.0108648 0.00219352 0.00133366 
109 0.202829 0.659646 0.0496701 0.0810788 0.00359431 0.000926106 0.000810351 0.000790936 0.000352271 0.000302292 
110 0.426288 0.142484 0.026907 0.185107 0.18861 0.00996317 0.00839727 0.00161006 0.00210929 0.00852378 
111 0.781249 0.106525 0.0265767 0.041684 0.0114316 0.0234191 0.00294987 0.00241005 0.00219314 0.00156135 
112 0.39994 8.83694e-05 0.0999715 0 0.000114058 0.499886 0 0 0 0 
113 0.381757 0.158648 0.196852 0.14827 0.0647406 0.0126851 0.0160491 0.019261 8.95789e-06 0.00172828 
114 0.267745 0.15981 0.233789 0.189322 0.0968353 0.0174116 0.0255562 0.00720318 6.07398e-06 0.00232084 
115 0.131301 0.0999508 0.612277 0.0051215 0.129581 0.00447488 0.0120399 0.000108518 0.00357909 0.00156631 
116 0.188406 0 0.0723828 0.0268602 0.476048 0.236298 5.11786e-06 0 0 0 
117 0.454899 0.156964 0.0923222 0.072295 0.0376027 0.074601 0.0662774 0.00446389 0.0210217 0.0195532 
118 0.692492 0.129 0.0729746 0.0449397 0.0253726 0.0253884 0.00318164 0.00260032 0.00236628 0.00168462 
119 0.640774 0.149721 0.0765202 0.0490241 0.0322927 0.0222029 0.0126143 0.00231842 0.00211289 0.012419 
120 0.747374 0.131741 0.0218767 0.0341472 0.0130517 0.0131153 0.0034055 0.00282414 0.0306612 0.00180326 
121 0.729508 0.119309 0.022189 0.034635 0.0132381 0.0133026 0.00345415 0.00436359 0.0581716 0.00182901 
122 0.561053 0.365106 0.0237372 0.0158873 0.0156578 0.000993446 0.000818223 0.0158026 0.000943959 1.39131e-07 
123 0.761369 0.117746 0.0218765 0.0341471 0.0130517 0.0131153 0.0034055 0.00328307 0.0275477 0.00445787 
124 0.712113 0.102146 0.0134453 0.0941564 0.0255366 0.0154358 0.00926216 0.0247241 0.00217222 0.00100812 
125 0.544622 0.359803 0.0357612 0.0261178 0.00280207 0.00630636 0.0191052 0.00461659 0.000865292 1.27537e-07 
126 0.5567 0.160109 0.117313 0.073214 0.0341176 0.0462038 0.00812331 0.00194893 0.0013307 0.000940263 
127 0.423067 0.210801 0.0552392 0.186298 0.069352 0.0232447 4.07279e-06 1.78511e-05 0.00279864 0.0291772 
128 0.115864 0.110977 0.618938 0.0144358 0.0794684 0.0293814 0.0130106 0.000327947 0.015933 0.001663 
129 0.303418 0.133483 0.0456985 0.227038 0.19498 0.0625783 0.0243921 0.0035297 0.00149098 0.00339092 
130 0.754855 0.128486 0.0247375 0.050777 0.0153216 0.0143259 0.00371985 0.00304038 0.00276673 0.00196971 
131 0.206415 0.239487 0.298569 0.0447429 0.0655051 0.0150151 0.101252 0.00830072 0.00781652 0.012897 
132 0.711227 0.130103 0.0235225 0.0581583 0.0165779 0.0227777 0.00331227 0.00311088 0.0289112 0.00229969 
133 0.721119 0.131899 0.03546 0.0336734 0.0128704 0.0136757 0.0307428 0.0162842 0.00249774 0.00177821 
134 0.155791 0.241312 0.275412 0.0607589 0.106499 0.0163798 0.100875 0.00827575 0.0139449 0.020751 
135 0.758067 0.119321 0.022189 0.0357695 0.0251137 0.0145782 0.00352131 0.0170417 0.00256919 0.00182901 
136 0.464251 0.197426 0.130603 0.0478185 0.0329411 0.0679107 0.0292702 0.00386081 0.0151568 0.010762 
137 0.247658 0.658379 0.0162562 0.0221777 0.00557616 0.00150665 0.00131833 0.00670906 0.038545 0.00187366 
138 0.67932 0.16141 0.0390316 0.0768198 0.0221717 0.0117871 0.00306064 0.00250157 0.00227642 0.00162064 
139 0.50041 0.173904 0.0987917 0.0522325 0.0359818 0.0741794 0.0319721 0.00421719 0.0165559 0.0117555 
140 0.5 0 0 0 0 2.43608e-07 0.5 1.55603e-07 0 0 
141 0.599215 0.34545 0.0223808 0.0125822 0.00288197 0.000929274 0.000696285 0.00074527 0.0151134 6.30986e-06 
142 0.227302 0.604266 0.0167011 0.0331246 0.0290506 0.0426397 0.0193673 0.0265599 0.000536986 0.000451368 
143 0.331787 0.150685 0.121592 0.238175 0.042572 0.0694669 0.0255487 0.00460179 0.00166209 0.01391 
144 0.52906 0.252297 0.0547961 0.0962215 0.0420728 0.0139858 5.38861e-06 2.36183e-05 0.00306344 0.00847398 
145 0.119276 0.137294 0.376357 0.123725 0.100412 0.0508286 0 5.12299e-06 0.0776289 0.0144739 
146 0.561053 0.365106 0.0237372 0.0172501 0.0294419 0.000998119 0.000738484 0.000730855 0.000943955 1.39131e-07 
147 0.373138 0.161731 0.0569023 0.252713 0.0460923 0.0676506 0.0306739 0.00465763 0.00196726 0.00447413 
148 0.13846 0.119804 0.405734 0.104604 0.0847631 0.0429072 0 4.22355e-06 0.0756241 0.0280991 
149 0.234958 0.19669 0.22959 0.194238 0.104443 0.0179552 0.0141261 0.00556887 6.34595e-06 0.00242476 
150 0.725397 0.137706 0.0225426 0.0628456 0.0132454 0.0133026 0.00345415 0.00317933 0.0164333 0.00189443 
151 0.743418 0.127604 0.0376972 0.0518097 0.0140405 0.0141088 0.00366349 0.00299431 0.00272481 0.00193986 
152 0.738411 0.144016 0.0212772 0.0361992 0.0234051 0.0127559 0.00331484 0.0164024 0.00246425 0.00175385 
153 0.138307 0.261529 0.281221 0.0430498 0.0866084 0.0185921 0.101992 0.0236953 0.0189649 0.0260395 
154 0.234958 0.166966 0.244753 0.222769 0.0906302 0.0177971 0.0141261 0.00556887 6.34595e-06 0.00242476 
155 0.721553 0.15223 0.0228416 0.0356536 0.0136275 0.0136939 0.00355574 0.00333593 0.0313894 0.0021201 
156 0.244016 0.648697 0.0160175 0.0298541 0.0122642 0.0171162 0.0150119 0.00126782 0.000565967 0.0151891 
157 0.469185 0.159642 0.10335 0.0627803 0.0334454 0.083133 0.0296884 0.00391596 0.0164151 0.0384454 
158 0.218641 0.16926 0.227738 0.211757 0.0937867 0.0172674 0.0263072 0.00520274 7.2595e-05 0.0299674 
159 0.413322 0.163764 0.0628674 0.239401 0.0453463 0.040468 0.0225363 0.0051588 0.00217912 0.00495596 
160 0.389362 0.154541 0.0734435 0.218007 0.0502351 0.0383228 0.0355217 0.00689715 0.0153558 0.0183139 
161 0.705577 0.120152 0.0487657 0.0337666 0.0206144 0.0465804 0.0036869 0.0165803 0.00249774 0.00177821 
162 0.489891 0.169038 0.0987917 0.0522325 0.0359818 0.0741794 0.0319721 0.00712463 0.029018 0.0117705 
163 0.736259 0.122818 0.022868 0.0503331 0.0136275 0.0155225 0.0101672 0.0238779 0.00264466 0.00188281 
164 0.577404 0.166903 0.110203 0.0637384 0.0237889 0.0177852 0.00539827 0.00206705 0.00187815 0.0308335 
165 0.10477 0.120818 0.356414 0.14414 0.0954916 0.110975 0 3.38905e-06 0.0546751 0.0127136 
166 0.758569 0.12654 0.0235338 0.0367341 0.0164534 0.0266214 0.00388951 0.00299431 0.00272481 0.00193986 
167 0.542909 0.244975 0.0531604 0.0863527 0.0328889 0.0135676 5.22776e-06 0.000107142 0.013015 0.0130191 
168 0.489891 0.169038 0.0987917 0.0522325 0.0363202 0.0866862 0.0345116 0.00421719 0.0165559 0.0117555 
169 0.413322 0.163764 0.0628652 0.231389 0.0379765 0.0410783 0.0373085 0.00516105 0.00217912 0.00495596 
170 0 0 0 0 0.189166 0.810833 0 0 0 0 
171 0 8.42821e-07 0.999997 2.24797e-06 0 0 0 0 0 0 
172 0.758569 0.12654 0.0235338 0.0367341 0.0140405 0.0141088 0.00366349 0.00299431 0.00277871 0.0170375 
173 0.482469 0.166477 0.0972949 0.0514411 0.0357223 0.0905063 0.0435745 0.00463291 0.0163051 0.0115774 
174 0.758569 0.12654 0.0235338 0.0367341 0.0141223 0.0291785 0.00366349 0.00299431 0.00272481 0.00193986 
175 0.758319 0.12679 0.0235338 0.0367341 0.0146221 0.0285909 0.00375129 0.00299431 0.00272481 0.00193986 
176 0.579407 0.179972 0.110282 0.0637384 0.0237889 0.0177852 0.00539827 0.00236966 0.014928 0.0023295 
177 0.52906 0.252297 0.0547961 0.0896729 0.0485927 0.0140147 5.38861e-06 2.36183e-05 0.00306344 0.00847398 
178 0.159583 0.27101 0.309277 0.0633041 0.0630453 0.0130111 0.0878939 0.00929431 0.00889881 0.0146827 
179 0.40706 0.161283 0.0619385 0.242733 0.038974 0.052744 0.0231596 0.00508063 0.0021461 0.00488087 
180 0.489891 0.169038 0.0987917 0.0522325 0.0374022 0.0881437 0.0319721 0.00421719 0.0165559 0.0117555 
181 0.569685 0.370723 0.0241024 0.0135501 0.00310366 0.00100076 0.000749845 0.00097391 0.0161113 1.41271e-07 
182 0.402515 0.15561 0.0592209 0.217975 0.0419775 0.0811942 0.0299253 0.00486062 0.00205279 0.00466866 
183 0.255278 0.678637 0.0167564 0.0228601 0.00574773 0.00155301 0.00171153 0.0123477 0.00460131 0.000506921 
184 0.52906 0.252298 0.0547961 0.0890097 0.0339009 0.013985 5.38861e-06 2.36183e-05 0.00323224 0.0236898 
185 0.255341 0.693959 0.0167564 0.0228601 0.00574773 0.00155301 0.0013589 0.00132634 0.000590731 0.000506921 
186 0.184615 0 0.0614697 0.0316297 0.501087 0.221194 4.35147e-06 0 0 0 
187 0.758559 0.12655 0.0235745 0.0518446 0.0140407 0.0141088 0.00366349 0.00299431 0.00272481 0.00193986 
188 0.238518 0.169496 0.23294 0.196214 0.0970196 0.0423584 0.0153333 0.00565325 6.4421e-06 0.0024615 
189 0.754855 0.128486 0.0238958 0.0372992 0.015124 0.028843 0.00371986 0.00304038 0.00276673 0.00196971 
190 0.172174 0.267046 0.304586 0.0472125 0.0620757 0.0132318 0.101284 0.00916579 0.00876398 0.0144602 
191 0.52906 0.252297 0.0547961 0.0890097 0.0339009 0.013985 5.38861e-06 2.36183e-05 0.00420937 0.0227127 
192 0 0 0 0.999999 0 0 0 0 0 0 
193 0.159583 0.27101 0.309272 0.0479388 0.0630307 0.0130111 0.0878939 0.00929431 0.00950641 0.0294597 
194 0.743418 0.128455 0.0367655 0.0367384 0.0176895 0.0227673 0.00650753 0.00299431 0.00272481 0.00193986 
195 0.489891 0.169038 0.0987917 0.0522325 0.0359818 0.0741794 0.0321224 0.0194512 0.0165562 0.0117555 
196 0.754855 0.128486 0.0238958 0.0372992 0.0142565 0.0147677 0.0186626 0.00304038 0.00276673 0.00196971 
197 0.184615 0 0.0614697 0.0277353 0.495232 0.230943 4.35147e-06 0 0 0 
