0 2 2.25732e-07
0 3 0.0175817
0 4 0.0272426
0 5 0.22133
0 6 0.0414847
0 7 0.0949913
0 8 0.0814883
0 9 0.0569815
0 10 0.00302308
0 13 0.164742
0 17 0.00387043
0 19 8.16009e-05
0 20 0.00687592
0 21 0.0158211
0 22 0.0202771
0 25 7.43969e-05
0 29 0.00520061
0 30 0.000113581
0 32 0.087857
0 34 0.00296318
0 35 2.26581e-05
0 36 0.0328209
0 38 0.000532831
0 39 1.09539e-07
0 42 0.0279049
0 43 0.0295575
0 44 0.0126292
0 45 1.34759e-07
0 55 0.00397056
0 57 0.000397386
0 60 0.00253247
0 62 4.698e-07
0 64 0.00999407
0 65 0.00014664
0 70 1.0358e-07
0 71 4.18717e-07
0 76 1.13298e-06
0 77 0.000671158
0 93 0.000564486
0 94 0.000502109
0 96 1.66673e-05
0 97 0.00544676
0 109 0.00167131
0 110 0.00465743
0 111 1.39334e-07
0 114 4.64512e-05
0 122 1.10826e-07
0 123 0.00151952
0 128 1.646e-06
0 133 0.00766397
0 137 1.04719e-07
0 138 0.00108173
0 142 5.5502e-07
0 143 3.16408e-07
0 144 0.000911269
0 151 5.07068e-05
0 165 0.00114015
0 166 4.14077e-05
0 167 1.9241e-07
0 172 0.000437244
0 181 1.34335e-07
0 187 0.000505614
0 201 4.09835e-05
0 205 1.51822e-07
0 212 1.83512e-06
0 214 1.35504e-05
0 231 4.55114e-06
0 233 5.39109e-05
0 239 5.06921e-05
0 243 1.04386e-07
0 251 3.15226e-07
0 267 1.36243e-05
0 279 5.31219e-05
0 282 1.09256e-07
0 302 1.03348e-05
0 314 8.05634e-06
0 319 1.01359e-07
0 324 4.13018e-07
0 326 3.46221e-07
0 334 9.99105e-05
0 394 7.02957e-05
0 406 5.30946e-06
0 411 1.62586e-05
0 429 5.39879e-05
0 464 1.42651e-07
0 471 5.10216e-05
0 493 4.60268e-06
0 514 3.34152e-07
2 2 0.555158
2 19 0.0560374
2 28 0.000854517
2 33 0.000269666
2 36 3.84681e-07
2 37 0.208734
2 47 0.00120154
2 62 0.0237294
2 64 1.73466e-06
2 73 0.121692
2 77 0.000269511
2 86 0.0035269
2 102 0.00565987
2 108 0.0075156
2 109 8.52084e-07
2 133 7.54955e-06
2 166 4.29813e-06
2 180 0.000288207
2 202 0.00937729
2 209 0.00168984
2 256 0.000766082
2 262 2.74458e-07
2 272 0.00129523
2 354 0.00107808
2 398 6.6741e-07
2 406 1.85359e-06
2 448 0.00053904
2 490 0.000267006
2 513 3.305e-05
3 2 0.000447941
3 3 0.868871
3 4 0.00176408
3 5 0.000215117
3 6 1.06759e-05
3 7 0.000389149
3 8 0.0227135
3 9 0.00224057
3 10 0.00301174
3 13 9.6633e-07
3 17 0.000683878
3 18 0.00104858
3 19 0.0119835
3 20 2.24674e-07
3 21 0.000625814
3 29 1.13448e-05
3 30 0.00341622
3 32 0.000469872
3 34 0.00325481
3 35 0.000601923
3 36 0.0301005
3 37 1.94992e-05
3 42 6.99574e-06
3 43 0.00191732
3 48 0.000350885
3 57 0.000631874
3 61 0.000351831
3 63 0.000405367
3 64 0.00506728
3 77 0.000350744
3 88 0.000695284
3 92 0.000342351
3 94 0.000358466
3 96 2.13487e-07
3 97 0.00215808
3 110 0.000412399
3 111 0.000695375
3 126 0.000342495
3 138 0.0110851
3 139 0.000342594
3 142 0.00037874
3 143 0.00174782
3 144 1.83162e-06
3 160 0.000342571
3 163 0.0017161
3 165 0.000228718
3 183 0.00145405
3 187 0.00235162
3 191 0.000342477
3 202 1.11798e-06
3 217 0.00153779
3 228 0.000720382
3 233 0.00100815
3 239 0.000714665
3 240 0.000351811
3 247 0.000442514
3 279 0.000382471
3 280 0.00237183
3 282 0.000343064
3 287 0.000353693
3 324 0.00028002
3 349 4.74986e-07
3 355 0.00137217
3 356 0.000684948
3 371 0.000343136
3 389 0.000685073
3 398 5.73147e-07
3 412 0.000343573
3 434 0.000342463
3 437 3.86638e-05
3 445 0.000350148
3 450 0.000342415
3 451 0.000343232
3 454 0.00034268
3 498 0.000342477
4 4 0.0298261
4 6 7.46354e-05
4 7 5.98241e-07
4 8 0.274315
4 9 0.000414246
4 10 0.0152961
4 20 1.19615e-06
4 21 0.104385
4 34 0.0449995
4 43 0.415604
4 65 0.0110326
4 77 0.00103173
4 93 2.13585e-06
4 94 0.0870536
4 96 8.71061e-07
4 110 7.94204e-06
4 114 4.92098e-07
4 130 1.59546e-07
4 133 7.37549e-05
4 142 0.00853496
4 172 2.35166e-06
4 205 1.1666e-07
4 217 0.00401059
4 228 5.52451e-07
4 233 2.03736e-07
4 251 0.00166923
4 267 3.55115e-07
4 279 2.22925e-05
4 299 6.3017e-07
4 306 0.00163705
4 513 1.78465e-06
5 4 1.38602e-06
5 5 2.22091e-06
5 9 0.00430681
5 10 9.12874e-05
5 18 0.916354
5 68 1.30401e-05
5 71 0.00332194
5 96 2.0686e-07
5 114 0.00333126
5 144 0.00167043
5 146 0.000152565
5 148 0.00332158
5 172 0.00339072
5 228 0.0117881
5 245 0.00166105
5 247 0.00473725
5 251 0.00636919
5 267 5.12455e-06
5 284 6.29328e-07
5 289 0.00654416
5 299 8.06697e-07
5 333 0.0132883
5 345 0.0030332
5 348 0.00332194
5 387 0.0132918
5 533 1.53385e-07
6 4 0.0629514
6 5 0.000740568
6 6 7.72202e-05
6 7 0.00237539
6 8 0.128098
6 9 0.18854
6 10 0.00186228
6 13 1.64368e-05
6 21 0.0344966
6 22 0.000315892
6 29 0.0944179
6 30 0.127039
6 31 0.00201301
6 32 2.57118e-07
6 34 0.00275141
6 36 0.00127385
6 38 0.0408478
6 39 0.045898
6 40 0.00632909
6 41 0.000701794
6 42 0.0053806
6 43 0.064259
6 44 8.417e-05
6 49 0.0025719
6 50 0.0124156
6 51 0.0191218
6 52 0.00529011
6 55 0.000875662
6 57 3.53411e-05
6 58 0.0006792
6 62 1.84828e-06
6 64 6.9506e-06
6 65 0.00260809
6 66 0.000671001
6 70 0.00134262
6 71 0.00134074
6 74 0.00539783
6 75 0.000673394
6 76 0.00248654
6 77 0.0177659
6 79 0.00193856
6 83 0.000808017
6 88 0.0157591
6 90 0.00257544
6 94 0.0118538
6 95 0.000335749
6 96 0.00331776
6 97 4.58142e-05
6 108 0.00136408
6 109 0.00279248
6 110 0.0103162
6 111 0.000921106
6 114 0.0016749
6 118 0.000766304
6 122 0.000670437
6 123 0.00199608
6 126 0.000672977
6 127 0.00201523
6 128 0.00484128
6 130 0.000440641
6 133 0.00202718
6 134 0.00100717
6 138 0.00396308
6 142 0.00161563
6 143 0.000673257
6 144 2.99999e-05
6 145 0.00033563
6 146 0.00104257
6 148 0.00134209
6 152 0.000335515
6 163 0.000335758
6 165 1.62893e-06
6 170 0.00100643
6 172 2.73378e-05
6 174 0.00034884
6 183 4.88136e-06
6 187 5.03294e-05
6 189 0.000335518
6 199 0.001965
6 201 0.000255082
6 204 0.000335813
6 205 0.000334555
6 216 0.0006708
6 225 0.000673342
6 228 0.00318278
6 233 1.5731e-06
6 246 0.000342106
6 247 0.002061
6 252 0.00301952
6 267 0.000279287
6 269 0.000335511
6 279 0.00163581
6 287 0.000670475
6 289 0.000813844
6 302 0.000269648
6 310 0.00067088
6 314 0.000290389
6 316 0.000670992
6 324 7.84224e-05
6 334 0.000331116
6 340 0.000349476
6 344 0.000670877
6 346 0.00201124
6 348 0.000671106
6 349 0.000338823
6 367 0.00102099
6 368 0.000336087
6 373 0.000671029
6 374 0.00067166
6 379 5.35024e-07
6 394 0.000607083
6 395 0.00167753
6 419 0.000335516
6 431 0.000335249
6 437 0.000381015
6 438 0.00134206
6 451 0.000671594
6 452 0.00033527
6 464 0.000675042
6 491 0.000670905
6 493 0.000640917
6 507 0.000670686
6 512 0.000335515
6 520 0.00134214
6 521 0.00067103
6 528 0.000335556
7 4 0.301953
7 5 1.02661e-06
7 7 2.83896e-06
7 8 0.00636741
7 9 0.205443
7 20 4.55704e-07
7 21 0.000665327
7 22 0.000487254
7 29 0.000677273
7 30 0.0774231
7 34 1.34043e-05
7 36 1.63983e-07
7 38 0.00828729
7 39 0.00511016
7 42 0.00023357
7 43 0.0102516
7 44 5.16368e-06
7 49 0.106757
7 51 0.00141734
7 55 7.07728e-07
7 60 3.31142e-05
7 62 0.00708237
7 70 0.00301369
7 74 0.00643396
7 75 4.48805e-06
7 77 1.17678e-07
7 79 0.000835392
7 83 0.014071
7 88 2.52794e-05
7 110 0.000297384
7 111 1.58006e-07
7 118 0.0707648
7 120 0.001793
7 128 0.0339677
7 130 0.00786293
7 133 0.0267188
7 138 7.00235e-07
7 146 0.0951621
7 148 5.51485e-06
7 164 0.00412346
7 183 0.00108572
7 185 4.07781e-07
7 199 2.27599e-06
7 251 0.00160326
7 284 2.53371e-07
7 289 1.18186e-05
7 316 1.32878e-07
7 340 1.47414e-07
7 344 7.37857e-07
7 452 6.3713e-07
8 4 0.0499624
8 5 3.50116e-07
8 8 0.00916103
8 9 0.0757533
8 10 0.00504598
8 21 2.80299e-06
8 29 0.0670223
8 30 0.122888
8 34 0.00329626
8 36 0.00656696
8 38 0.0260064
8 39 0.00857656
8 42 0.021631
8 43 0.0454341
8 44 0.00908479
8 45 0.00567428
8 49 0.0202763
8 50 0.0068615
8 51 0.00343066
8 55 1.51076e-07
8 57 7.49305e-07
8 60 0.00443617
8 64 1.12102e-05
8 74 0.0204531
8 75 0.00343079
8 76 0.00885181
8 77 0.0235883
8 79 0.00301035
8 83 0.0104324
8 88 0.0274453
8 97 0.012123
8 110 0.0137596
8 113 0.00173629
8 118 0.0306986
8 120 0.0032124
8 123 0.0165949
8 128 0.0135498
8 130 0.0377125
8 131 0.0223
8 132 0.0840548
8 133 0.000153852
8 138 0.00676982
8 144 0.00660808
8 146 7.15769e-06
8 148 0.0017098
8 152 0.00343078
8 156 0.0531775
8 165 0.00298493
8 186 0.00171531
8 187 0.00509195
8 188 0.00514621
8 199 0.00171538
8 212 0.0034033
8 217 0.00343138
8 246 0.00171877
8 252 0.00343075
8 279 0.00169981
8 280 0.00171539
8 297 0.00171537
8 314 0.00510829
8 319 0.00171537
8 342 0.0017154
8 346 0.00171538
8 357 0.00171534
8 358 0.00171535
8 369 0.00857696
8 379 0.00343079
8 380 0.00343079
8 383 0.00514619
8 384 0.00514621
8 385 0.00514621
8 389 0.0017154
8 394 3.7143e-06
8 489 0.00857698
8 512 0.0017154
8 534 0.0034308
8 536 0.00343068
8 539 0.0017154
8 552 0.00514615
9 2 8.99343e-07
9 3 0.418866
9 5 0.0014541
9 6 0.000877151
9 7 0.420306
9 8 0.0999265
9 9 2.49875e-06
9 19 5.31745e-07
9 30 2.17196e-07
9 32 7.84232e-06
9 36 3.3818e-06
9 42 0.000952341
9 43 0.0116633
9 77 7.18901e-07
9 79 1.47824e-06
9 93 0.0068589
9 94 0.00814074
9 142 0.0133026
9 143 0.0147754
9 144 1.77388e-07
9 187 1.32077e-07
9 218 5.54736e-05
9 280 1.85608e-05
9 320 0.00277265
9 340 1.19697e-07
9 343 1.16813e-05
10 4 0.244256
10 10 0.00296815
10 37 0.0383517
10 40 0.0384234
10 44 0.0780186
10 45 0.0408774
10 49 0.0191795
10 64 1.33816e-05
10 83 0.0978539
10 84 0.0191673
10 85 0.0191673
10 88 0.019086
10 142 0.0191463
10 144 0.0382589
10 212 0.095277
10 241 0.0766166
10 260 0.0383346
10 262 0.0191673
10 337 0.0383347
10 348 0.0191673
10 393 0.0191673
10 548 0.0191673
11 3 3.51521e-05
11 5 8.70611e-06
11 6 0.00254713
11 7 8.52084e-06
11 8 0.103462
11 9 2.02799e-06
11 19 0.00790947
11 20 0.287946
11 21 0.0193214
11 32 0.143942
11 34 0.0467773
11 38 7.08123e-07
11 43 0.00119748
11 60 2.66967e-07
11 62 0.0308929
11 73 0.164238
11 74 1.8633e-06
11 77 1.40017e-07
11 89 3.80223e-06
11 93 6.72825e-07
11 111 0.0963185
11 121 0.085855
11 142 5.03121e-07
11 151 0.0015548
11 184 0.00787686
11 185 4.15193e-07
11 335 9.85834e-05
12 2 0.00119611
12 4 0.201746
12 9 1.56222e-07
12 18 0.0012057
12 21 0.0117102
12 30 9.125e-05
12 36 0.291591
12 37 0.0710863
12 38 6.52551e-05
12 40 0.00384167
12 41 0.0717043
12 42 0.0886084
12 45 1.5938e-05
12 49 0.00317033
12 60 1.01756e-06
12 65 8.47235e-06
12 73 0.00241535
12 76 0.00195882
12 83 0.0649213
12 85 0.00477934
12 88 0.0378933
12 93 1.83906e-06
12 118 0.0973356
12 120 0.00124283
12 121 0.00120547
12 128 0.00243063
12 130 0.000170474
12 146 0.00245864
12 147 0.00352295
12 173 0.00239153
12 221 0.00122478
12 236 0.004783
12 262 0.00238976
12 263 0.00119729
12 282 1.0447e-07
12 290 0.00597858
12 291 0.00597858
12 335 0.00128783
12 372 0.00121457
12 382 0.00239142
12 475 8.87104e-07
12 511 0.00478287
13 3 6.61868e-05
13 5 0.0464094
13 6 3.68796e-07
13 7 0.00824232
13 8 0.00551461
13 9 0.00283388
13 13 0.000495577
13 17 0.00735866
13 30 1.83684e-07
13 32 7.13868e-05
13 34 4.28612e-07
13 36 0.0190232
13 42 0.00657538
13 43 0.0664917
13 44 5.85689e-07
13 48 0.0318042
13 49 1.03359e-06
13 62 0.0692668
13 64 0.039598
13 73 0.0140624
13 77 3.65563e-06
13 96 0.0175876
13 110 0.183472
13 126 0.00873892
13 133 0.00479834
13 137 0.00437236
13 138 0.129701
13 142 0.0916918
13 143 0.0491552
13 144 0.017046
13 145 0.00874231
13 160 0.0131008
13 161 0.00874373
13 162 0.00874374
13 166 0.00514105
13 184 0.00437113
13 199 0.0130625
13 201 2.43644e-05
13 217 0.00720413
13 218 0.00437114
13 236 0.00874442
13 239 2.13233e-07
13 267 0.0131263
13 271 0.00437195
13 302 0.00434924
13 312 0.0445366
13 379 0.00436454
13 397 0.00437454
13 431 0.00512829
13 441 0.00874286
13 461 0.00437195
14 4 4.68297e-05
14 17 0.0288577
14 19 0.0133349
14 29 0.0952646
14 30 0.0245314
14 36 4.26319e-07
14 39 0.0302022
14 41 0.00439895
14 42 5.28895e-06
14 48 0.0263073
14 57 0.0129294
14 60 0.0187016
14 62 0.0216619
14 64 0.010429
14 69 0.0993978
14 70 0.0864281
14 71 0.0682721
14 72 0.0561783
14 74 0.00100765
14 76 0.0042696
14 79 0.038892
14 85 0.0216827
14 90 0.0130526
14 93 0.0215906
14 95 0.00432142
14 111 0.0441714
14 114 0.00861742
14 123 0.0376332
14 141 0.0172901
14 165 0.00113039
14 181 0.0172906
14 191 0.0041258
14 200 0.0223139
14 237 0.0302495
14 238 0.0172854
14 245 0.00432142
14 247 0.00740094
14 348 0.00864276
14 350 0.00864284
14 392 0.00430132
14 406 0.00864058
14 416 0.00864279
14 456 0.00432142
14 473 0.0172856
14 523 0.0129642
14 549 0.0129642
15 6 9.89463e-06
15 7 1.8656e-07
15 8 0.547529
15 9 3.05344e-06
15 21 0.350681
15 30 0.00283327
15 32 6.4625e-07
15 60 0.00372117
15 65 0.0206547
15 76 0.00832268
15 89 3.94012e-05
15 90 0.00588192
15 94 0.0515166
15 140 0.00293487
15 254 0.00293775
15 255 0.00293433
16 6 2.0904e-06
16 10 0.0219913
16 17 0.0126166
16 29 0.0126719
16 30 0.121403
16 32 4.13037e-07
16 42 8.20561e-06
16 45 0.00864841
16 60 0.078065
16 68 0.0107476
16 76 0.037348
16 83 0.042513
16 90 0.172315
16 93 0.0108288
16 120 0.0215045
16 123 0.0096729
16 144 0.00983473
16 166 0.0214952
16 237 0.0215023
16 238 0.0322178
16 253 0.0429905
16 254 0.0859682
16 255 0.0644852
16 260 0.0107476
16 263 0.0107254
16 286 0.0107476
16 303 0.0107476
16 308 0.0214953
16 342 0.0214953
16 369 0.0214953
16 373 0.0107476
16 374 0.0107248
16 414 0.0214952
16 442 0.0107476
17 3 1.64614e-06
17 9 0.00507384
17 20 7.77171e-06
17 21 7.26664e-05
17 43 0.0398032
17 75 0.125156
17 89 4.16866e-06
17 133 0.339663
17 142 0.000625631
17 146 0.268546
17 187 0.0328672
17 393 0.0313538
17 412 0.0627395
17 475 0.0313465
17 542 0.0627386
18 3 0.000835454
18 4 7.83334e-05
18 5 3.13841e-06
18 8 0.00833681
18 9 0.112025
18 20 0.023519
18 21 1.46054e-05
18 43 0.032152
18 48 0.454977
18 55 3.65842e-07
18 89 0.0276938
18 94 0.0885778
18 120 0.135111
18 133 2.06393e-05
18 142 0.00155238
18 151 0.106579
18 239 7.6323e-07
18 307 0.00852281
19 3 1.66887e-07
19 19 0.293496
19 33 0.0044714
19 40 0.0134471
19 42 8.63943e-06
19 64 0.239144
19 73 0.00523351
19 76 0.00447583
19 79 0.00888127
19 93 0.000421725
19 94 1.51756e-07
19 109 0.00450036
19 122 0.210842
19 141 0.00894851
19 142 0.000266268
19 193 0.00447426
19 195 0.0492167
19 318 0.00447426
19 321 0.0134229
19 322 0.0134229
19 333 0.00894832
19 343 0.0134228
19 348 0.00894851
19 406 0.0269567
19 429 0.00440268
19 445 0.0134312
19 446 0.0313202
19 447 0.00894855
19 483 0.00447319
20 2 0.0216675
20 16 0.0216171
20 19 0.0282097
20 29 0.020402
20 30 0.0212359
20 48 0.079565
20 59 0.0216171
20 61 0.0216171
20 62 0.0216971
20 63 0.0216171
20 64 0.000129195
20 71 0.0216143
20 72 0.0216169
20 79 0.0207475
20 89 0.0024586
20 96 0.0215094
20 109 0.0421609
20 149 0.043326
20 154 0.0216171
20 165 0.0211178
20 217 0.0728705
20 238 0.0216171
20 240 0.0216171
20 251 0.0216009
20 305 0.043234
20 324 0.0430665
20 355 0.0216158
20 381 0.0216166
20 406 0.0431954
20 443 0.043229
20 445 0.0427092
20 446 0.0432333
20 522 0.0432343
20 559 0.0216171
21 8 7.2348e-06
21 9 2.91733e-05
21 10 0.0994816
21 45 0.00500453
21 48 0.289144
21 71 0.0329668
21 79 0.0250465
21 89 7.84982e-06
21 107 0.0274528
21 140 0.0823585
21 144 0.082354
21 193 0.0807803
21 279 6.04222e-06
21 324 0.0276658
21 332 0.0549034
21 351 0.0823585
21 394 0.0256021
21 402 0.0274528
21 406 0.00247041
21 443 0.0274595
21 454 0.0274484
22 11 0.0409321
22 17 0.147797
22 40 0.0412033
22 93 0.117704
22 128 0.000138193
22 133 0.237507
22 176 0.0818224
22 202 0.00720746
22 228 0.0409067
22 295 0.121236
22 387 0.0408272
22 406 0.040897
22 410 0.0409112
22 470 0.0409104
23 10 0.076406
23 11 0.0764987
23 12 0.0764994
23 20 0.0305075
23 39 0.0306026
23 40 0.0949463
23 48 6.98552e-05
23 62 0.0306706
23 64 0.111164
23 73 0.050682
23 85 0.0612052
23 89 0.0153013
23 93 0.04589
23 151 0.00886141
23 155 0.107109
23 202 0.0459039
23 272 0.0152725
23 329 0.0153013
23 348 0.0459034
23 353 0.0306026
23 554 0.0306026
24 2 0.0370375
24 15 0.0736071
24 29 0.0455565
24 48 0.0996078
24 55 0.000216083
24 64 1.20417e-05
24 73 0.158679
24 89 0.0356591
24 108 0.0184017
24 141 0.0184772
24 165 0.0363714
24 248 0.0196066
24 273 0.0184016
24 300 0.0920094
24 331 0.128812
24 358 0.0184017
24 359 0.0184019
24 406 0.107134
24 429 0.0184019
24 471 0.0184018
24 475 0.0184018
24 555 0.0184019
25 2 0.000232122
25 4 0.0127873
25 7 1.05637e-06
25 8 0.294723
25 19 1.61224e-07
25 29 3.53343e-07
25 32 3.72137e-05
25 37 0.00599349
25 40 0.655026
25 43 9.38361e-07
25 48 0.00542428
25 64 0.00145571
25 96 7.98216e-07
25 133 6.0768e-05
25 146 0.00546239
25 149 2.73791e-07
25 172 0.000254693
25 181 0.00471448
25 205 5.76488e-07
25 208 0.00929612
25 215 8.80034e-06
25 246 1.37401e-05
25 406 0.0045048
26 8 5.79377e-05
26 12 0.00673879
26 19 0.0476014
26 21 4.6546e-07
26 29 0.0862355
26 30 0.0753428
26 32 0.0470521
26 39 0.00303941
26 40 0.00678677
26 41 0.00673661
26 42 0.000261779
26 43 0.0224954
26 45 0.00337006
26 48 0.0270535
26 59 0.00336836
26 62 0.0479962
26 63 0.0404235
26 64 0.0807842
26 69 0.00336834
26 71 0.00339822
26 73 0.0437119
26 76 0.0168414
26 79 0.0167708
26 84 0.00336848
26 89 0.00336837
26 93 0.00666436
26 111 0.0605702
26 112 0.0168418
26 114 0.00333587
26 117 0.0101049
26 133 0.0159486
26 135 0.00336832
26 141 0.0168416
26 142 0.00336823
26 155 0.0168414
26 165 0.000871209
26 173 0.0471571
26 181 0.00336801
26 183 0.00664574
26 190 0.0134732
26 195 0.00673681
26 200 0.0101034
26 202 0.00337011
26 204 0.00336837
26 223 0.0033683
26 236 0.00673673
26 240 0.00336109
26 243 0.00336837
26 260 0.00336837
26 268 0.00673669
26 276 0.00336837
26 280 0.00671237
26 282 0.00673665
26 294 0.0269468
26 299 0.00673661
26 303 0.00336822
26 317 0.00673673
26 327 0.00336836
26 330 0.00336837
26 338 0.00673672
26 348 0.0101048
26 352 0.0033682
26 360 0.00673658
26 391 0.003368
26 428 0.00336832
26 429 0.0167788
26 473 0.00336835
26 553 0.00673673
27 17 0.0274657
27 19 0.0554894
27 30 0.0269224
27 35 0.0552342
27 42 0.0105314
27 48 0.0998696
27 62 0.00923326
27 64 0.112868
27 182 0.0184722
27 184 0.00921894
27 197 0.277064
27 198 0.0831326
27 231 0.00923612
27 240 0.0461802
27 362 0.00923605
27 363 0.0297767
27 365 0.00923611
27 369 0.0184722
27 370 0.0461806
27 371 0.0184722
27 455 0.0184722
27 535 0.0092361
28 18 0.0461344
28 19 0.025031
28 42 4.89046e-05
28 43 1.26041e-05
28 44 0.000490027
28 48 8.41796e-05
28 62 0.0658101
28 64 0.0185592
28 65 0.0560768
28 73 0.345248
28 76 4.58464e-06
28 91 0.0224739
28 93 0.00776447
28 114 0.00225763
28 126 0.0337113
28 127 0.0449412
28 128 0.195153
28 142 7.73672e-05
28 193 0.0343583
28 202 0.0230897
28 206 0.0112569
28 282 0.022472
28 436 0.0224677
28 483 1.58147e-06
28 530 0.0224743
29 12 0.00839724
29 14 0.132136
29 15 4.87706e-07
29 16 0.0108298
29 17 0.337403
29 28 0.0146913
29 35 0.266559
29 64 0.0975281
29 71 0.00209903
29 79 0.00839724
29 157 0.0114967
29 186 0.00209922
29 189 1.44405e-06
29 214 0.00784317
29 217 0.00244335
29 256 0.00238822
29 258 0.00209763
29 259 0.00629762
29 287 0.00413314
29 308 0.000109907
29 363 0.00419863
29 398 0.0104868
29 399 0.00839709
29 407 0.00629795
29 408 0.00419858
29 411 0.00353253
29 445 0.00419862
29 465 0.0104958
29 470 0.0167945
29 471 2.70348e-05
29 487 0.00419854
29 513 0.0060374
29 514 0.004185
30 4 5.15766e-07
30 8 3.27645e-06
30 13 6.1422e-07
30 14 0.0256707
30 15 0.349596
30 16 0.439452
30 17 0.0187265
30 21 0.00540004
30 28 2.5525e-07
30 33 0.0186109
30 36 0.0123936
30 38 1.0096e-07
30 43 0.00159085
30 49 0.0126181
30 56 0.00164576
30 59 0.00985547
30 61 0.0184985
30 64 2.11817e-07
30 93 8.05211e-05
30 103 0.00271347
30 109 0.00401421
30 139 0.0139474
30 140 0.00135898
30 151 1.25959e-06
30 157 0.000710356
30 158 0.0122098
30 181 0.00163113
30 187 0.000188785
30 188 0.0149144
30 189 0.0210024
30 190 7.74763e-06
30 214 5.35246e-07
30 231 0.00228982
30 246 1.46429e-07
30 257 0.0013614
30 258 7.96175e-07
30 308 0.00264247
30 334 8.71765e-05
30 425 1.55195e-06
30 465 3.85013e-07
30 471 0.0013451
30 488 0.00271349
30 537 0.0027134
31 64 0.00147463
31 85 0.188356
31 101 0.223947
31 130 0.195331
31 204 0.195446
31 233 0.195446
32 6 0.366742
32 8 0.000449289
32 9 0.46337
32 17 3.45737e-05
32 29 1.44858e-05
32 43 0.000129726
32 60 0.114288
32 217 0.0549713
33 2 2.19544e-07
33 4 2.26339e-06
33 6 3.23482e-06
33 7 6.36123e-07
33 8 0.0508757
33 9 5.10429e-05
33 17 2.60723e-07
33 20 0.079456
33 21 0.295146
33 32 0.0754968
33 43 8.47786e-05
33 48 0.409845
33 89 0.0128801
33 94 0.0135369
33 142 0.0538579
33 280 3.24934e-07
33 513 3.51669e-07
33 524 0.00876252
34 4 5.51554e-05
34 8 0.000288945
34 9 1.47997e-06
34 20 0.000196021
34 29 2.92184e-07
34 33 0.0109451
34 43 0.0042966
34 44 9.61369e-05
34 48 7.01363e-05
34 79 0.012467
34 89 0.0766147
34 94 8.01298e-06
34 97 0.166963
34 123 0.0569646
34 133 0.0172784
34 142 0.0485992
34 143 0.0539547
34 151 0.0507567
34 165 0.0444258
34 187 0.0677842
34 205 0.0432412
34 239 0.0208188
34 275 0.043235
34 284 0.129728
34 285 0.0324261
34 406 0.0971674
34 409 0.0216175
35 12 0.242044
35 21 2.34312e-07
35 22 0.0705813
35 23 0.0855037
35 24 0.0110367
35 25 1.42076e-05
35 26 0.263637
35 27 0.12113
35 35 3.62828e-07
35 38 0.00712713
35 43 1.26115e-06
35 44 0.0136223
35 45 2.5771e-07
35 46 0.110442
35 55 0.0141808
35 77 2.57475e-06
35 133 8.49616e-05
35 155 0.00359862
35 164 0.00356235
35 180 0.00712529
35 193 0.010688
35 201 1.40998e-07
35 215 0.0142413
35 265 0.00356264
35 323 0.0106879
35 527 0.00356261
35 532 0.00356263
36 8 0.000689569
36 12 0.00242548
36 20 0.00053556
36 22 2.22388e-05
36 24 0.145805
36 25 0.15491
36 34 0.0089758
36 35 0.00907915
36 43 0.0128533
36 44 0.326389
36 46 1.63701e-06
36 55 0.00150998
36 77 0.0275111
36 94 0.0163019
36 109 0.00124695
36 110 0.0987627
36 138 0.0270228
36 143 0.0279572
36 201 0.129347
36 346 0.00865311
37 4 0.000260635
37 10 0.00704833
37 17 0.00623507
37 19 0.268122
37 34 0.000169673
37 35 0.00712912
37 41 0.00641384
37 42 0.0194891
37 43 0.00503041
37 48 0.0352595
37 52 1.00988e-06
37 64 0.225968
37 71 0.0211671
37 73 0.0431694
37 89 0.0141094
37 94 0.0140795
37 97 1.22359e-06
37 109 0.00764964
37 114 0.0141116
37 122 0.141118
37 127 0.00705579
37 142 0.0140541
37 166 0.00705587
37 172 0.000908823
37 191 0.00705583
37 195 0.0354567
37 210 0.00705592
37 211 0.00705314
37 228 0.0214215
37 247 0.0141119
37 289 0.00695677
37 297 0.00705567
37 321 0.00705716
37 391 0.00705533
37 403 0.0070559
37 495 0.00705593
38 28 0.452439
38 38 6.32114e-07
38 47 0.536487
38 89 1.61232e-05
38 133 1.33653e-06
38 284 0.00330173
38 452 0.00258461
38 493 0.00258441
38 494 0.0025851
39 4 2.01265e-07
39 5 1.39274e-07
39 8 0.000169034
39 20 0.015533
39 28 0.116473
39 32 2.75931e-05
39 40 0.00803151
39 43 0.0104302
39 47 0.549358
39 48 0.164991
39 52 0.00800786
39 68 0.0157136
39 71 0.00785807
39 92 0.00785762
39 94 5.55063e-07
39 111 0.00788599
39 114 0.00786019
39 120 0.00785776
39 142 0.0236658
39 143 2.67275e-07
39 172 0.00888878
39 228 0.0157104
39 239 0.00784437
39 247 0.00785741
39 279 0.000120411
39 432 0.00785655
40 4 0.00623859
40 8 0.00961659
40 9 1.24967e-07
40 14 0.00227209
40 16 0.00396024
40 17 1.19944e-05
40 21 0.000208691
40 22 9.73973e-05
40 29 0.0740913
40 32 0.00695665
40 33 0.0406604
40 36 0.00585367
40 38 0.0174762
40 44 0.116875
40 45 0.00242959
40 49 0.0100679
40 55 0.0345865
40 56 0.0554652
40 57 0.0561487
40 58 0.0192803
40 59 0.0376162
40 60 0.0496634
40 61 0.0992719
40 74 0.00214235
40 93 0.0250768
40 94 0.017135
40 104 0.00856897
40 110 0.0482017
40 128 0.00423804
40 133 0.00081876
40 138 0.0190542
40 139 0.0345144
40 158 1.501e-06
40 165 0.000817768
40 181 0.00423147
40 187 0.0295066
40 188 0.0599824
40 189 0.0578226
40 190 0.0064637
40 212 0.004279
40 215 0.00642543
40 231 0.00262286
40 245 0.00214229
40 246 0.002142
40 247 0.00214217
40 257 0.00214168
40 324 0.00201994
40 348 0.00214223
40 423 0.00223574
40 425 0.00428134
41 9 0.239007
41 13 1.21074e-07
41 16 0.0195188
41 17 0.0594461
41 19 0.0194013
41 21 1.86891e-06
41 29 0.0345786
41 34 0.00962254
41 36 3.27844e-05
41 39 0.026516
41 45 0.087406
41 55 3.81318e-05
41 83 0.0383688
41 89 0.0290929
41 111 0.0290368
41 113 0.0388526
41 119 0.0373377
41 120 0.0618235
41 131 0.029585
41 133 0.0117014
41 142 0.0203681
41 144 0.00428451
41 151 6.01683e-07
41 204 0.0388443
41 236 0.0194248
41 239 0.00971308
41 250 0.0194417
41 281 0.00971318
41 367 0.0194237
41 393 0.0291389
41 492 0.0194264
41 496 0.00971303
41 525 0.00971301
41 550 0.0194264
42 8 0.000970364
42 9 0.000708612
42 14 0.0678204
42 15 0.0781005
42 16 0.0709768
42 17 0.317643
42 20 5.38158e-05
42 21 0.00340237
42 25 0.0339399
42 40 0.0690114
42 71 0.0339101
42 89 0.000589917
42 94 0.0163942
42 111 0.0339102
42 115 0.0339102
42 221 0.0677845
42 256 0.0353677
42 282 2.76572e-06
42 305 0.0339569
42 343 0.0339084
42 501 0.0337276
42 526 0.0339102
43 8 0.00106321
43 12 0.305869
43 22 0.0723057
43 23 4.86601e-07
43 24 0.00544253
43 25 0.000370886
43 26 0.307456
43 27 0.10607
43 35 0.00311715
43 44 0.117316
43 55 0.018849
43 94 1.71293e-06
43 155 0.014386
43 164 0.00101697
43 167 0.00717601
43 168 0.0167155
43 190 0.00229572
43 201 0.00233286
43 212 0.00201219
43 241 0.00506043
43 325 0.0010187
43 326 0.00309018
43 365 0.00586374
43 451 0.00100842
43 474 0.000161537
44 12 0.00430783
44 22 9.95081e-05
44 23 0.105165
44 25 0.161795
44 26 2.32009e-07
44 45 0.183566
44 46 0.192375
44 55 0.00191444
44 60 4.79856e-05
44 65 0.0221827
44 91 0.00191217
44 92 0.00191209
44 94 0.0106374
44 115 0.147227
44 155 0.0590857
44 167 0.0015983
44 181 0.0151438
44 190 0.0054308
44 201 0.00178764
44 214 0.0019121
44 230 0.030593
44 231 0.0152967
44 323 0.003824
44 324 0.00382418
44 325 0.0191071
44 427 0.00191207
44 474 0.00160663
44 476 0.00382425
44 499 0.00191213
45 15 0.00427549
45 16 0.00419714
45 21 5.10561e-06
45 22 0.058751
45 37 0.00424802
45 44 0.0103406
45 45 0.328206
45 55 0.116585
45 64 0.00772143
45 87 0.00417317
45 105 0.000197339
45 113 0.0584097
45 119 0.160189
45 120 0.0408101
45 121 4.78718e-07
45 123 1.12448e-07
45 131 0.0210774
45 132 1.43227e-06
45 140 0.0208727
45 143 1.00749e-07
45 159 1.24911e-07
45 160 0.0166856
45 212 0.0209508
45 222 0.00417313
45 223 0.00417714
45 224 0.0166936
45 228 0.0178312
45 234 0.0125202
45 250 0.00429939
45 281 0.0125201
45 334 0.00418038
45 344 0.00417313
45 354 0.00417341
45 378 0.0125202
45 383 0.00417342
45 406 0.00834653
45 474 0.00834683
45 496 0.00417331
46 15 0.0243931
46 17 0.0181462
46 22 0.0491874
46 30 8.77534e-07
46 38 0.0258085
46 39 1.5517e-06
46 45 0.24753
46 53 0.00609825
46 54 0.00609823
46 55 0.0846524
46 71 0.00609815
46 76 0.0303919
46 87 0.00609823
46 90 0.00609828
46 113 0.0535913
46 114 0.0060982
46 119 0.121484
46 120 0.0546565
46 121 1.55643e-07
46 123 0.00492182
46 127 0.00609825
46 131 0.00635432
46 136 0.0121954
46 137 0.0121965
46 140 0.00609824
46 142 0.0240274
46 164 1.34778e-07
46 183 0.0426207
46 188 1.00479e-07
46 191 0.00609827
46 193 0.00609828
46 212 0.00614287
46 228 0.0239207
46 229 1.46203e-05
46 251 0.00609828
46 283 0.00609828
46 289 0.00561337
46 335 0.0182939
46 367 0.0240862
46 395 0.00609828
46 433 0.0121966
46 443 0.00609785
46 457 0.00609828
46 538 0.00609823
47 4 6.28425e-05
47 8 0.849545
47 19 1.59179e-07
47 30 0.00989483
47 52 0.0189613
47 64 0.000164752
47 70 0.00249626
47 77 0.00636245
47 84 0.00529101
47 89 0.00264786
47 93 0.00163648
47 121 0.00794013
47 136 0.00529105
47 174 0.00254748
47 205 0.0052907
47 211 5.20107e-07
47 212 9.78266e-07
47 217 0.0415261
47 219 0.00529114
47 243 0.00264558
47 282 0.00528984
47 339 0.00529272
47 347 0.0105818
47 359 0.0026455
47 386 0.00529097
47 394 9.00105e-06
47 513 2.37612e-07
47 524 0.00329306
48 9 0.00010267
48 10 0.0266699
48 12 0.0076671
48 18 0.0441637
48 22 6.23497e-07
48 24 0.00766047
48 25 0.0311879
48 26 0.0311331
48 27 0.0324079
48 35 0.00671437
48 44 1.70989e-07
48 48 0.00036902
48 55 0.0345427
48 60 0.0817195
48 68 0.0075993
48 70 0.0152211
48 71 0.03064
48 76 0.00766642
48 83 0.0379898
48 90 0.0173584
48 95 0.0306393
48 115 0.0306687
48 121 0.015915
48 142 0.0109122
48 144 4.52098e-07
48 155 0.0312633
48 172 0.0197035
48 183 0.0153044
48 190 0.0153319
48 205 0.00766048
48 209 0.174122
48 238 0.00767804
48 254 0.00766049
48 260 0.00766048
48 284 0.0591305
48 304 0.0383024
48 305 0.0153103
48 306 0.015321
48 307 0.0153194
48 334 0.0459623
48 442 0.00765893
48 508 0.00766048
49 4 4.20419e-07
49 8 0.00739506
49 22 0.0980324
49 30 0.000144398
49 37 0.000327668
49 43 0.0859779
49 44 2.60449e-07
49 45 0.0226038
49 53 0.0428032
49 54 0.0428027
49 55 0.101332
49 62 0.00284969
49 73 0.00980655
49 79 0.00562066
49 91 0.00307611
49 93 0.00740924
49 109 4.38283e-07
49 113 0.0289152
49 119 0.146973
49 120 0.108375
49 121 0.0706704
49 123 0.00587096
49 131 0.00290931
49 135 0.00570694
49 140 0.0256715
49 142 0.00397738
49 146 0.00278441
49 165 5.27951e-07
49 177 0.0256775
49 193 0.00856042
49 199 0.00274541
49 211 0.0114142
49 212 0.00534683
49 217 0.00275273
49 222 0.00285346
49 223 0.00285347
49 228 0.014606
49 232 0.00285347
49 243 0.00509019
49 260 0.00700415
49 279 0.0076812
49 281 0.00856041
49 335 0.00856039
49 339 0.00855761
49 341 0.014267
49 348 0.00285479
49 400 0.00285373
49 482 0.00285347
49 490 0.00858687
49 496 0.00570695
49 501 0.00286868
49 555 0.00285341
50 4 0.0824509
50 9 0.000103891
50 10 0.0751959
50 19 0.00810484
50 32 0.00827673
50 34 2.49413e-05
50 37 0.0139417
50 45 0.0157787
50 48 0.0143556
50 58 0.0219501
50 60 0.414938
50 68 0.00737582
50 73 0.0195837
50 85 0.00738345
50 89 0.00737948
50 93 8.86267e-07
50 107 0.00737718
50 130 0.0220188
50 131 0.102623
50 133 0.000665464
50 144 1.04954e-07
50 185 0.0368894
50 203 0.00738851
50 212 0.00830422
50 274 0.0147557
50 286 0.00737793
50 338 0.00737779
50 349 0.0146727
50 381 0.0368896
50 392 0.00741201
50 463 0.0147557
50 464 0.0146472
51 17 0.0440346
51 42 1.85721e-06
51 66 0.42064
51 95 2.61766e-06
51 124 0.18812
51 125 0.177857
51 150 0.00988217
51 200 0.0477852
51 227 0.0296438
51 320 0.0424904
51 324 0.0395422
51 419 2.50808e-07
52 19 0.0175428
52 29 0.00035162
52 40 0.0176771
52 63 0.0706037
52 64 0.226324
52 70 0.0317665
52 81 0.0714119
52 84 0.0882603
52 85 0.0529526
52 86 0.0690862
52 89 0.0705841
52 109 1.79144e-06
52 133 0.0365328
52 140 0.0176509
52 141 0.0177665
52 151 3.68526e-07
52 155 0.0352995
52 173 0.0176505
52 179 0.0176496
52 181 0.0176509
52 220 0.0352615
52 231 0.0176509
52 360 0.0176509
52 372 0.0350215
52 382 0.0176509
53 64 0.111361
53 66 0.115957
53 89 0.111013
53 90 0.111013
53 124 0.106794
53 253 0.111013
53 254 0.111013
53 255 0.111013
53 324 0.110821
54 6 0.000374966
54 8 0.224449
54 9 0.172275
54 54 0.243283
54 66 0.0120729
54 67 0.243283
54 68 0.104263
55 4 2.99318e-06
55 18 0.0605951
55 30 1.71011e-05
55 38 0.0302726
55 45 0.0302814
55 69 0.0302815
55 70 0.0605358
55 74 0.0604057
55 78 0.0605629
55 79 0.090648
55 80 0.0605628
55 83 0.0316574
55 106 0.0302814
55 128 0.0302384
55 133 0.0604221
55 140 0.0302815
55 147 0.0605158
55 221 0.0605625
55 225 0.0302815
55 289 0.0908362
55 303 0.0302815
55 318 0.0302814
55 406 0.0301945
56 34 3.33706e-06
56 43 0.000689888
56 48 0.0389
56 64 0.268751
56 70 0.00761794
56 71 0.00358415
56 81 0.282985
56 82 0.00716833
56 84 0.179207
56 85 0.129027
56 114 4.15518e-06
56 128 9.44254e-06
56 141 0.0143366
56 151 1.49015e-07
56 185 0.00358312
56 191 0.00358416
56 220 0.0215132
56 280 0.0103616
56 348 0.0179208
56 357 0.00716833
56 538 0.00358417
57 8 4.27724e-06
57 9 0.415612
57 18 0.0173335
57 21 5.67358e-05
57 32 0.0136145
57 58 3.3554e-07
57 60 0.00117571
57 92 0.0167344
57 93 0.00836443
57 113 0.0670941
57 121 0.00836625
57 126 0.0083208
57 127 0.0501539
57 128 0.00860395
57 133 0.0848682
57 136 1.12285e-06
57 142 0.00886153
57 143 0.0251316
57 144 0.00043367
57 146 0.0153922
57 159 0.0162866
57 191 0.000377976
57 211 0.0502023
57 221 0.00836718
57 228 0.0909983
57 283 0.00836722
57 289 0.0250659
57 305 0.00836722
57 346 0.00836698
57 348 0.00836718
57 352 0.0083811
57 397 0.00836213
57 401 0.00836715
58 9 0.000107908
58 19 0.059051
58 60 0.485016
58 91 0.0462223
58 120 0.0509382
58 133 0.0518621
58 148 0.100263
58 159 0.00267949
58 250 0.0501816
58 265 0.0534173
58 406 0.0501251
58 432 0.0501361
59 15 0.0352555
59 17 0.069114
59 29 0.00394238
59 34 0.0344467
59 35 0.281031
59 40 0.03513
59 43 6.90099e-06
59 61 0.316102
59 64 0.154705
59 309 0.0351331
59 466 0.0351333
60 20 0.114677
60 22 1.49688e-06
60 42 2.57892e-06
60 43 0.0221256
60 44 0.00152817
60 64 0.0209554
60 77 0.116095
60 79 0.0240929
60 91 0.0231551
60 92 0.0231565
60 95 0.0231556
60 97 0.0756828
60 123 0.0231594
60 133 1.20008e-05
60 164 0.0694098
60 167 0.138899
60 168 0.185035
60 215 0.0231798
60 252 0.0231545
60 289 0.0463104
60 343 0.0230561
60 449 0.023156
61 4 0.0186031
61 15 0.00248115
61 17 0.125715
61 21 2.72016e-07
61 22 0.0140012
61 25 0.00247998
61 34 0.00780521
61 38 1.20788e-06
61 42 1.49445e-07
61 44 0.0333754
61 49 0.0437115
61 52 0.00507824
61 55 0.0148426
61 57 0.0891759
61 59 0.0148851
61 64 0.0116083
61 79 0.00239401
61 94 0.00199916
61 95 0.00496008
61 96 0.0395852
61 97 1.46815e-07
61 101 0.00248088
61 110 0.0256857
61 114 0.00483314
61 123 0.0067091
61 133 0.0225119
61 138 0.00737868
61 165 0.0112104
61 187 0.200694
61 199 0.000483842
61 213 0.0868307
61 223 0.00495952
61 235 0.0074425
61 242 0.119082
61 243 0.00549333
61 244 0.00992291
61 246 0.00248053
61 257 2.98769e-07
61 267 0.002248
61 280 9.40051e-07
61 282 0.00247617
61 288 0.00690313
61 298 0.0124044
61 299 0.00495898
61 359 0.00992348
61 404 0.00738984
61 467 0.0024806
61 519 0.000311264
62 8 3.35428e-06
62 12 0.0064815
62 13 0.00200468
62 22 8.00162e-06
62 23 0.102817
62 24 0.132571
62 25 0.129279
62 26 2.07129e-06
62 35 0.0145138
62 40 0.0449752
62 43 0.00207581
62 44 0.00430047
62 46 0.370388
62 55 0.000237734
62 97 0.000256038
62 110 0.000147334
62 123 0.000801183
62 124 0.00894257
62 155 0.00776801
62 185 0.00893383
62 190 0.00435924
62 201 0.0921346
62 212 8.47398e-06
62 240 0.0133322
62 265 0.00448309
62 266 0.0402416
62 282 0.0044662
62 520 0.0044672
63 22 0.0378954
63 25 3.21143e-06
63 38 0.0498709
63 43 0.00160615
63 44 0.140416
63 55 0.202305
63 60 1.09604e-07
63 63 0.121702
63 64 0.00930026
63 65 0.00161006
63 94 0.00457745
63 97 0.00166011
63 99 0.359157
63 109 2.57655e-07
63 110 0.0261988
63 123 0.0353224
63 129 0.00160335
63 138 0.00650519
63 212 0.000265171
64 25 0.480384
64 98 0.220334
64 115 0.0252843
64 129 0.115585
64 181 0.00722407
64 182 0.00361203
64 196 0.130033
64 201 0.00309339
64 202 9.56459e-07
64 230 0.0036118
64 231 0.00361207
64 239 1.06631e-07
64 415 0.00722398
65 4 0.000521024
65 9 0.122423
65 17 0.245723
65 30 1.90145e-07
65 34 0.0307512
65 39 1.1341e-07
65 43 0.0918383
65 48 0.173569
65 100 0.244126
65 101 0.0515575
65 108 0.00396797
65 172 0.0077115
65 181 0.00396595
65 200 0.00396543
65 327 0.00396596
65 376 0.00798205
65 437 0.00396588
65 465 0.00396578
66 2 0.00924885
66 17 0.0229033
66 77 0.00198205
66 105 0.0574245
66 106 0.161948
66 123 0.0113987
66 142 0.0186201
66 153 0.262163
66 154 0.35329
66 171 0.0212321
66 193 0.0227975
66 247 0.0113987
66 266 0.0113987
66 282 0.0113978
66 497 0.0227974
67 6 0.00146144
67 7 5.97559e-05
67 8 0.116968
67 22 0.0334035
67 35 0.0343612
67 43 2.89368e-05
67 50 0.0343612
67 55 0.0685786
67 105 0.237582
67 106 0.267055
67 121 0.0343612
67 171 0.0343342
67 181 0.0343612
67 188 0.0343612
67 293 0.0343612
67 313 0.0343612
68 6 0.333345
68 9 4.93579e-06
68 34 0.333284
68 54 0.333351
68 66 1.58273e-05
69 4 0.232614
69 8 0.0100526
69 20 0.214853
69 21 0.261507
69 42 5.13985e-06
69 64 0.280293
69 66 0.000663793
69 125 1.1535e-05
70 14 0.0452285
70 15 0.320162
70 16 0.0421703
70 17 0.00421932
70 33 0.122103
70 60 0.00512299
70 109 0.0213438
70 110 0.0998085
70 127 0.0213442
70 133 0.028867
70 138 0.0978532
70 158 0.0213442
70 181 0.0212691
70 187 0.0425749
70 231 0.0213369
70 314 0.0213442
70 315 0.0213442
70 400 0.0213442
70 423 0.021219
71 8 0.00513713
71 12 0.0195053
71 22 0.0818632
71 23 0.16206
71 24 0.00582175
71 25 0.0269974
71 44 0.000193318
71 46 0.257264
71 49 0.0120044
71 55 0.0266291
71 97 0.00111252
71 110 0.00168066
71 115 0.0180058
71 155 0.000359233
71 164 0.00637963
71 167 0.0182549
71 168 0.0149149
71 181 0.00602214
71 201 0.0712
71 215 0.156052
71 223 0.0120044
71 240 0.0239603
71 265 0.0416072
71 325 2.27562e-06
71 326 0.0177442
71 365 0.00121977
71 422 0.0120045
72 5 1.23863e-05
72 6 0.084513
72 8 0.144034
72 9 0.00262458
72 21 0.235622
72 33 0.259516
72 36 0.155804
72 133 0.117874
73 6 2.51279e-05
73 8 0.0383475
73 19 0.0285713
73 43 0.0222268
73 44 0.017271
73 47 0.00750097
73 55 0.0480993
73 63 0.0352651
73 64 0.000225212
73 93 0.0187419
73 97 4.71757e-05
73 99 0.0352645
73 107 0.514843
73 110 0.00505889
73 111 0.00705305
73 123 0.034621
73 142 0.0418691
73 143 0.00705308
73 199 0.00702932
73 229 2.02315e-05
73 260 0.0532186
73 279 0.0212236
73 324 0.0141057
73 388 0.0141063
73 402 0.021159
73 461 0.0070531
74 9 0.129252
74 29 0.122303
74 30 0.125
74 55 0.125
74 133 0.373445
74 198 0.125
75 4 0.000122635
75 8 0.000306605
75 19 0.00284099
75 24 0.00252179
75 25 0.00252144
75 30 1.95563e-06
75 32 6.76437e-06
75 37 0.117857
75 40 1.13534e-07
75 43 0.0257615
75 45 0.118411
75 53 0.0100863
75 54 0.0201721
75 57 0.0225932
75 64 3.68903e-05
75 88 0.017646
75 93 0.0075324
75 94 0.0114413
75 96 0.00482875
75 111 0.00822154
75 128 0.00252405
75 137 0.00252124
75 140 0.0251979
75 142 0.00254154
75 143 0.0151279
75 149 0.143319
75 160 8.51713e-06
75 163 0.00501364
75 165 0.0125037
75 177 0.0983395
75 179 0.0932955
75 182 0.00252153
75 183 1.8193e-05
75 201 0.00470616
75 217 0.0155673
75 225 0.00250406
75 234 0.00252152
75 246 0.00246144
75 280 0.000460706
75 311 0.0680812
75 319 0.00251658
75 329 0.00756454
75 340 0.00997928
75 346 0.00504492
75 354 0.00252133
75 367 0.00252089
75 368 0.00251358
75 378 0.0100861
75 389 0.015128
75 401 0.00252152
75 412 0.00251364
75 417 0.00252144
75 420 0.0176506
75 427 0.00252151
75 435 0.00252152
75 437 0.00191153
75 453 0.00504218
75 454 0.00251789
75 458 0.0100861
75 462 0.00252152
75 485 0.0100855
75 516 0.00504293
75 517 0.00252152
76 25 0.220269
76 38 0.0080168
76 40 0.0398168
76 44 0.0107155
76 45 0.0737625
76 60 0.00316643
76 109 0.00213934
76 110 0.00400581
76 113 0.0184673
76 114 0.0549714
76 115 0.221293
76 155 0.0667947
76 181 0.055323
76 212 0.0552905
76 231 0.0553228
76 241 0.0184411
76 266 0.0553115
76 324 0.0184511
76 474 0.0184411
77 6 2.0474e-07
77 24 0.258555
77 25 0.387452
77 40 0.0397769
77 60 0.00569049
77 65 0.009903
77 93 0.00994442
77 94 0.0119494
77 116 0.139222
77 123 0.0596414
77 133 0.0099441
77 212 0.018199
77 266 0.0497221
78 4 1.9439e-05
78 8 2.55519e-07
78 21 3.0363e-07
78 29 0.172329
78 38 5.36336e-07
78 40 0.000804872
78 42 0.0100618
78 43 3.91014e-06
78 44 1.53284e-05
78 49 0.033849
78 57 0.0417184
78 79 0.00808873
78 84 0.22848
78 108 0.00886709
78 117 0.279254
78 123 0.000534418
78 133 3.39492e-05
78 142 0.0299409
78 205 0.00845629
78 206 0.00846224
78 247 0.0084616
78 292 0.025351
78 324 0.0422923
78 376 0.0506653
78 377 0.0169242
78 428 0.0169238
78 494 0.0084605
79 4 2.71598e-05
79 6 1.04741e-07
79 8 0.000445079
79 9 0.186574
79 17 1.40867e-06
79 21 2.92982e-07
79 28 0.00265186
79 30 0.0542196
79 31 0.00530364
79 34 0.0103095
79 37 0.0317889
79 38 0.010573
79 39 0.00269428
79 43 0.035464
79 44 0.0435765
79 46 0.00265179
79 49 0.0353389
79 55 0.0239868
79 57 0.00265168
79 62 1.44971e-05
79 67 0.00265188
79 74 0.00317966
79 77 8.26535e-07
79 83 0.0343585
79 88 0.0159095
79 93 0.00592371
79 101 0.00265185
79 110 5.43698e-05
79 111 0.182944
79 118 0.000191607
79 119 0.0298483
79 120 0.00275897
79 121 0.027137
79 123 0.0303418
79 126 0.00265175
79 128 0.0175705
79 130 0.0211498
79 131 0.00789922
79 133 7.45128e-07
79 144 0.00791587
79 149 0.00265187
79 170 0.00265188
79 177 0.00530716
79 181 0.0106075
79 188 0.00530357
79 203 0.00264793
79 217 0.0211405
79 218 0.00265164
79 219 0.00265183
79 225 0.00265186
79 228 0.00287611
79 236 0.0106073
79 346 0.00265187
79 349 0.00265184
79 367 0.00267165
79 394 0.00529011
79 431 0.0318132
79 437 0.00528538
79 439 0.00530359
79 440 0.00530359
79 450 0.00265188
79 461 0.00265187
79 503 0.00530374
79 504 0.00530372
79 525 0.00265179
79 545 0.00530375
80 18 5.45486e-05
80 22 0.00919246
80 29 0.000317343
80 30 0.0489958
80 41 0.000135558
80 57 0.0231096
80 58 0.0077291
80 70 0.0077292
80 79 0.00773541
80 83 0.0253943
80 85 0.0779819
80 88 0.0162093
80 89 0.0077263
80 93 0.0230222
80 110 0.00091148
80 111 0.0141326
80 120 2.51973e-07
80 123 0.0100429
80 128 0.09224
80 131 0.0386459
80 132 0.139125
80 135 0.00772915
80 138 0.022859
80 147 0.0772846
80 151 0.00908344
80 156 0.10048
80 163 0.0231876
80 172 0.000574415
80 173 0.00772918
80 187 0.00761329
80 221 0.0152785
80 267 0.0154518
80 273 0.0077292
80 278 0.0231875
80 334 0.0077292
80 336 0.0154584
80 351 0.00772911
80 405 0.00772908
80 406 0.00772904
80 451 0.00771556
80 464 0.00772908
80 489 0.0077292
80 507 0.0077292
80 510 0.038646
80 533 0.0154573
81 4 0.00426046
81 5 3.80932e-07
81 9 0.0564464
81 12 0.150648
81 22 0.0165031
81 23 0.0118933
81 24 0.00297336
81 25 0.10106
81 42 0.00979308
81 43 0.00073155
81 44 0.0864388
81 46 0.0713605
81 49 0.0238263
81 55 0.0381913
81 60 0.00752152
81 76 0.00594667
81 77 0.00266462
81 97 2.76582e-07
81 110 0.010414
81 115 0.00892001
81 123 0.00881041
81 125 0.00594664
81 133 0.0113079
81 134 0.00296682
81 135 0.0981208
81 138 0.002936
81 143 1.76787e-06
81 155 0.0208116
81 164 0.0148662
81 169 0.00892006
81 174 0.00296393
81 175 0.0773073
81 187 0.00171225
81 190 0.0059467
81 218 0.00291075
81 232 0.00297333
81 240 0.0118926
81 262 0.00297123
81 266 0.00297335
81 282 0.00594662
81 292 0.00297334
81 294 0.00297311
81 305 0.0059467
81 323 0.0237868
81 325 0.00297336
81 330 0.00594669
81 365 0.00892007
81 366 0.00297334
81 410 0.00297335
81 441 0.00297335
81 455 0.00892007
81 469 0.0089195
81 476 0.00891999
81 506 0.00297318
81 527 0.00594671
82 4 0.040903
82 14 0.082458
82 15 0.108269
82 16 0.184958
82 17 0.0574663
82 24 0.00393466
82 25 0.00334654
82 29 0.000929162
82 33 0.0612605
82 36 6.35454e-05
82 44 7.95521e-05
82 45 0.012519
82 49 1.51114e-07
82 51 0.00393439
82 57 0.0417067
82 59 0.0243036
82 61 4.53207e-06
82 96 0.00379618
82 109 0.0118634
82 110 0.00901309
82 123 2.11213e-07
82 133 0.0149215
82 139 0.0417667
82 140 0.00393372
82 144 0.00507042
82 151 0.00801307
82 152 0.0157388
82 158 0.039347
82 160 0.00393465
82 181 0.0229141
82 187 0.0310308
82 188 2.83775e-05
82 189 0.0178153
82 190 0.0235178
82 214 0.00393453
82 231 0.0236068
82 257 0.00392177
82 259 0.0039347
82 396 0.0157385
82 423 0.0155867
82 424 0.0118041
82 431 0.00326772
82 434 0.00393447
82 457 0.00393445
82 460 0.0039347
82 487 0.00393467
82 540 0.00786939
82 543 0.00789068
82 556 0.00393024
82 557 0.00393465
83 4 0.111106
83 9 0.0768445
83 18 0.0298162
83 19 0.00803875
83 22 0.0305396
83 29 0.0648396
83 30 0.0391885
83 38 0.0296018
83 39 0.0397168
83 40 0.00996089
83 57 0.00991238
83 60 0.0589179
83 76 0.00991695
83 77 0.00986198
83 83 0.0375599
83 85 0.029825
83 88 0.0102062
83 93 0.0198319
83 111 0.0198713
83 128 0.0317169
83 131 0.00948897
83 133 0.0181047
83 144 0.00905168
83 147 0.0683823
83 160 0.0198734
83 163 0.0298101
83 193 0.0298084
83 211 0.00993673
83 221 0.02981
83 250 0.00992107
83 282 0.00993672
83 333 0.00993663
83 335 0.00904629
83 348 0.00993672
83 349 0.00993672
83 412 0.0198734
83 451 0.0198735
84 9 2.19074e-05
84 17 0.108048
84 39 0.0411995
84 42 0.0423091
84 52 0.0419606
84 53 0.0419606
84 54 0.0419605
84 64 0.0902656
84 76 0.0419467
84 79 0.0419606
84 109 0.0390516
84 110 0.0012139
84 125 0.125901
84 140 0.0419602
84 143 0.0419593
84 148 0.0419159
84 150 0.0839213
84 151 0.0412522
84 345 0.0492557
84 528 0.0419352
85 2 7.5978e-05
85 8 1.7258e-05
85 10 3.99352e-06
85 14 0.00639515
85 20 0.0122329
85 25 0.00637985
85 29 1.42124e-05
85 37 8.49838e-07
85 40 0.0224298
85 55 0.0426626
85 64 0.0325482
85 71 0.0063906
85 77 0.0255129
85 94 0.0257109
85 96 0.0190733
85 112 0.00639369
85 114 0.00639213
85 133 0.0139214
85 143 0.0113377
85 149 0.25042
85 179 0.102326
85 181 0.0446738
85 200 0.00639519
85 207 0.0447665
85 208 0.0447621
85 217 0.0453313
85 231 0.0255809
85 246 0.0063951
85 247 0.00639435
85 266 0.0191853
85 276 0.0191857
85 311 0.00639522
85 328 0.0831379
85 329 0.0127903
85 405 0.00639512
85 406 7.34549e-07
85 435 0.0191857
85 531 0.0127903
85 551 0.00639517
86 42 0.250116
86 43 0.249584
86 124 0.25015
86 125 0.25015
87 64 0.33306
87 150 0.333454
87 151 0.333486
88 4 1.24935e-05
88 12 1.97651e-06
88 22 0.000748978
88 23 1.88504e-05
88 26 0.285964
88 27 0.144146
88 35 0.263454
88 38 0.0479522
88 44 0.049241
88 167 0.00830537
88 241 0.0285964
88 260 0.0285964
88 314 0.0190641
88 321 0.00953208
88 323 0.0285962
88 371 0.0571743
88 401 0.00953116
88 427 0.009532
88 444 0.00953208
88 449 3.53972e-07
89 4 3.81168e-07
89 5 1.851e-07
89 9 0.130586
89 18 0.103473
89 21 2.98204e-06
89 29 0.0488376
89 30 0.0416573
89 36 0.000268379
89 38 0.0359335
89 39 0.0405725
89 40 0.0045808
89 43 0.0474648
89 44 0.0162159
89 50 0.00488645
89 51 0.0134955
89 57 0.00852617
89 58 0.00449846
89 60 0.0217752
89 70 0.00899613
89 77 0.0134123
89 79 0.0717863
89 83 1.3166e-05
89 88 0.00449266
89 111 0.0135189
89 122 0.00449856
89 128 0.0787415
89 133 0.0165641
89 144 0.00448107
89 146 0.00283449
89 147 0.0540283
89 148 3.60444e-06
89 170 0.00914141
89 185 0.00449864
89 206 0.00449069
89 221 0.103469
89 225 0.00900134
89 270 0.0134959
89 271 0.0179945
89 272 0.00449862
89 273 0.0134957
89 279 0.0102729
89 338 0.00449813
89 367 0.00449841
89 545 0.00449857
90 48 1.07697e-05
90 64 0.114355
90 73 0.115553
90 75 0.0384919
90 91 0.0385178
90 109 0.0768051
90 128 0.192574
90 146 0.0770352
90 348 0.0385158
90 396 0.0770355
90 459 0.154071
90 544 0.0770355
91 9 0.300535
91 32 4.13128e-05
91 60 0.288799
91 68 0.0727504
91 94 0.0629866
91 118 0.0727603
91 151 0.129377
91 260 0.0727505
92 4 0.00834302
92 12 0.137558
92 21 0.0270239
92 22 0.0571045
92 23 0.0552286
92 25 0.0736217
92 26 0.00736608
92 27 0.00920477
92 40 0.0289723
92 49 0.0276143
92 55 0.00660884
92 57 0.0182304
92 60 0.00803721
92 64 6.35602e-05
92 133 0.000152767
92 135 0.0193736
92 155 0.0460237
92 168 0.073638
92 175 0.0552286
92 181 0.00920398
92 218 0.00919588
92 231 3.94331e-05
92 240 0.0736381
92 266 0.0460238
92 325 0.0184095
92 330 0.0276141
92 365 0.0736381
92 403 0.00920476
92 457 0.0368191
92 515 0.0184095
92 522 0.00920473
92 541 0.00920473
93 12 0.0235957
93 20 0.0954633
93 26 0.0526675
93 40 0.0639143
93 44 0.168698
93 46 0.160506
93 55 0.0591372
93 64 0.0680935
93 77 0.0666692
93 109 0.0848004
93 110 0.0671409
93 133 1.2153e-06
93 138 0.0447009
93 169 0.022349
93 181 1.90663e-06
93 218 8.05569e-06
93 231 0.0222539
94 4 0.00149716
94 9 0.0104345
94 17 0.152848
94 21 2.35563e-06
94 30 5.26963e-06
94 34 6.95611e-06
94 36 3.33175e-06
94 38 0.066924
94 39 0.0440433
94 43 1.21661e-05
94 88 0.0896277
94 106 0.027051
94 110 8.39231e-05
94 128 0.0894031
94 138 0.0217988
94 153 0.156866
94 154 0.179276
94 171 0.0480918
94 193 0.0224095
94 201 0.0223869
94 236 0.044819
94 395 0.0224093
95 9 0.0454035
95 18 0.0359282
95 22 0.0619616
95 30 0.0771498
95 38 0.015586
95 42 0.00612274
95 43 0.017905
95 49 0.0321354
95 50 0.0156257
95 58 0.0156258
95 60 0.0292406
95 74 0.0153747
95 79 0.0468769
95 88 0.0314445
95 111 0.0312494
95 118 0.0310383
95 128 0.0736347
95 131 0.0156258
95 132 0.0781225
95 133 0.0583402
95 147 0.0468771
95 148 0.0312467
95 156 0.0468775
95 176 0.0156258
95 188 0.0156258
95 221 0.0468775
95 429 0.015601
95 468 0.0312517
95 495 0.0156258
96 17 0.0107828
96 20 0.0113677
96 22 0.0273605
96 28 0.0206407
96 34 0.0474724
96 37 0.0412892
96 40 0.0102995
96 44 0.0404397
96 53 0.0309602
96 54 0.0309609
96 55 0.0397315
96 60 0.00868523
96 64 0.0418571
96 65 0.0102221
96 71 0.0411825
96 77 0.0171558
96 93 0.0309006
96 96 0.0412535
96 109 0.00320136
96 110 0.0315043
96 121 0.0309563
96 131 0.0206405
96 133 0.0184831
96 140 0.0516009
96 154 0.0103208
96 160 0.0103204
96 178 0.0107709
96 188 0.0516018
96 203 0.0206407
96 211 0.0103203
96 212 0.02064
96 230 0.0103204
96 264 0.0103204
96 267 0.0103062
96 292 0.041325
96 293 0.103204
96 313 0.0206407
96 440 0.0103204
97 4 0.0598182
97 8 0.0010287
97 9 0.082096
97 17 0.204267
97 21 0.0162955
97 22 0.0233917
97 71 0.0237025
97 108 0.0237077
97 154 0.211665
97 178 0.16492
97 243 0.0237014
97 256 0.0231614
97 280 0.023707
97 292 0.0948316
97 302 0.0237061
98 49 0.257096
98 135 0.23017
98 180 0.255636
98 294 0.257098
99 4 1.07704e-06
99 20 0.000207681
99 22 0.0428178
99 23 0.0541369
99 26 0.238232
99 27 0.0541373
99 34 2.35425e-07
99 35 0.248434
99 38 0.0312136
99 44 0.0184675
99 46 0.0974467
99 55 2.06672e-06
99 60 0.0184895
99 77 0.0135673
99 94 0.0105882
99 124 0.0216548
99 133 0.00957887
99 143 0.000197207
99 155 0.0216289
99 167 0.0108274
99 201 9.93994e-05
99 215 0.0216544
99 265 0.0108253
99 323 0.0108274
99 371 0.0324821
99 430 0.0216547
99 532 0.0108275
100 10 0.051267
100 22 0.0506817
100 40 0.105986
100 42 0.0743774
100 45 0.0530207
100 70 0.0530008
100 83 0.135921
100 128 0.0265406
100 133 0.0262704
100 146 0.0780523
100 181 0.0795882
100 231 0.0795882
100 260 0.0530588
100 279 0.0265294
100 442 0.0530588
100 558 0.0530588
101 9 0.0627016
101 13 0.000247392
101 18 0.0901601
101 19 0.04503
101 41 0.0899747
101 43 0.126427
101 44 0.0897418
101 55 0.0903931
101 88 0.0900644
101 121 0.0897809
101 140 0.000311877
101 192 0.0900672
101 193 0.090067
101 482 0.0450335
102 4 0.0327757
102 17 0.138393
102 18 5.10734e-05
102 34 0.0174354
102 35 0.235037
102 59 0.0957586
102 61 0.0522673
102 64 0.151202
102 133 0.000782431
102 151 0.00869436
102 187 0.0421842
102 194 0.0348213
102 288 0.0174075
102 309 0.104464
102 325 0.00870517
102 404 0.00888927
102 486 0.0174105
102 518 0.01741
102 519 0.0163107
103 12 0.00785576
103 17 0.000734392
103 22 0.0905591
103 23 0.070544
103 26 0.256109
103 27 0.0906994
103 40 0.0388161
103 44 6.97653e-07
103 46 0.100775
103 55 0.0470922
103 65 0.0100607
103 94 4.20151e-07
103 143 0.00157758
103 155 0.0238865
103 189 0.0302331
103 190 0.210891
103 266 5.06002e-06
103 324 0.0100721
103 346 1.0457e-05
103 427 0.0100774
104 12 1.59851e-05
104 22 0.0539461
104 23 1.07423e-05
104 26 0.3078
104 27 0.0986579
104 40 0.0110485
104 44 0.130929
104 46 0.0172893
104 97 0.00367254
104 110 0.00392609
104 129 0.00368305
104 137 0.00367529
104 143 0.00367535
104 167 0.00425544
104 181 0.0076437
104 189 0.00368282
104 190 0.320367
104 230 1.69015e-06
104 240 0.00737034
104 265 0.00736571
104 326 0.0109826
105 17 0.0872754
105 22 0.0193026
105 44 0.0974001
105 45 0.0813675
105 55 0.0469919
105 57 0.0599797
105 60 0.00176889
105 110 0.0457492
105 133 0.00847322
105 138 7.46078e-05
105 144 0.0702385
105 187 0.151404
105 213 0.0606789
105 214 0.0771657
105 242 0.101125
105 267 0.010101
105 400 0.0101122
105 467 0.0303394
105 498 0.010113
105 499 0.0101129
105 500 0.0202263
106 4 0.0153449
106 8 0.000194174
106 15 1.28572e-07
106 19 4.9229e-06
106 20 0.0708287
106 21 6.8618e-05
106 34 0.000449389
106 40 0.123441
106 42 0.0110755
106 48 0.00856187
106 51 0.0690696
106 57 0.0230206
106 60 0.0152924
106 64 0.0959876
106 73 9.79809e-05
106 85 0.0844186
106 89 0.0306875
106 134 0.054254
106 141 0.007643
106 202 0.107229
106 232 0.115116
106 233 0.00766951
106 295 0.0137309
106 348 0.0767444
106 353 0.0690698
107 9 0.0472007
107 14 0.0158009
107 17 0.0598729
107 19 0.0316047
107 22 0.0327945
107 42 0.0107496
107 44 0.0313684
107 45 0.0780032
107 57 0.0622437
107 59 0.0158009
107 60 0.0779655
107 61 0.205494
107 96 0.0158003
107 110 0.0268713
107 133 0.00105675
107 144 0.0625186
107 187 0.0142196
107 213 0.0626776
107 214 0.0690335
107 242 0.0474267
107 267 0.0156955
107 477 0.0158009
108 17 0.0318697
108 21 0.116829
108 32 0.166503
108 43 0.0289417
108 48 0.0173394
108 73 0.0195436
108 94 0.0167423
108 106 0.121389
108 111 0.0173382
108 142 0.0162472
108 153 0.052031
108 154 0.0533724
108 171 0.034541
108 225 0.208073
108 226 0.0173393
108 260 0.0346788
108 261 0.0346787
108 289 0.0125433
109 5 0.000447599
109 6 0.000751576
109 7 0.000115266
109 8 0.0103213
109 13 0.00669871
109 17 1.53764e-06
109 22 0.091394
109 24 0.0170743
109 25 0.0243244
109 40 0.0508423
109 43 0.0018972
109 55 0.000214359
109 63 0.0862171
109 64 0.0287953
109 94 0.0481764
109 99 1.05991e-06
109 107 0.136594
109 110 0.0348191
109 116 0.0170743
109 123 0.0763396
109 138 0.00965776
109 187 0.016756
109 195 0.0170738
109 215 0.221966
109 229 0.0341486
109 312 4.97706e-07
109 314 0.0170743
109 366 0.0341487
109 529 0.0170743
110 9 0.193246
110 17 0.241277
110 34 0.0553881
110 48 0.0949694
110 57 8.34939e-06
110 68 0.0112392
110 101 0.0272786
110 120 0.0103683
110 133 0.0333526
110 141 0.0112392
110 142 2.73916e-05
110 145 0.00561935
110 151 0.0051287
110 172 0.00245649
110 200 0.0056196
110 227 0.280976
110 229 0.00558931
110 394 0.00497756
110 437 0.00561957
110 444 0.00561931
111 18 0.10414
111 42 4.50133e-05
111 110 0.0725389
111 128 0.103471
111 133 0.207055
111 138 0.0960768
111 146 0.104365
111 221 0.104103
111 273 0.104103
111 318 0.104103
112 4 0.370164
112 8 0.111309
112 9 1.61633e-06
112 17 0.18519
112 21 0.111095
112 147 0.0370382
112 148 0.0370274
112 227 0.0740985
112 239 0.0370377
112 548 0.0370381
113 4 0.0157058
113 8 5.8213e-06
113 9 0.239638
113 17 0.0764678
113 20 0.273192
113 50 0.0377916
113 100 0.168097
113 142 0.11346
113 217 0.0756419
114 16 0.0846031
114 29 0.166618
114 34 0.156558
114 67 0.084603
114 112 0.0846029
114 173 0.169206
114 240 0.0846031
114 309 0.0846027
114 456 0.0846032
115 8 3.04203e-06
115 9 0.24499
115 30 0.161628
115 39 0.0415847
115 44 0.0429174
115 58 0.0211676
115 77 0.042331
115 128 0.149219
115 133 2.43872e-05
115 147 0.2538
115 406 0.0423345
116 22 4.8458e-05
116 42 0.062871
116 49 0.0628387
116 111 0.125677
116 118 0.0628387
116 119 0.0626875
116 128 0.120329
116 246 0.125677
116 247 0.125677
116 495 0.125677
116 502 0.125677
117 2 0.0614479
117 4 0.0742651
117 5 0.0506481
117 8 0.00018338
117 17 0.182006
117 19 0.0613626
117 20 0.0337926
117 30 0.0619254
117 32 8.67429e-06
117 42 0.0310832
117 43 5.10472e-07
117 64 0.0283308
117 133 0.0456615
117 139 0.0307739
117 204 0.0307736
117 245 0.123096
117 292 0.0307741
117 348 0.0923195
117 405 0.0307741
117 406 0.0307721
118 34 0.139087
118 42 0.113964
118 54 0.140126
118 74 0.0467086
118 83 0.0489539
118 97 0.000445771
118 144 5.03404e-07
118 151 0.0467084
118 165 0.0466719
118 180 0.0437345
118 187 0.0467045
118 190 0.0466448
118 292 0.0467085
118 419 0.0467072
118 465 0.0467086
118 472 0.140126
119 20 0.00323036
119 40 0.0213756
119 53 0.0202283
119 63 0.12136
119 73 0.0402164
119 86 0.0202283
119 109 0.0389109
119 131 0.0202233
119 133 0.0639744
119 134 0.136392
119 142 0.0317638
119 143 0.0606828
119 144 0.0181936
119 173 0.0202283
119 182 0.0202283
119 193 0.0202279
119 198 0.040449
119 239 0.0202209
119 248 0.0391323
119 249 0.0404567
119 360 0.0202283
119 380 0.0606847
119 412 0.0606785
119 413 0.0404566
119 416 0.0202283
120 29 0.0587517
120 30 0.176452
120 34 0.0588123
120 48 0.117648
120 55 0.0588019
120 72 0.0588264
120 109 0.0588055
120 111 0.117651
120 197 0.117776
120 249 0.0588265
120 362 0.0588264
120 363 0.0588217
121 10 0.122191
121 12 0.0313555
121 18 0.1254
121 24 0.125422
121 25 0.125312
121 26 0.125423
121 27 0.125423
121 35 0.0313398
121 155 0.125422
121 190 0.062711
122 20 0.0919785
122 48 0.0922554
122 52 0.0923574
122 62 0.0923575
122 64 0.0874174
122 70 0.184716
122 109 0.0784786
122 110 0.00336962
122 264 0.0923577
122 312 0.0923542
122 508 0.0923579
123 33 0.0618759
123 37 0.061876
123 42 4.33999e-05
123 64 0.0793645
123 93 0.0615094
123 96 0.0611125
123 110 0.0607708
123 133 0.119049
123 138 0.0613066
123 158 0.0618759
123 199 0.061876
123 218 0.0618755
123 293 0.061876
123 314 0.0618377
123 315 0.0618759
123 316 0.0618749
124 4 0.0133872
124 29 0.000938859
124 30 6.14055e-06
124 36 2.2883e-07
124 57 0.0266829
124 73 0.084598
124 76 0.0133488
124 85 0.160202
124 88 0.0703172
124 102 0.0667439
124 120 0.0529652
124 127 0.0400463
124 128 0.133369
124 130 7.1315e-05
124 146 0.00127387
124 147 0.015682
124 163 0.0266976
124 173 0.0667423
124 191 0.0400463
124 282 0.0400442
124 451 0.0400463
124 472 0.0133488
124 524 0.0533951
124 538 0.0400463
125 37 0.0534373
125 43 0.0507815
125 45 0.107238
125 48 0.00136782
125 64 0.155945
125 68 0.0534203
125 76 0.0532984
125 118 0.0534195
125 121 0.0534203
125 124 0.05342
125 146 0.0971566
125 177 0.0534203
125 318 0.0534175
125 343 0.0534203
125 432 0.0534203
125 517 0.0534173
126 4 0.0963134
126 5 2.74265e-05
126 8 0.0765361
126 32 8.31822e-06
126 42 0.0158942
126 60 0.143905
126 71 0.0508118
126 88 0.0493943
126 89 0.050832
126 114 0.0508144
126 123 0.0508197
126 128 0.0079889
126 232 0.152496
126 247 0.0508308
126 260 0.050832
126 277 0.152496
127 16 0.0136557
127 17 0.0386525
127 29 0.0674024
127 40 0.0272886
127 48 0.0286773
127 50 0.0272487
127 71 0.0136395
127 97 0.0435687
127 133 1.06365e-06
127 135 0.0955416
127 141 0.0272973
127 146 5.85922e-07
127 164 0.0409463
127 187 0.177295
127 278 0.218381
127 288 0.00297002
127 292 0.0136488
127 324 0.0136488
127 351 0.0409462
127 361 0.068244
127 417 0.0136485
127 418 0.0272975
128 9 0.0828255
128 22 2.13382e-06
128 37 0.0450606
128 39 0.045434
128 42 0.0225763
128 55 0.00157749
128 56 0.043073
128 69 0.0226907
128 89 0.045435
128 109 0.0447033
128 110 0.054279
128 111 0.0227175
128 119 0.0248028
128 121 0.0227175
128 141 0.0226938
128 177 0.045435
128 188 0.0227175
128 211 0.0227175
128 217 0.0225732
128 266 0.0227175
128 334 0.0226551
128 353 0.0227175
128 477 0.045435
128 478 0.0454349
128 479 0.0454347
128 505 0.0454032
128 543 0.045301
128 546 0.0454347
128 547 0.0454342
129 4 0.055883
129 17 0.133831
129 22 0.00129692
129 40 0.00925689
129 44 0.0725446
129 49 0.0184536
129 55 0.0175675
129 57 0.0832234
129 61 0.249828
129 76 0.00489911
129 96 0.00918826
129 109 0.00186855
129 110 0.0189015
129 114 0.00907714
129 187 0.00846961
129 213 0.0836128
129 242 0.129585
129 246 0.00923574
129 269 0.00925578
129 273 0.00925608
129 279 0.0277413
129 390 0.0185119
129 436 0.00925578
129 466 0.00925603
130 19 0.331665
130 42 0.0454677
130 64 0.298138
130 122 0.32473
131 4 0.19692
131 8 0.120039
131 20 0.0499128
131 21 0.0434921
131 40 0.15186
131 60 0.0418677
131 64 0.0921183
131 120 0.0506316
131 151 0.0506313
131 217 0.101263
131 462 0.0506316
131 524 0.0506316
132 9 0.0995259
132 17 0.0399686
132 29 0.174222
132 48 0.102359
132 50 0.108149
132 54 0.0360486
132 90 0.0360507
132 111 0.0719633
132 133 0.00732554
132 253 0.0360496
132 254 0.0360497
132 255 0.0360497
132 278 0.0360497
132 351 0.0720995
132 352 0.0359898
132 431 0.0360496
132 526 0.0360496
133 29 0.135534
133 30 0.135117
133 38 0.135126
133 77 0.135919
133 97 1.29248e-06
133 118 0.045315
133 119 0.0453171
133 131 0.135917
133 151 0.00657292
133 250 0.134545
133 335 0.0453176
133 460 0.0453174
134 19 0.0507299
134 25 0.0257099
134 26 0.150259
134 27 0.0771448
134 35 0.154232
134 38 0.0256363
134 46 0.0467635
134 55 1.59602e-05
134 77 7.56497e-07
134 109 0.0766547
134 110 0.0585688
134 117 0.0257149
134 124 0.0257148
134 169 0.0257147
134 174 0.0257149
134 201 0.0771412
134 205 0.0257149
134 214 0.0257126
134 296 0.0257149
134 297 0.025715
134 452 0.0257149
134 493 0.0257117
135 17 0.0908437
135 25 0.0905231
135 30 0.0908588
135 42 0.00983946
135 44 0.181297
135 55 0.0823936
135 79 0.0908594
135 85 0.0908594
135 98 0.0908594
135 237 0.0908071
135 523 0.0908594
136 110 0.770916
136 144 0.114569
136 322 0.114514
137 4 0.113833
137 22 0.0046922
137 29 0.0840658
137 30 0.0826903
137 38 0.0419832
137 45 0.0421417
137 51 0.0842822
137 62 0.042142
137 109 0.124914
137 138 0.0421384
137 239 0.0842764
137 243 0.042142
137 301 0.084284
137 302 0.0842799
137 321 0.0421343
138 10 0.0460856
138 15 0.0920321
138 19 0.234229
138 42 0.067737
138 64 0.194062
138 73 0.0478898
138 76 0.0460914
138 122 0.225776
138 171 0.0460964
139 3 0.00252643
139 8 0.997474
140 4 0.162469
140 6 0.16054
140 8 0.164538
140 9 0.0125339
140 34 0.166585
140 54 0.166667
140 66 0.166666
141 4 0.12214
141 32 0.027172
141 38 0.123737
141 59 0.123747
141 123 0.247043
141 133 0.108666
141 273 0.123748
141 312 0.123747
142 15 0.10862
142 17 0.156481
142 22 0.0222356
142 29 0.0773815
142 42 0.000136216
142 43 0.0084572
142 44 0.0641354
142 49 0.0651549
142 64 1.58152e-06
142 96 0.0213877
142 110 2.08915e-05
142 165 0.0202228
142 187 0.195077
142 242 0.152069
142 266 0.021723
142 436 0.0868962
143 4 0.048053
143 6 0.00912145
143 7 0.0126485
143 8 0.25124
143 9 2.38564e-05
143 18 0.0122895
143 21 0.0777904
143 29 0.0363508
143 32 5.38077e-05
143 37 0.0123203
143 42 4.30324e-05
143 43 1.64869e-06
143 48 0.0123255
143 54 0.0246272
143 57 0.0117686
143 64 0.000408356
143 73 0.0134736
143 107 0.0493477
143 123 0.0121379
143 133 0.034439
143 142 0.0245947
143 149 0.0369604
143 164 0.0123201
143 173 0.0123201
143 177 0.0123199
143 193 0.0123201
143 208 0.0123207
143 228 0.0246671
143 247 0.0369602
143 253 0.0123201
143 279 0.0242626
143 329 0.0369603
143 348 0.0369546
143 376 0.01232
143 382 0.0123196
143 444 0.0123199
143 505 0.0246575
143 539 0.0123201
143 551 0.0123181
144 44 0.228755
144 55 0.280846
144 110 1.46836e-05
144 121 0.283183
144 133 0.207201
145 4 0.249993
145 30 0.125001
145 38 0.125001
145 39 0.125001
145 41 0.125001
145 60 0.125001
145 83 0.125001
146 32 0.235838
146 44 0.247573
146 142 0.129147
146 143 0.129148
146 364 0.258295
147 21 9.96851e-05
147 22 0.0621803
147 25 9.06216e-06
147 40 0.198624
147 44 0.000825095
147 45 0.0338392
147 55 0.00037683
147 64 1.02584e-05
147 92 0.0338392
147 93 0.0336427
147 96 0.101464
147 153 0.0338392
147 154 0.236875
147 178 0.0676785
147 215 0.0338392
147 312 0.0613411
147 382 0.0338392
147 509 0.0676774
148 9 0.000553181
148 14 0.0255641
148 17 0.0255296
148 29 0.112065
148 40 0.101789
148 50 0.0233601
148 57 0.0506891
148 60 0.0733173
148 170 0.0503089
148 219 0.0511282
148 225 0.0511051
148 299 0.178949
148 375 0.178949
148 421 0.0511282
148 514 0.0255641
149 8 0.00142389
149 22 0.00121627
149 30 0.000613722
149 56 0.503757
149 83 0.157153
149 120 0.167918
149 381 0.167919
150 4 0.343044
150 20 0.0647919
150 22 0.0675341
150 41 0.131065
150 45 0.0656028
150 52 0.0655724
150 83 0.131188
150 128 0.0655994
150 212 0.0656025
151 30 0.203031
151 85 0.188797
151 93 0.202435
151 123 0.202682
151 141 0.203055
152 48 0.0699098
152 49 0.07726
152 63 0.15452
152 64 0.0785031
152 73 0.291689
152 197 0.07726
152 198 0.154485
152 295 0.0191132
152 535 0.07726
153 2 3.10306e-07
153 9 0.000190322
153 15 0.0475539
153 16 0.0191495
153 17 0.0935585
153 19 0.058293
153 29 0.0372597
153 48 0.0382272
153 54 0.0765978
153 62 0.0191494
153 63 0.0165189
153 84 0.0382989
153 90 0.0191495
153 117 0.0191495
153 139 0.0381686
153 154 0.0191495
153 173 0.0191494
153 178 0.0191495
153 195 0.0382988
153 210 0.0574483
153 245 0.0574478
153 267 0.057448
153 313 0.0191495
153 348 0.0191494
153 482 0.0574483
153 483 0.0574484
153 484 0.0574483
154 2 0.376088
154 64 6.49707e-05
154 165 0.122345
154 406 0.12536
154 410 0.376143
155 9 0.0156931
155 22 0.0957954
155 29 0.110174
155 30 0.111186
155 50 0.0555959
155 141 0.111192
155 200 0.111192
155 258 0.111192
155 348 0.111192
155 397 0.055596
155 426 0.111192
156 12 0.042765
156 15 0.17106
156 19 0.0357319
156 29 0.0194924
156 45 0.042765
156 57 0.085288
156 61 0.171058
156 93 0.0427619
156 110 0.00419377
156 153 0.042765
156 154 0.042765
156 213 0.08553
156 226 0.042765
156 242 0.042765
156 436 0.128295
157 10 0.0360355
157 17 0.0395001
157 45 0.0360532
157 89 0.0359658
157 105 0.0360523
157 106 0.0653487
157 108 0.0360529
157 123 0.0355561
157 133 0.0671603
157 144 0.0354247
157 153 0.10816
157 154 0.180266
157 225 0.10816
157 226 0.0721064
157 227 0.036053
157 401 0.0360532
157 420 0.0360527
158 16 0.0546399
158 17 0.0545267
158 20 0.0297123
158 22 1.7014e-06
158 34 0.0527497
158 38 0.0543621
158 44 0.0808722
158 53 0.0546331
158 54 0.0273407
158 55 0.0738448
158 73 0.0271627
158 76 0.0535301
158 186 0.0546399
158 187 0.0273037
158 189 0.0546399
158 423 0.19124
158 429 0.054161
158 556 0.02732
158 557 0.02732
159 53 0.287411
159 133 0.137699
159 140 0.287442
159 219 0.287447
160 22 0.0344042
160 32 2.15403e-05
160 37 0.104289
160 44 0.0364702
160 49 0.0347627
160 50 0.0347629
160 64 0.0323991
160 71 0.0347578
160 93 0.0692653
160 96 0.0691124
160 109 0.0658036
160 110 0.136479
160 138 0.0346788
160 146 0.0346914
160 188 0.034763
160 267 0.0347621
160 292 0.0347629
160 293 0.0695259
160 313 0.0347629
160 440 0.0695258
161 22 0.153426
161 49 0.038919
161 55 0.0388095
161 60 0.0776191
161 83 0.157883
161 110 0.0388234
161 111 0.0660514
161 115 0.0389186
161 118 0.0394475
161 119 0.0778392
161 120 0.0389199
161 121 0.0389199
161 133 1.21132e-05
161 138 0.0388725
161 144 0.038779
161 212 0.0389198
161 448 0.0389199
161 449 0.0389199
162 20 0.119643
162 43 0.000652688
162 44 0.123481
162 60 0.12344
162 73 0.127221
162 96 0.127999
162 133 0.252769
162 195 0.124794
163 22 0.0612283
163 28 0.0613123
163 30 0.0613247
163 42 0.0711594
163 45 0.0613499
163 49 0.116788
163 54 0.0613499
163 55 0.0612555
163 61 0.0613489
163 64 0.0158097
163 74 0.0613498
163 88 0.0612652
163 133 0.0604083
163 142 0.0613499
163 143 0.0613498
163 494 0.0613499
164 16 0.0556221
164 17 0.109908
164 25 0.0556493
164 26 0.0556508
164 46 0.0556508
164 49 0.0556508
164 79 0.0556508
164 93 0.0556039
164 115 0.0556508
164 155 0.0556508
164 187 0.111057
164 242 0.0556508
164 260 0.0556508
164 323 0.0556508
164 371 0.0556508
164 476 0.0556508
165 29 0.0236511
165 36 0.0521992
165 39 0.0260299
165 94 0.0260336
165 113 0.027351
165 131 0.0260334
165 132 0.0260335
165 133 0.0116616
165 236 0.0260336
165 250 0.0260336
165 281 0.0260336
165 346 0.052067
165 368 0.0520671
165 369 0.052067
165 410 0.0260336
165 477 0.104134
165 478 0.104134
165 479 0.104134
165 480 0.104134
165 481 0.0520671
165 514 0.0520666
166 9 0.143227
166 17 0.203051
166 20 0.20574
166 21 0.036094
166 142 0.205943
166 227 0.205945
167 29 0.240359
167 32 0.000104555
167 39 0.120036
167 40 0.120051
167 43 0.0485673
167 44 0.110784
167 77 0.119999
167 170 0.120051
167 279 0.120048
168 35 0.194425
168 42 0.00108206
168 44 0.0552308
168 46 0.194436
168 64 0.165954
168 135 0.194436
168 365 0.194436
169 4 0.167017
169 22 3.22671e-05
169 29 0.167765
169 37 0.167771
169 39 0.167771
169 55 0.161883
169 119 0.167761
170 4 0.205459
170 7 0.165809
170 8 0.00837795
170 20 0.205725
170 21 0.207043
170 36 0.207587
171 57 0.5
171 299 0.5
172 30 0.111155
172 38 0.111153
172 44 0.110772
172 60 0.111152
172 73 0.111151
172 79 0.111155
172 120 0.111154
172 123 0.111153
172 238 0.111155
173 19 0.180589
173 25 0.181394
173 42 6.10672e-06
173 64 0.158761
173 175 0.184465
173 272 0.0180922
173 365 0.092232
173 506 0.184461
174 64 0.199242
174 85 0.200216
174 141 0.200216
174 147 0.200109
174 232 0.200216
175 6 0.017395
175 8 5.59221e-05
175 22 0.179978
175 41 0.200644
175 69 0.200644
175 83 0.20064
175 545 0.200644
176 4 0.110573
176 25 0.11176
176 26 0.111553
176 30 0.111839
176 42 1.37326e-05
176 115 0.111845
176 123 0.106885
176 241 0.111845
176 260 0.111844
176 279 0.111844
177 6 0.00713023
177 7 0.000838326
177 8 0.497662
177 9 0.252269
177 28 0.242101
178 2 0.333258
178 64 0.000315665
178 406 0.333164
178 410 0.333262
179 2 0.250166
179 64 0.135334
179 133 0.489428
179 406 0.125071
180 73 0.200367
180 88 0.188352
180 128 0.203759
180 348 0.20376
180 360 0.203762
181 20 0.123357
181 48 0.125233
181 52 0.125236
181 62 0.125235
181 68 0.125236
181 312 0.125231
181 508 0.125236
181 529 0.125236
182 4 0.148928
182 6 9.7645e-07
182 8 0.0876138
182 9 0.0924646
182 13 3.17966e-05
182 22 0.0977702
182 29 3.23905e-05
182 30 0.0425193
182 44 0.0377086
182 58 0.0493473
182 60 0.0488794
182 111 0.197389
182 128 0.147979
182 142 0.0493355
183 13 1.63755e-05
183 36 0.000511713
183 37 0.138163
183 42 0.170571
183 49 0.276323
183 93 0.138088
183 212 0.138163
183 293 0.138164
184 17 0.11058
184 37 0.111247
184 44 0.110927
184 45 0.111237
184 61 0.111246
184 93 0.111247
184 133 0.111225
184 144 0.111139
184 242 0.111153
185 42 1
186 5 0.00680935
186 9 0.192693
186 54 0.264422
186 66 0.00893913
186 110 0.263949
186 138 0.263187
187 54 0.333555
187 66 6.41795e-06
187 110 0.333442
187 138 0.332996
188 9 0.09314
188 17 0.198893
188 48 0.203461
188 109 0.0999657
188 110 0.192792
188 138 0.00629045
188 227 0.205458
189 2 0.202183
189 133 0.397096
189 165 0.199785
189 355 0.200936
190 20 0.000605289
190 40 0.165894
190 64 0.163879
190 77 0.0010628
190 109 0.167106
190 190 0.167151
190 296 0.167151
190 297 0.167151
191 35 0.112033
191 42 0.109053
191 44 0.10669
191 45 0.112038
191 49 0.112038
191 135 0.112038
191 207 0.112038
191 208 0.112033
191 240 0.112038
192 44 0.666666
192 77 0.333334
193 17 0.11131
193 32 0.109555
193 41 0.111601
193 42 0.109531
193 48 0.111601
193 69 0.111601
193 71 0.1116
193 139 0.111601
193 549 0.111601
194 17 0.144133
194 63 0.146602
194 134 0.0275622
194 142 0.274703
194 217 0.293209
194 363 0.11379
195 44 0.285144
195 55 0.285714
195 56 0.143057
195 120 0.143057
195 138 0.143029
196 64 0.165681
196 110 0.164736
196 134 0.167454
196 138 0.167192
196 541 0.167468
196 559 0.167468
197 9 0.214142
197 88 0.214194
197 128 0.214194
197 141 0.21279
197 320 0.144681
